 DATE: 2025-04-20 UNITS: metal CONTRIBUTOR: Xiaowang Zhou xzhou@sandia.gov and Lucas Hale lucas.hale@nist.gov 
 CITATION: X. W. Zhou, R. A. Johnson, H. N. G. Wadley, Phys. Rev. B, 69, 144113(2004)
 Generated by create.f and eam_fit
           1 V
        2000   5.0025012506253123E-002        2000   2.3966236393972457E-003   4.7908506551550945     
   23        50.94000         3.03      bcc
  0.0000000000000000E+00  5.1072152192174869E-02  3.1790043802677470E-02  1.2582747521438176E-02 -6.5498876963760999E-03
 -2.5608012895602883E-02 -4.4591779121076147E-02 -6.3501337417632087E-02 -8.2336838830104675E-02 -1.0109843440333011E-01
 -1.1978627518214324E-01 -1.3840051221137939E-01 -1.5694129653587385E-01 -1.7540877920046283E-01 -1.9380311124997851E-01
 -2.1212444372925976E-01 -2.3037292768313966E-01 -2.4854871415645441E-01 -2.6665195419403886E-01 -2.8468279884072745E-01
 -3.0264139914135724E-01 -3.2052790614076176E-01 -3.3834247088377722E-01 -3.5608524441523892E-01 -3.7375637777998127E-01
 -3.9135602202284048E-01 -4.0888432818865050E-01 -4.2634144732224799E-01 -4.4372753046846736E-01 -4.6104272867214435E-01
 -4.7828719297811384E-01 -4.9546107443121112E-01 -5.1256452407627062E-01 -5.2959769295812942E-01 -5.4656073212162104E-01
 -5.6345379261158168E-01 -5.8027702547284665E-01 -5.9703058175025037E-01 -6.1371461248862857E-01 -6.3032926873281658E-01
 -6.4687470152764970E-01 -6.6335106191796278E-01 -6.7975850094859114E-01 -6.9609716966437052E-01 -7.1236721911013556E-01
 -7.2856880033072180E-01 -7.4470206437096476E-01 -7.6076716227569818E-01 -7.7676424508975894E-01 -7.9269346385798212E-01
 -8.0855496962520257E-01 -8.2434891343625560E-01 -8.4007544633597564E-01 -8.5573471936919931E-01 -8.7132688358076149E-01
 -8.8685209001549703E-01 -9.0231048971824102E-01 -9.1770223373382920E-01 -9.3302747310709644E-01 -9.4828635888287827E-01
 -9.6347904210600932E-01 -9.7860567382132579E-01 -9.9366640507366211E-01 -1.0086613869078542E+00 -1.0235907703687364E+00
 -1.0384547065011449E+00 -1.0532533463499139E+00 -1.0679868409598801E+00 -1.0826553413758775E+00 -1.0972589986427419E+00
 -1.1117979638053075E+00 -1.1262723879084111E+00 -1.1406824219968872E+00 -1.1550282171155712E+00 -1.1693099243092981E+00
 -1.1835276946229030E+00 -1.1976816791012215E+00 -1.2117720287890885E+00 -1.2257988947313401E+00 -1.2397624279728101E+00
 -1.2536627795583348E+00 -1.2675001005327489E+00 -1.2812745419408886E+00 -1.2949862548275881E+00 -1.3086353902376830E+00
 -1.3222220992160081E+00 -1.3357465328073994E+00 -1.3492088420566917E+00 -1.3626091780087208E+00 -1.3759476917083211E+00
 -1.3892245342003278E+00 -1.4024398565295766E+00 -1.4155938097409033E+00 -1.4286865448791422E+00 -1.4417182129891286E+00
 -1.4546889651156982E+00 -1.4675989523036856E+00 -1.4804483255979273E+00 -1.4932372360432573E+00 -1.5059658346845113E+00
 -1.5186342725665241E+00 -1.5312427007341316E+00 -1.5437912702321686E+00 -1.5562801321054707E+00 -1.5687094373988726E+00
 -1.5810793371572103E+00 -1.5933899824253182E+00 -1.6056415242480320E+00 -1.6178341136701866E+00 -1.6299679017366180E+00
 -1.6420430394921606E+00 -1.6540596779816503E+00 -1.6660179682499217E+00 -1.6779180613418105E+00 -1.6897601083021521E+00
 -1.7015442601757809E+00 -1.7132706680075331E+00 -1.7249394828422433E+00 -1.7365508557247467E+00 -1.7481049376998792E+00
 -1.7596018798124751E+00 -1.7710418331073707E+00 -1.7824249486294006E+00 -1.7937513774233997E+00 -1.8050212705342041E+00
 -1.8162347790066484E+00 -1.8273920538855681E+00 -1.8384932462157988E+00 -1.8495385070421742E+00 -1.8605279874095313E+00
 -1.8714618383627049E+00 -1.8823402109465299E+00 -1.8931632562058418E+00 -1.9039311251854751E+00 -1.9146439689302661E+00
 -1.9253019384850498E+00 -1.9359051848946609E+00 -1.9464538592039349E+00 -1.9569481124577068E+00 -1.9673880957008123E+00
 -1.9777739599780868E+00 -1.9881058563343657E+00 -1.9983839358144824E+00 -2.0086083494632740E+00 -2.0187792483255755E+00
 -2.0288967834462222E+00 -2.0389611058700474E+00 -2.0489723666418893E+00 -2.0589307168065814E+00 -2.0688363074089597E+00
 -2.0786892894938589E+00 -2.0884898141061137E+00 -2.0982380322905603E+00 -2.1079340950920340E+00 -2.1175781535553693E+00
 -2.1271703587254023E+00 -2.1367108616469670E+00 -2.1461998133649001E+00 -2.1556373649240359E+00 -2.1650236673692098E+00
 -2.1743588717452571E+00 -2.1836431290970131E+00 -2.1928765904693130E+00 -2.2020594069069919E+00 -2.2111917294548853E+00
 -2.2202737091578282E+00 -2.2293054970606558E+00 -2.2382872442082040E+00 -2.2472191016453067E+00 -2.2561012204168001E+00
 -2.2649337515675194E+00 -2.2737168461423001E+00 -2.2824506551859769E+00 -2.2911353297433847E+00 -2.2997710208593598E+00
 -2.3083578795787369E+00 -2.3168960569463506E+00 -2.3253857040070374E+00 -2.3338269718056317E+00 -2.3422200113869689E+00
 -2.3505649737958834E+00 -2.3588620100772122E+00 -2.3671112712757898E+00 -2.3753129084364510E+00 -2.3834670726040312E+00
 -2.3915739148233657E+00 -2.3996335861392897E+00 -2.4076462375966390E+00 -2.4156120202402476E+00 -2.4235310851149512E+00
 -2.4314035832655865E+00 -2.4392296657369874E+00 -2.4470094835739888E+00 -2.4547431878214265E+00 -2.4624309295241353E+00
 -2.4700728597269515E+00 -2.4776691294747097E+00 -2.4852198898122446E+00 -2.4927252917843923E+00 -2.5001854864359867E+00
 -2.5076006248118654E+00 -2.5149708579568615E+00 -2.5222963369158111E+00 -2.5295772127335487E+00 -2.5368136364549110E+00
 -2.5440057591247323E+00 -2.5511537317878479E+00 -2.5582577054890927E+00 -2.5653178312733029E+00 -2.5723342601853121E+00
 -2.5793071432699572E+00 -2.5862366315720728E+00 -2.5931228761364946E+00 -2.5999660280080565E+00 -2.6067662382315953E+00
 -2.6135236578519452E+00 -2.6202384379139421E+00 -2.6269107294624208E+00 -2.6335406835422162E+00 -2.6401284511981640E+00
 -2.6466741834751004E+00 -2.6531780314178590E+00 -2.6596401460712760E+00 -2.6660606784801852E+00 -2.6724397796894244E+00
 -2.6787776007438273E+00 -2.6850742926882285E+00 -2.6913300065674650E+00 -2.6975448934263699E+00 -2.7037191043097804E+00
 -2.7098527902625307E+00 -2.7159461023294567E+00 -2.7219991915553918E+00 -2.7280122089851737E+00 -2.7339853056636367E+00
 -2.7399186326356157E+00 -2.7458123409459461E+00 -2.7516665816394625E+00 -2.7574815057610018E+00 -2.7632572643553979E+00
 -2.7689940084674864E+00 -2.7746918891421024E+00 -2.7803510574240811E+00 -2.7859716643582582E+00 -2.7915538609894690E+00
 -2.7970977983625480E+00 -2.8026036275223305E+00 -2.8080714995136522E+00 -2.8135015653813484E+00 -2.8188939761702541E+00
 -2.8242488829252044E+00 -2.8295664366910347E+00 -2.8348467885125803E+00 -2.8400900894346766E+00 -2.8452964905021583E+00
 -2.8504661427598608E+00 -2.8555991972526198E+00 -2.8606958050252702E+00 -2.8657561171226469E+00 -2.8707802845895860E+00
 -2.8757684584709220E+00 -2.8807207898114902E+00 -2.8856374296561267E+00 -2.8905185290496656E+00 -2.8953642390369421E+00
 -2.9001747106627924E+00 -2.9049500949720510E+00 -2.9096905430095537E+00 -2.9143962058201351E+00 -2.9190672344486313E+00
 -2.9237037799398764E+00 -2.9283059933387068E+00 -2.9328740256899568E+00 -2.9374080280384622E+00 -2.9419081514290584E+00
 -2.9463745469065796E+00 -2.9508073655158618E+00 -2.9552067583017405E+00 -2.9595728763090507E+00 -2.9639058705826273E+00
 -2.9682058921673056E+00 -2.9724730921079212E+00 -2.9767076214493091E+00 -2.9809096312363050E+00 -2.9850792725137434E+00
 -2.9892166963264595E+00 -2.9933220537192891E+00 -2.9973954957370674E+00 -3.0014371734246299E+00 -3.0054472378268109E+00
 -3.0094258399884461E+00 -3.0133731309543710E+00 -3.0172892617694207E+00 -3.0211743834784297E+00 -3.0250286471262346E+00
 -3.0288522037576695E+00 -3.0326452044175705E+00 -3.0364078001507724E+00 -3.0401401420021101E+00 -3.0438423810164190E+00
 -3.0475146682385352E+00 -3.0511571547132927E+00 -3.0547699914855277E+00 -3.0583533296000751E+00 -3.0619073201017697E+00
 -3.0654321140354472E+00 -3.0689278624459426E+00 -3.0723947163780920E+00 -3.0758328268767290E+00 -3.0792423449866901E+00
 -3.0826234217528103E+00 -3.0859762082199249E+00 -3.0893008554328687E+00 -3.0925975144364770E+00 -3.0958663362755856E+00
 -3.0991074719950293E+00 -3.1023210726396435E+00 -3.1055072892542639E+00 -3.1086662728837240E+00 -3.1117981745728609E+00
 -3.1149031453665090E+00 -3.1179813363095041E+00 -3.1210328984466806E+00 -3.1240579828228743E+00 -3.1270567404829199E+00
 -3.1300293224716538E+00 -3.1329758798339102E+00 -3.1358965636145242E+00 -3.1387915248583318E+00 -3.1416609146101684E+00
 -3.1445048839148684E+00 -3.1473235838172671E+00 -3.1501171653621998E+00 -3.1528857795945027E+00 -3.1556295775590097E+00
 -3.1583487103005572E+00 -3.1610433288639799E+00 -3.1637135842941122E+00 -3.1663596276357904E+00 -3.1689816099338501E+00
 -3.1715796822331255E+00 -3.1741539955784526E+00 -3.1767047010146650E+00 -3.1792319495866006E+00 -3.1817358923390926E+00
 -3.1842166803169771E+00 -3.1866744645650895E+00 -3.1891093961282642E+00 -3.1915216260513368E+00 -3.1939113053791428E+00
 -3.1962785851565179E+00 -3.1986236164282955E+00 -3.2009465502393128E+00 -3.2032475376344043E+00 -3.2055267296584051E+00
 -3.2077842773561511E+00 -3.2100203317724763E+00 -3.2122350439522167E+00 -3.2144285649402082E+00 -3.2166010457812848E+00
 -3.2187526375202826E+00 -3.2208834912020357E+00 -3.2229937578713810E+00 -3.2250835885731526E+00 -3.2271531343521853E+00
 -3.2292025462533163E+00 -3.2312319753213781E+00 -3.2332415726012083E+00 -3.2352314891376412E+00 -3.2372018759755128E+00
 -3.2391528841596564E+00 -3.2410846647349092E+00 -3.2429973687461056E+00 -3.2448911472380813E+00 -3.2467661512556703E+00
 -3.2486225318437092E+00 -3.2504604400470325E+00 -3.2522800269104764E+00 -3.2540814434788747E+00 -3.2558648407970638E+00
 -3.2576303699098781E+00 -3.2593781818621532E+00 -3.2611084276987250E+00 -3.2628212584644274E+00 -3.2645168252040975E+00
 -3.2661952789625679E+00 -3.2678567707846762E+00 -3.2695014517152563E+00 -3.2711294727991449E+00 -3.2727409850811755E+00
 -3.2743361396061834E+00 -3.2759150874190057E+00 -3.2774779795644760E+00 -3.2790249670874303E+00 -3.2805562010327027E+00
 -3.2820718324451299E+00 -3.2835720123695462E+00 -3.2850568918507874E+00 -3.2865266219336884E+00 -3.2879813536630844E+00
 -3.2894212380838108E+00 -3.2908464262407029E+00 -3.2922570691785964E+00 -3.2936533179423253E+00 -3.2950353235767249E+00
 -3.2964032371266319E+00 -3.2977572096368806E+00 -3.2990973921523059E+00 -3.3004239357177436E+00 -3.3017369913780290E+00
 -3.3030367101779969E+00 -3.3043232431624832E+00 -3.3055967413763225E+00 -3.3068573558643504E+00 -3.3081052376714011E+00
 -3.3093405378423113E+00 -3.3105634074219159E+00 -3.3117739974550497E+00 -3.3129724589865477E+00 -3.3141589430612459E+00
 -3.3153336007239793E+00 -3.3164965830195827E+00 -3.3176480409928919E+00 -3.3187881256887422E+00 -3.3199169881519679E+00
 -3.3210347794274058E+00 -3.3221416505598897E+00 -3.3232377525942547E+00 -3.3243232365753377E+00 -3.3253982535479722E+00
 -3.3264629545569946E+00 -3.3275174906472400E+00 -3.3285620128635429E+00 -3.3295966722507386E+00 -3.3306216198536633E+00
 -3.3316370067171519E+00 -3.3326429838860392E+00 -3.3336397024051601E+00 -3.3346273133193507E+00 -3.3356059676734460E+00
 -3.3365758165122812E+00 -3.3375370108806912E+00 -3.3384897018235118E+00 -3.3394340403855778E+00 -3.3403701776117245E+00
 -3.3412982645467877E+00 -3.3422184522356013E+00 -3.3431308917230016E+00 -3.3440357340538247E+00 -3.3449331302729037E+00
 -3.3458232314250753E+00 -3.3467061885551739E+00 -3.3475821527080361E+00 -3.3484512749284958E+00 -3.3493137062613885E+00
 -3.3501695977515498E+00 -3.3510191004438141E+00 -3.3518623653830177E+00 -3.3526995436139959E+00 -3.3535307861815831E+00
 -3.3543562441306150E+00 -3.3551760685059260E+00 -3.3559904103523528E+00 -3.3567994207147298E+00 -3.3576032506378923E+00
 -3.3584020511666761E+00 -3.3591959733459147E+00 -3.3599851682204451E+00 -3.3607697868351023E+00 -3.3615499802347211E+00
 -3.3623258994641367E+00 -3.3630976955681842E+00 -3.3533356099373495E+00 -3.3539810292475605E+00 -3.3546187404745447E+00
 -3.3552487388912424E+00 -3.3558710197705928E+00 -3.3564855783855361E+00 -3.3570924100090114E+00 -3.3576915099139599E+00
 -3.3582828733733208E+00 -3.3588664956600334E+00 -3.3594423720470381E+00 -3.3600104978072749E+00 -3.3605708682136832E+00
 -3.3611234785392035E+00 -3.3616683240567746E+00 -3.3622054000393371E+00 -3.3627347017598308E+00 -3.3632562244911952E+00
 -3.3637699635063707E+00 -3.3642759140782967E+00 -3.3647740714799128E+00 -3.3652644309841593E+00 -3.3657469878639761E+00
 -3.3662217373923022E+00 -3.3666886748420786E+00 -3.3671477954862445E+00 -3.3675990945977397E+00 -3.3680425674495047E+00
 -3.3684782093144783E+00 -3.3689060154656012E+00 -3.3693259811758125E+00 -3.3697381017180525E+00 -3.3701423723652617E+00
 -3.3705387883903790E+00 -3.3709273450663439E+00 -3.3713080376660973E+00 -3.3716808614625782E+00 -3.3720458117287273E+00
 -3.3724028837374833E+00 -3.3727520727617866E+00 -3.3730933740745774E+00 -3.3734267829487958E+00 -3.3737522946573804E+00
 -3.3740699044732718E+00 -3.3743796076694097E+00 -3.3746813995187344E+00 -3.3749752752941853E+00 -3.3752612302687020E+00
 -3.3755392597152243E+00 -3.3758093589066931E+00 -3.3760715231160474E+00 -3.3763257476162267E+00 -3.3765720276801714E+00
 -3.3768103585808213E+00 -3.3770407355911161E+00 -3.3772631539839959E+00 -3.3774776090324004E+00 -3.3776840960092693E+00
 -3.3778826101875423E+00 -3.3780731468401597E+00 -3.3782557012400609E+00 -3.3784302686601859E+00 -3.3785968443734746E+00
 -3.3787554236528670E+00 -3.3789060017713024E+00 -3.3790485740017213E+00 -3.3791831356170636E+00 -3.3793096818902684E+00
 -3.3794282080942759E+00 -3.3795387095020253E+00 -3.3796411813864582E+00 -3.3797356190205128E+00 -3.3798220176771294E+00
 -3.3799003726292480E+00 -3.3799706791498081E+00 -3.3800329325117500E+00 -3.3800871279880136E+00 -3.3801332608515380E+00
 -3.3801713263752644E+00 -3.3802013198321306E+00 -3.3802232364950782E+00 -3.3802370716370462E+00 -3.3802428205309751E+00
 -3.3802404784498039E+00 -3.3802300406664729E+00 -3.3802115024539217E+00 -3.3801848590850909E+00 -3.3801501058329193E+00
 -3.3801072379703476E+00 -3.3800562507703149E+00 -3.3799971395057611E+00 -3.3799298994496270E+00 -3.3798545258748511E+00
 -3.3797710140543744E+00 -3.3796793592611358E+00 -3.3795795567680762E+00 -3.3794716018481346E+00 -3.3793554897742504E+00
 -3.3792312158193649E+00 -3.3790987752564168E+00 -3.3789581633583463E+00 -3.3788093753980930E+00 -3.3786524066485972E+00
 -3.3784872523827985E+00 -3.3783139078736371E+00 -3.3781323683940521E+00 -3.3779426292169838E+00 -3.3777446856153714E+00
 -3.3775385328621561E+00 -3.3773241662302764E+00 -3.3771015809926732E+00 -3.3768707724222855E+00 -3.3766317357920532E+00
 -3.3763844663749167E+00 -3.3761289594438155E+00 -3.3758652102716895E+00 -3.3755932141314786E+00 -3.3753129662961223E+00
 -3.3750244620385610E+00 -3.3747276966317337E+00 -3.3744226653485812E+00 -3.3741093634620425E+00 -3.3737877862450585E+00
 -3.3734579289705677E+00 -3.3731197869115110E+00 -3.3727733553408275E+00 -3.3724186295314582E+00 -3.3720556047563415E+00
 -3.3716842762884180E+00 -3.3713046394006274E+00 -3.3709166893659099E+00 -3.3705204214572047E+00 -3.3701158309474519E+00
 -3.3697029131095917E+00 -3.3692816632165630E+00 -3.3688520765413070E+00 -3.3684141483567620E+00 -3.3679678739358696E+00
 -3.3675132485515675E+00 -3.3670502674767975E+00 -3.3665789259844989E+00 -3.3660992193476109E+00 -3.3656111428390738E+00
 -3.3651146917318271E+00 -3.3646098612988111E+00 -3.3640966468129654E+00 -3.3635750435472302E+00 -3.3630450467745452E+00
 -3.3625066517678497E+00 -3.3619598538000837E+00 -3.3614046481441875E+00 -3.3608410300731006E+00 -3.3602689948597630E+00
 -3.3596885377771146E+00 -3.3590996540980949E+00 -3.3585023390956441E+00 -3.3578965880427019E+00 -3.3572823962122080E+00
 -3.3566597588771021E+00 -3.3560286713103249E+00 -3.3553891287848154E+00 -3.3547411265735136E+00 -3.3540846599493599E+00
 -3.3534197241852932E+00 -3.3527463145542535E+00 -3.3520644263291812E+00 -3.3516140663828402E+00 -3.3512847545648352E+00
 -3.3509519927325626E+00 -3.3506157903141203E+00 -3.3502761566984192E+00 -3.3499331012354130E+00 -3.3495866332363127E+00
 -3.3492367619738057E+00 -3.3488834966822743E+00 -3.3485268465580109E+00 -3.3481668207594288E+00 -3.3478034284072780E+00
 -3.3474366785848533E+00 -3.3470665803382058E+00 -3.3466931426763491E+00 -3.3463163745714652E+00 -3.3459362849591110E+00
 -3.3455528827384184E+00 -3.3451661767723011E+00 -3.3447761758876511E+00 -3.3443828888755394E+00 -3.3439863244914130E+00
 -3.3435864914552935E+00 -3.3431833984519659E+00 -3.3427770541311825E+00 -3.3423674671078443E+00 -3.3419546459621987E+00
 -3.3415385992400264E+00 -3.3411193354528312E+00 -3.3406968630780254E+00 -3.3402711905591169E+00 -3.3398423263058925E+00
 -3.3394102786946007E+00 -3.3389750560681333E+00 -3.3385366667362115E+00 -3.3380951189755552E+00 -3.3376504210300699E+00
 -3.3372025811110198E+00 -3.3367516073972023E+00 -3.3362975080351265E+00 -3.3358402911391827E+00 -3.3353799647918163E+00
 -3.3349165370436995E+00 -3.3344500159138999E+00 -3.3339804093900480E+00 -3.3335077254285075E+00 -3.3330319719545383E+00
 -3.3325531568624687E+00 -3.3320712880158485E+00 -3.3315863732476219E+00 -3.3310984203602843E+00 -3.3306074371260439E+00
 -3.3301134312869838E+00 -3.3296164105552197E+00 -3.3291163826130545E+00 -3.3286133551131378E+00 -3.3281073356786215E+00
 -3.3275983319033156E+00 -3.3270863513518361E+00 -3.3265714015597636E+00 -3.3260534900337930E+00 -3.3255326242518830E+00
 -3.3250088116634040E+00 -3.3244820596892914E+00 -3.3239523757221883E+00 -3.3234197671265955E+00 -3.3228842412390152E+00
 -3.3223458053680957E+00 -3.3218044667947755E+00 -3.3212602327724254E+00 -3.3207131105269925E+00 -3.3201631072571396E+00
 -3.3196102301343826E+00 -3.3190544863032341E+00 -3.3184958828813391E+00 -3.3179344269596123E+00 -3.3173701256023747E+00
 -3.3168029858474903E+00 -3.3162330147064982E+00 -3.3156602191647493E+00 -3.3150846061815349E+00 -3.3145061826902249E+00
 -3.3139249555983938E+00 -3.3133409317879519E+00 -3.3127541181152780E+00 -3.3121645214113444E+00 -3.3115721484818463E+00
 -3.3109770061073283E+00 -3.3103791010433121E+00 -3.3097784400204198E+00 -3.3091750297444995E+00 -3.3085688768967514E+00
 -3.3079599881338453E+00 -3.3073483700880488E+00 -3.3067340293673455E+00 -3.3061169725555564E+00 -3.3054972062124608E+00
 -3.3048747368739120E+00 -3.3042495710519622E+00 -3.3036217152349749E+00 -3.3029911758877439E+00 -3.3023579594516073E+00
 -3.3017220723445662E+00 -3.3010835209613996E+00 -3.3004423116737756E+00 -3.2997984508303668E+00 -3.2991519447569631E+00
 -3.2985027997565810E+00 -3.2978510221095787E+00 -3.2971966180737646E+00 -3.2965395938845083E+00 -3.2958799557548479E+00
 -3.2952177098756015E+00 -3.2945528624154692E+00 -3.2938854195211515E+00 -3.2932153873174426E+00 -3.2925427719073452E+00
 -3.2918675793721737E+00 -3.2911898157716566E+00 -3.2905094871440443E+00 -3.2898265995062079E+00 -3.2891411588537465E+00
 -3.2884531711610867E+00 -3.2877626423815847E+00 -3.2870695784476243E+00 -3.2863739852707234E+00 -3.2856758687416292E+00
 -3.2849752347304166E+00 -3.2842720890865902E+00 -3.2835664376391782E+00 -3.2828582861968330E+00 -3.2821476405479251E+00
 -3.2814345064606423E+00 -3.2807188896830817E+00 -3.2800007959433479E+00 -3.2792802309496443E+00 -3.2785572003903698E+00
 -3.2778317099342100E+00 -3.2771037652302293E+00 -3.2763733719079680E+00 -3.2756405355775273E+00 -3.2749052618296619E+00
 -3.2741675562358776E+00 -3.2734274243485086E+00 -3.2726848717008186E+00 -3.2719399038070831E+00 -3.2711925261626802E+00
 -3.2704427442441775E+00 -3.2696905635094202E+00 -3.2689359893976189E+00 -3.2681790273294320E+00 -3.2674196827070556E+00
 -3.2666579609143067E+00 -3.2658938673167106E+00 -3.2651274072615810E+00 -3.2643585860781079E+00 -3.2635874090774375E+00
 -3.2628138815527583E+00 -3.2620380087793799E+00 -3.2612597960148189E+00 -3.2604792484988772E+00 -3.2596963714537237E+00
 -3.2589111700839775E+00 -3.2581236495767802E+00 -3.2573338151018874E+00 -3.2565416718117359E+00 -3.2557472248415316E+00
 -3.2549504793093194E+00 -3.2541514403160692E+00 -3.2533501129457467E+00 -3.2525465022653934E+00 -3.2517406133252029E+00
 -3.2509324511585955E+00 -3.2501220207822943E+00 -3.2493093271964013E+00 -3.2484943753844711E+00 -3.2476771703135863E+00
 -3.2468577169344273E+00 -3.2460360201813523E+00 -3.2452120849724650E+00 -3.2443859162096884E+00 -3.2435575187788395E+00
 -3.2427268975496983E+00 -3.2418940573760779E+00 -3.2410590030959012E+00 -3.2402217395312642E+00 -3.2393822714885125E+00
 -3.2385406037583064E+00 -3.2376967411156929E+00 -3.2368506883201733E+00 -3.2360024501157740E+00 -3.2351520312311117E+00
 -3.2342994363794624E+00 -3.2334446702588311E+00 -3.2325877375520147E+00 -3.2317286429266714E+00 -3.2308673910353889E+00
 -3.2300039865157442E+00 -3.2291384339903768E+00 -3.2282707380670468E+00 -3.2274009033387054E+00 -3.2265289343835568E+00
 -3.2256548357651211E+00 -3.2247786120323023E+00 -3.2239002677194479E+00 -3.2230198073464140E+00 -3.2221372354186255E+00
 -3.2212525564271424E+00 -3.2203657748487182E+00 -3.2194768951458670E+00 -3.2185859217669162E+00 -3.2176928591460752E+00
 -3.2167977117034940E+00 -3.2159004838453225E+00 -3.2150011799637714E+00 -3.2140998044371707E+00 -3.2131963616300308E+00
 -3.2122908558931034E+00 -3.2113832915634326E+00 -3.2104736729644245E+00 -3.2095620044058948E+00 -3.2086482901841342E+00
 -3.2077325345819618E+00 -3.2068147418687838E+00 -3.2058949163006507E+00 -3.2049730621203114E+00 -3.2040491835572751E+00
 -3.2031232848278592E+00 -3.2021953701352537E+00 -3.2012654436695689E+00 -3.2003335096078964E+00 -3.1993995721143595E+00
 -3.1984636353401719E+00 -3.1975257034236879E+00 -3.1965857804904583E+00 -3.1956438706532855E+00 -3.1946999780122716E+00
 -3.1937541066548807E+00 -3.1928062606559804E+00 -3.1918564440779034E+00 -3.1909046609704967E+00 -3.1899509153711709E+00
 -3.1889952113049569E+00 -3.1880375527845524E+00 -3.1870779438103765E+00 -3.1861163883706194E+00 -3.1851528904412936E+00
 -3.1841874539862829E+00 -3.1832200829573929E+00 -3.1822507812944023E+00 -3.1812795529251110E+00 -3.1803064017653893E+00
 -3.1793313317192280E+00 -3.1783543466787876E+00 -3.1773754505244436E+00 -3.1763946471248383E+00 -3.1754119403369288E+00
 -3.1744273340060314E+00 -3.1734408319658733E+00 -3.1724524380386372E+00 -3.1714621560350089E+00 -3.1704699897542241E+00
 -3.1694759429841164E+00 -3.1684800195011609E+00 -3.1674822230705231E+00 -3.1664825574461029E+00 -3.1654810263705810E+00
 -3.1644776335754639E+00 -3.1634723827811295E+00 -3.1624652776968714E+00 -3.1614563220209440E+00 -3.1604455194406076E+00
 -3.1594328736321722E+00 -3.1584183882610390E+00 -3.1574020669817484E+00 -3.1563839134380225E+00 -3.1553639312628055E+00
 -3.1543421240783101E+00 -3.1533184954960585E+00 -3.1522930491169263E+00 -3.1512657885311861E+00 -3.1502367173185446E+00
 -3.1492058390481907E+00 -3.1481731572788338E+00 -3.1471386755587480E+00 -3.1461023974258104E+00 -3.1450643264075437E+00
 -3.1440244660211594E+00 -3.1429828197735952E+00 -3.1419393911615559E+00 -3.1408941836715560E+00 -3.1398472007799598E+00
 -3.1387984459530194E+00 -3.1377479226469149E+00 -3.1366956343077952E+00 -3.1356415843718159E+00 -3.1345857762651805E+00
 -3.1335282134041771E+00 -3.1324688991952199E+00 -3.1314078370348839E+00 -3.1303450303099480E+00 -3.1292804823974283E+00
 -3.1282141966646231E+00 -3.1271461764691404E+00 -3.1260764251589470E+00 -3.1250049460723970E+00 -3.1239317425382760E+00
 -3.1228568178758302E+00 -3.1217801753948127E+00 -3.1207018183955122E+00 -3.1196217501687955E+00 -3.1185399739961399E+00
 -3.1174564931496724E+00 -3.1163713108922009E+00 -3.1152844304772564E+00 -3.1141958551491249E+00 -3.1131055881428837E+00
 -3.1120136326844365E+00 -3.1109199919905488E+00 -3.1098246692688845E+00 -3.1087276677180360E+00 -3.1076289905275640E+00
 -3.1065286408780310E+00 -3.1054266219410329E+00 -3.1043229368792344E+00 -3.1032175888464066E+00 -3.1021105809874547E+00
 -3.1010019164384559E+00 -3.0998915983266904E+00 -3.0987796297706804E+00 -3.0976660138802137E+00 -3.0965507537563859E+00
 -3.0954338524916252E+00 -3.0943153131697345E+00 -3.0931951388659145E+00 -3.0920733326468040E+00 -3.0909498975705043E+00
 -3.0898248366866192E+00 -3.0886981530362823E+00 -3.0875698496521884E+00 -3.0864399295586287E+00 -3.0853083957715177E+00
 -3.0841752512984293E+00 -3.0830404991386238E+00 -3.0819041422830820E+00 -3.0807661837145330E+00 -3.0796266264074914E+00
 -3.0784854733282780E+00 -3.0773427274350569E+00 -3.0761983916778668E+00 -3.0750524689986487E+00 -3.0739049623312735E+00
 -3.0727558746015760E+00 -3.0716052087273846E+00 -3.0704529676185479E+00 -3.0692991541769654E+00 -3.0681437712966191E+00
 -3.0669868218635989E+00 -3.0658283087561355E+00 -3.0646682348446257E+00 -3.0635066029916631E+00 -3.0623434160520695E+00
 -3.0611786768729168E+00 -3.0600123882935613E+00 -3.0588445531456676E+00 -3.0576751742532418E+00 -3.0565042544326553E+00
 -3.0553317964926747E+00 -3.0541578032344878E+00 -3.0529822774517323E+00 -3.0518052219305227E+00 -3.0506266394494830E+00
 -3.0494465327797622E+00 -3.0482649046850732E+00 -3.0470817579217120E+00 -3.0458970952385918E+00 -3.0447109193772608E+00
 -3.0435232330719346E+00 -3.0423340390495262E+00 -3.0411433400296595E+00 -3.0399511387247125E+00 -3.0387574378398297E+00
 -3.0375622400729525E+00 -3.0363655481148495E+00 -3.0351673646491362E+00 -3.0339676923523036E+00 -3.0327665338937444E+00
 -3.0315638919357748E+00 -3.0303597691336637E+00 -3.0291541681356557E+00 -3.0279470915829987E+00 -3.0267385421099662E+00
 -3.0255285223438819E+00 -3.0243170349051467E+00 -3.0231040824072637E+00 -3.0218896674568585E+00 -3.0206737926537071E+00
 -3.0194564605907623E+00 -3.0182376738541712E+00 -3.0170174350233059E+00 -3.0157957466707845E+00 -3.0145726113624947E+00
 -3.0133480316576162E+00 -3.0121220101086519E+00 -3.0108945492614390E+00 -3.0096656516551854E+00 -3.0084353198224827E+00
 -3.0072035562893360E+00 -3.0059703635751833E+00 -3.0047357441929217E+00 -3.0034997006489279E+00 -3.0022622354430801E+00
 -3.0010233510687860E+00 -2.9997830500129989E+00 -2.9985413347562435E+00 -2.9972982077726389E+00 -2.9960536715299195E+00
 -2.9948077284894583E+00 -2.9935603811062887E+00 -2.9923116318291254E+00 -2.9910614831003874E+00 -2.9898099373562204E+00
 -2.9885569970265182E+00 -2.9873026645349423E+00 -2.9860469422989482E+00 -2.9847898327297995E+00 -2.9835313382325985E+00
 -2.9822714612062997E+00 -2.9810102040437343E+00 -2.9797475691316304E+00 -2.9784835588506375E+00 -2.9772181755753406E+00
 -2.9759514216742877E+00 -2.9746832995100063E+00 -2.9734138114390238E+00 -2.9721429598118938E+00 -2.9708707469732096E+00
 -2.9695971752616277E+00 -2.9683222470098882E+00 -2.9670459645448348E+00 -2.9657683301874331E+00 -2.9644893462527948E+00
 -2.9632090150501944E+00 -2.9619273388830876E+00 -2.9606443200491350E+00 -2.9593599608402203E+00 -2.9580742635424682E+00
 -2.9567872304362663E+00 -2.9554988637962838E+00 -2.9542091658914891E+00 -2.9529181389851722E+00 -2.9516257853349601E+00
 -2.9503321071928399E+00 -2.9490371068051764E+00 -2.9477407864127283E+00 -2.9464431482506708E+00 -2.9451441945486119E+00
 -2.9438439275306139E+00 -2.9425423494152083E+00 -2.9412394624154174E+00 -2.9399352687387701E+00 -2.9386297705873239E+00
 -2.9373229701576795E+00 -2.9360148696410020E+00 -2.9347054712230349E+00 -2.9333947770841258E+00 -2.9320827893992329E+00
 -2.9307695103379565E+00 -2.9294549420645439E+00 -2.9281390867379185E+00 -2.9268219465116871E+00 -2.9255035235341666E+00
 -2.9241838199483956E+00 -2.9228628378921542E+00 -2.9215405794979796E+00 -2.9202170468931885E+00 -2.9188922421998873E+00
 -2.9175661675349915E+00 -2.9162388250102507E+00 -2.9149102167322507E+00 -2.9135803448024440E+00 -2.9122492113171594E+00
 -2.9109168183676211E+00 -2.9095831680399664E+00 -2.9082482624152592E+00 -2.9069121035695105E+00 -2.9055746935736897E+00
 -2.9042360344937497E+00 -2.9028961283906338E+00 -2.9015549773202980E+00 -2.9002125833337247E+00 -2.8988689484769399E+00
 -2.8975240747910305E+00 -2.8961779643121583E+00 -2.8948306190715760E+00 -2.8934820410956452E+00 -2.8921322324058512E+00
 -2.8907811950188163E+00 -2.8894289309463215E+00 -2.8880754421953165E+00 -2.8867207307679368E+00 -2.8853647986615223E+00
 -2.8840076478686263E+00 -2.8826492803770400E+00 -2.8812896981698000E+00 -2.8799289032252080E+00 -2.8785668975168406E+00
 -2.8772036830135752E+00 -2.8758392616795909E+00 -2.8744736354743972E+00 -2.8731068063528387E+00 -2.8717387762651185E+00
 -2.8703695471568027E+00 -2.8689991209688457E+00 -2.8676274996375999E+00 -2.8662546850948307E+00 -2.8648806792677290E+00
 -2.8635054840789333E+00 -2.8621291014465333E+00 -2.8607515332840951E+00 -2.8593727815006682E+00 -2.8579928480008032E+00
 -2.8566117346845643E+00 -2.8552294434475445E+00 -2.8538459761808825E+00 -2.8524613347712702E+00 -2.8510755211009720E+00
 -2.8496885370478386E+00 -2.8483003844853187E+00 -2.8469110652824750E+00 -2.8455205813039948E+00 -2.8441289344102079E+00
 -2.8427361264570989E+00 -2.8413421592963179E+00 -2.8399470347751996E+00 -2.8385507547367723E+00 -2.8371533210197719E+00
 -2.8357547354586594E+00 -2.8343549998836277E+00 -2.8329541161206215E+00 -2.8315520859913481E+00 -2.8301489113132856E+00
 -2.8287445938997071E+00 -2.8273391355596842E+00 -2.8259325380981020E+00 -2.8245248033156756E+00 -2.8231159330089608E+00
 -2.8217059289703679E+00 -2.8202947929881717E+00 -2.8188825268465285E+00 -2.8174691323254866E+00 -2.8160546112009976E+00
 -2.8146389652449337E+00 -2.8132221962250954E+00 -2.8118043059052265E+00 -2.8103852960450282E+00 -2.8089651684001673E+00
 -2.8075439247222920E+00 -2.8061215667590438E+00 -2.8046980962540675E+00 -2.8032735149470280E+00 -2.8018478245736187E+00
 -2.8004210268655738E+00 -2.7989931235506842E+00 -2.7975641163528038E+00 -2.7961340069918665E+00 -2.7947027971838976E+00
 -2.7932704886410225E+00 -2.7918370830714805E+00 -2.7904025821796399E+00 -2.7889669876660022E+00 -2.7875303012272239E+00
 -2.7860925245561168E+00 -2.7846536593416729E+00 -2.7832137072690606E+00 -2.7817726700196514E+00 -2.7803305492710222E+00
 -2.7788873466969677E+00 -2.7774430639675161E+00 -2.7759977027489358E+00 -2.7745512647037498E+00 -2.7731037514907451E+00
 -2.7716551647649865E+00 -2.7702055061778252E+00 -2.7687547773769112E+00 -2.7673029800062041E+00 -2.7658501157059852E+00
 -2.7643961861128674E+00 -2.7629411928598064E+00 -2.7614851375761122E+00 -2.7600280218874609E+00 -2.7585698474159028E+00
 -2.7571106157798764E+00 -2.7556503285942160E+00 -2.7541889874701675E+00 -2.7527265940153929E+00 -2.7512631498339855E+00
 -2.7497986565264783E+00 -2.7483331156898574E+00 -2.7468665289175687E+00 -2.7453988977995314E+00 -2.7439302239221472E+00
 -2.7424605088683114E+00 -2.7409897542174226E+00 -2.7395179615453928E+00 -2.7380451324246597E+00 -2.7365712684241976E+00
 -2.7350963711095204E+00 -2.7336204420427026E+00 -2.7321434827823814E+00 -2.7306654948837705E+00 -2.7291864798986687E+00
 -2.7277064393754724E+00 -2.7262253748591818E+00 -2.7247432878914126E+00 -2.7232601800104095E+00 -2.7217760527510495E+00
 -2.7202909076448587E+00 -2.7188047462200138E+00 -2.7173175700013621E+00 -2.7158293805104239E+00 -2.7143401792654034E+00
 -2.7128499677812012E+00 -2.7113587475694207E+00 -2.7098665201383798E+00 -2.7083732869931199E+00 -2.7068790496354160E+00
 -2.7053838095637857E+00 -2.7038875682734971E+00 -2.7023903272565830E+00 -2.7008920880018445E+00 -2.6993928519948636E+00
 -2.6978926207180134E+00 -2.6963913956504642E+00 -2.6948891782681965E+00 -2.6933859700440093E+00 -2.6918817724475232E+00
 -2.6903765869452019E+00 -2.6888704150003502E+00 -2.6873632580731286E+00 -2.6858551176205596E+00 -2.6843459950965398E+00
 -2.6828358919518478E+00 -2.6813248096341504E+00 -2.6798127495880162E+00 -2.6782997132549200E+00 -2.6767857020732566E+00
 -2.6752707174783450E+00 -2.6737547609024386E+00 -2.6722378337747390E+00 -2.6707199375213939E+00 -2.6692010735655169E+00
 -2.6676812433271913E+00 -2.6661604482234762E+00 -2.6646386896684202E+00 -2.6631159690730688E+00 -2.6615922878454699E+00
 -2.6600676473906848E+00 -2.6585420491107983E+00 -2.6570154944049222E+00 -2.6554879846692092E+00 -2.6539595212968576E+00
 -2.6524301056781230E+00 -2.6508997392003217E+00 -2.6493684232478438E+00 -2.6478361592021598E+00 -2.6463029484418286E+00
 -2.6447687923425058E+00 -2.6432336922769522E+00 -2.6416976496150411E+00 -2.6401606657237688E+00 -2.6386227419672594E+00
 -2.6370838797067764E+00 -2.6355440803007268E+00 -2.6340033451046732E+00 -2.6324616754713395E+00 -2.6309190727506184E+00
 -2.6293755382895827E+00 -2.6278310734324872E+00 -2.6262856795207834E+00 -2.6247393578931222E+00 -2.6231921098853652E+00
 -2.6216439368305902E+00 -2.6200948400591000E+00 -2.6185448208984305E+00 -2.6169938806733564E+00 -2.6154420207059026E+00
 -2.6138892423153477E+00 -2.6123355468182350E+00 -2.6107809355283789E+00 -2.6092254097568714E+00 -2.6076689708120906E+00
 -2.6061116199997092E+00 -2.6045533586227019E+00 -2.6029941879813494E+00 -2.6014341093732511E+00 -2.5998731240933295E+00
 -2.5983112334338370E+00 -2.5967484386843651E+00 -2.5951847411318516E+00 -2.5936201420605864E+00 -2.5920546427522222E+00
 -2.5904882444857771E+00 -2.5889209485376430E+00 -2.5873527561815965E+00 -2.5857836686888049E+00 -2.5842136873278267E+00
 -2.5826428133646315E+00 -2.5810710480625931E+00 -2.5794983926825075E+00 -2.5779248484825934E+00 -2.5763504167185030E+00
 -2.5747750986433289E+00 -2.5731988955076064E+00 -2.5716218085593261E+00 -2.5700438390439397E+00 -2.5684649882043651E+00
 -2.5668852572809935E+00 -2.5653046475116974E+00 -2.5637231601318375E+00 -2.5621407963742695E+00 -2.5605575574693491E+00
 -2.5589734446449421E+00 -2.5573884591264271E+00 -2.5558026021367057E+00 -2.5542158748962094E+00 -2.5526282786229015E+00
 -2.5510398145322908E+00 -2.5494504838374334E+00 -2.5478602877489376E+00 -2.5462692274749790E+00 -2.5446773042212958E+00
 -2.5430845191912077E+00 -2.5414908735856088E+00 -2.5398963686029852E+00 -2.5383010054394179E+00 -2.5367047852885887E+00
 -2.5351077093417835E+00 -2.5335097787879071E+00 -2.5319109948134813E+00 -2.5303113586026562E+00 -2.5287108713372137E+00
 -2.5271095341965744E+00 -2.5255073483578077E+00 -2.5239043149956331E+00 -2.5223004352824288E+00 -2.5206957103882361E+00
 -2.5190901414807709E+00 -2.5174837297254222E+00 -2.5158764762852637E+00 -2.5142683823210588E+00 -2.5126594489912670E+00
 -2.5110496774520494E+00 -2.5094390688572727E+00 -2.5078276243585220E+00 -2.5062153451050970E+00 -2.5046022322440273E+00
 -2.5029882869200746E+00 -2.5013735102757377E+00 -2.4997579034512580E+00 -2.4981414675846305E+00 -2.4965242038116031E+00
 -2.4949061132656878E+00 -2.4932871970781632E+00 -2.4916674563780830E+00 -2.4900468922922787E+00 -2.4884255059453699E+00
 -2.4868032984597654E+00 -2.4851802709556710E+00 -2.4835564245510984E+00 -2.4819317603618645E+00 -2.4803062795016042E+00
 -2.4786799830817694E+00 -2.4770528722116403E+00 -2.4754249479983286E+00 -2.4737962115467811E+00 -2.4721666639597908E+00
 -2.4705363063379973E+00 -2.4689051397798956E+00 -2.4672731653818398E+00 -2.4656403842380517E+00 -2.4640067974406206E+00
 -2.4623724060795147E+00 -2.4607372112425852E+00 -2.4591012140155692E+00 -2.4574644154820979E+00 -2.4558268167237003E+00
 -2.4541884188198111E+00 -2.4525492228477739E+00 -2.4509092298828463E+00 -2.4492684409982091E+00 -2.4476268572649658E+00
 -2.4459844797521524E+00 -2.4443413095267421E+00 -2.4426973476536502E+00 -2.4410525951957363E+00 -2.4394070532138161E+00
 -2.4377607227666620E+00 -2.4361136049110081E+00 -2.4344657007015598E+00 -2.4328170111909930E+00 -2.4311675374299631E+00
 -2.4295172804671119E+00 -2.4278662413490673E+00 -2.4262144211204535E+00 -2.4245618208238930E+00 -2.4229084415000135E+00
 -2.4212542841874547E+00 -2.4195993499228652E+00 -2.4179436397409200E+00 -2.4162871546743165E+00 -2.4146298957537820E+00
 -2.4129718640080768E+00 -2.4113130604640065E+00 -2.4096534861464174E+00 -2.4079931420782081E+00 -2.4063320292803319E+00
 -2.4046701487718014E+00 -2.4030075015696948E+00 -2.4013440886891595E+00 -2.3996799111434202E+00 -2.3980149699437781E+00
 -2.3963492660996208E+00 -2.3946828006184253E+00 -2.3930155745057613E+00 -2.3913475887653002E+00 -2.3896788443988153E+00
 -2.3880093424061912E+00 -2.3863390837854230E+00 -2.3846680695326246E+00 -2.3829963006420343E+00 -2.3813237781060170E+00
 -2.3796505029150716E+00 -2.3779764760578344E+00 -2.3763016985210812E+00 -2.3746261712897350E+00 -2.3729498953468728E+00
 -2.3712728716737246E+00 -2.3695951012496814E+00 -2.3679165850523014E+00 -2.3662373240573098E+00 -2.3645573192386071E+00
 -2.3628765715682745E+00 -2.3611950820165748E+00 -2.3595128515519588E+00 -2.3578298811410705E+00 -2.3561461717487515E+00
 -2.3544617243380435E+00 -2.3527765398701965E+00 -2.3510906193046686E+00 -2.3494039635991348E+00 -2.3477165737094885E+00
 -2.3460284505898481E+00 -2.3443395951925581E+00 -2.3426500084681985E+00 -2.3409596913655850E+00 -2.3392686448317748E+00
 -2.3375768698120716E+00 -2.3358843672500287E+00 -2.3341911380874549E+00 -2.3324971832644157E+00 -2.3308025037192426E+00
 -2.3291071003885322E+00 -2.3274109742071545E+00 -2.3257141261082546E+00 -2.3240165570232598E+00 -2.3223182678818781E+00
 -2.3206192596121098E+00 -2.3189195331402477E+00 -2.3172190893908806E+00 -2.3155179292868988E+00 -2.3138160537494987E+00
 -2.3121134636981870E+00 -2.3104101600507834E+00 -2.3087061437234246E+00 -2.3070014156305727E+00 -2.3052959766850134E+00
 -2.3035898277978624E+00 -2.3018829698785721E+00 -2.3001754038349334E+00 -2.2984671305730742E+00 -2.2967581509974777E+00
 -2.2950484660109742E+00 -2.2933380765147429E+00 -2.2916269834083316E+00 -2.2899151875896462E+00 -2.2882026899549568E+00
 -2.2864894913989078E+00 -2.2847755928145173E+00 -2.2830609950931811E+00 -2.2813456991246794E+00 -2.2796297057971779E+00
 -2.2779130159972305E+00 -2.2761956306097897E+00 -2.2744775505182031E+00 -2.2727587766042214E+00 -2.2710393097480006E+00
 -2.2693191508281076E+00 -2.2675983007215237E+00 -2.2658767603036432E+00 -2.2641545304482862E+00 -2.2624316120276973E+00
 -2.2607080059125484E+00 -2.2589837129719457E+00 -2.2572587340734303E+00 -2.2555330700829850E+00 -2.2538067218650344E+00
 -2.2520796902824545E+00 -2.2503519761965700E+00 -2.2486235804671599E+00 -2.2468945039524648E+00 -2.2451647475091874E+00
 -2.2434343119924947E+00 -2.2417031982560247E+00 -2.2399714071518897E+00 -2.2382389395306790E+00 -2.2365057962414623E+00
 -2.2347719781317932E+00 -2.2330374860477158E+00 -2.2313023208337626E+00 -2.2295664833329649E+00 -2.2278299743868506E+00
 -2.2260927948354512E+00 -2.2243549455173026E+00 -2.2226164272694531E+00 -2.2208772409274609E+00 -2.2191373873254054E+00
 -2.2173968672958808E+00 -2.2156556816700093E+00 -2.2139138312774378E+00 -2.2121713169463457E+00 -2.2104281395034460E+00
 -2.2086842997739882E+00 -2.2069397985817649E+00 -2.2051946367491109E+00 -2.2034488150969129E+00 -2.2017023344446036E+00
 -2.1999551956101771E+00 -2.1982073994101792E+00 -2.1964589466597215E+00 -2.1947098381724799E+00 -2.1929600747606983E+00
 -2.1912096572351922E+00 -2.1894585864053533E+00 -2.1877068630791521E+00 -2.1859544880631367E+00 -2.1842014621624459E+00
 -2.1824477861808060E+00 -2.1806934609205322E+00 -2.1789384871825370E+00 -2.1771828657663317E+00 -2.1754265974700271E+00
 -2.1736696830903401E+00 -2.1719121234225973E+00 -2.1701539192607355E+00 -2.1683950713973061E+00 -2.1666355806234776E+00
 -2.1648754477290413E+00 -2.1631146735024109E+00 -2.1613532587306303E+00 -2.1595912041993737E+00 -2.1578285106929460E+00
 -2.1560651789942935E+00 -2.1543012098849990E+00 -2.1525366041452934E+00 -2.1507713625540474E+00 -2.1490054858887904E+00
 -2.1472389749256959E+00 -2.1454718304395994E+00 -2.1437040532039906E+00 -2.1419356439910282E+00 -2.1401666035715290E+00
 -2.1383969327149814E+00 -2.1366266321895457E+00 -2.1348557027620574E+00 -2.1330841451980267E+00 -2.1313119602616468E+00
 -2.1295391487157933E+00 -2.1277657113220303E+00 -2.1259916488406074E+00 -2.1242169620304727E+00 -2.1224416516492659E+00
 -2.1206657184533277E+00 -2.1188891631976974E+00 -2.1171119866361239E+00 -2.1153341895210569E+00 -2.1135557726036645E+00
 -2.1117767366338240E+00 -2.1099970823601284E+00 -2.1082168105298926E+00 -2.1064359218891520E+00 -2.1046544171826680E+00
 -2.1028722971539322E+00 -2.1010895625451638E+00 -2.0993062140973180E+00 -2.0975222525500867E+00 -2.0957376786419024E+00
 -2.0939524931099367E+00 -2.0921666966901120E+00 -2.0903802901170936E+00 -2.0885932741243036E+00 -2.0868056494439129E+00
 -2.0850174168068527E+00 -2.0832285769428127E+00 -2.0814391305802440E+00 -2.0796490784463644E+00 -2.0778584212671594E+00
 -2.0760671597673874E+00 -2.0742752946705751E+00 -2.0724828266990314E+00 -2.0706897565738425E+00 -2.0688960850148734E+00
 -2.0671018127407779E+00 -2.0653069404689970E+00 -2.0635114689157583E+00 -2.0617153987960855E+00 -2.0599187308237976E+00
 -2.0581214657115101E+00 -2.0563236041706410E+00 -2.0545251469114132E+00 -2.0527260946428529E+00 -2.0509264480727971E+00
 -2.0491262079078951E+00 -2.0473253748536089E+00 -2.0455239496142190E+00 -2.0437219328928262E+00 -2.0419193253913526E+00
 -2.0401161278105433E+00 -2.0383123408499757E+00 -2.0365079652080542E+00 -2.0347030015820153E+00 -2.0328974506679320E+00
 -2.0310913131607187E+00 -2.0292845897541247E+00 -2.0274772811407455E+00 -2.0256693880120227E+00 -2.0238609110582466E+00
 -2.0220518509685554E+00 -2.0202422084309442E+00 -2.0184319841322633E+00 -2.0166211787582200E+00 -2.0148097929933835E+00
 -2.0129978275211893E+00 -2.0111852830239325E+00 -2.0093721601827839E+00 -2.0075584596777820E+00 -2.0057441821878408E+00
 -2.0039293283907464E+00 -2.0021138989631688E+00 -2.0002978945806542E+00 -1.9984813159176364E+00 -1.9966641636474338E+00
 -1.9948464384422508E+00 -1.9930281409731874E+00 -1.9912092719102334E+00 -1.9893898319222760E+00 -1.9875698216771005E+00
 -1.9857492418413913E+00 -1.9839280930807399E+00 -1.9821063760596380E+00 -1.9802840914414870E+00 -1.9784612398886035E+00
 -1.9766378220622094E+00 -1.9748138386224452E+00 -1.9729892902283688E+00 -1.9711641775379580E+00 -1.9693385012081124E+00
 -1.9675122618946559E+00 -1.9656854602523406E+00 -1.9638580969348443E+00 -1.9620301725947809E+00 -1.9602016878836952E+00
 -1.9583726434520699E+00 -1.9565430399493242E+00 -1.9547128780238197E+00 -1.9528821583228615E+00 -1.9510508814926977E+00
 -1.9492190481785276E+00 -1.9473866590244993E+00 -1.9455537146737099E+00 -1.9437202157682170E+00 -1.9418861629490298E+00
 -1.9400515568561187E+00 -1.9382163981284164E+00 -1.9363806874038163E+00 -1.9345444253191832E+00 -1.9327076125103431E+00
 -1.9308702496120962E+00 -1.9290323372582148E+00 -1.9271938760814458E+00 -1.9253548667135132E+00 -1.9235153097851199E+00
 -1.9216752059259503E+00 -1.9198345557646714E+00 -1.9179933599289374E+00 -1.9161516190453927E+00 -1.9143093337396637E+00
 -1.9124665046363780E+00 -1.9106231323591529E+00 -1.9087792175306044E+00 -1.9069347607723455E+00 -1.9050897627049908E+00
 -1.9032442239481600E+00 -1.9013981451204724E+00 -1.8995515268395606E+00 -1.8977043697220648E+00 -1.8958566743836340E+00
 -1.8940084414389367E+00 -1.8921596715016504E+00 -1.8903103651844753E+00 -1.8884605230991298E+00 -1.8866101458563547E+00
 -1.8847592340659134E+00 -1.8829077883365981E+00 -1.8810558092762291E+00 -1.8792032974916530E+00 -1.8773502535887554E+00
 -1.8754966781724514E+00 -1.8736425718466931E+00 -1.8717879352144733E+00 -1.8699327688778258E+00 -1.8680770734378234E+00
 -1.8662208494945862E+00 -1.8643640976472826E+00 -1.8625068184941258E+00 -1.8606490126323814E+00 -1.8587906806583689E+00
 -1.8569318231674625E+00 -1.8550724407540904E+00 -1.8532125340117447E+00 -1.8513521035329721E+00 -1.8494911499093851E+00
 -1.8476296737316633E+00 -1.8457676755895476E+00 -1.8439051560718520E+00 -1.8420421157664595E+00 -1.8401785552603249E+00
 -1.8383144751394784E+00 -1.8364498759890264E+00 -1.8345847583931532E+00 -1.8327191229351245E+00 -1.8308529701972898E+00
 -1.8289863007610760E+00 -1.8271191152070061E+00 -1.8252514141146805E+00 -1.8233831980627975E+00 -1.8215144676291442E+00
 -1.8196452233906022E+00 -1.8177754659231460E+00 -1.8159051958018522E+00 -1.8140344136008932E+00 -1.8121631198935442E+00
 -1.8102913152521822E+00 -1.8084190002482916E+00 -1.8065461754524603E+00 -1.8046728414343896E+00 -1.8027989987628861E+00
 -1.8009246480058732E+00 -1.7990497897303841E+00 -1.7971744245025736E+00 -1.7952985528877112E+00 -1.7934221754501849E+00
 -1.7915452927535069E+00 -1.7896679053603131E+00 -1.7877900138323628E+00 -1.7859116187305406E+00 -1.7840327206148656E+00
 -1.7821533200444837E+00 -1.7802734175776740E+00 -1.7783930137718496E+00 -1.7765121091835590E+00 -1.7746307043684899E+00
 -1.7727487998814697E+00 -1.7708663962764664E+00 -1.7689834941065923E+00 -1.7671000939241008E+00 -1.7652161962803978E+00
 -1.7633318017260335E+00 -1.7614469108107094E+00 -1.7595615240832789E+00 -1.7576756420917501E+00 -1.7557892653832843E+00
 -1.7539023945042020E+00 -1.7520150299999819E+00 -1.7501271724152643E+00 -1.7482388222938496E+00 -1.7463499801787024E+00
 -1.7444606466119568E+00 -1.7425708221349088E+00 -1.7406805072880287E+00 -1.7387897026109527E+00 -1.7368984086424950E+00
 -1.7350066259206403E+00 -1.7331143549825494E+00 -1.7312215963645630E+00 -1.7293283506021975E+00 -1.7274346182301543E+00
 -1.7255403997823131E+00 -1.7236456957917425E+00 -1.7217505067906949E+00 -1.7198548333106092E+00 -1.7179586758821130E+00
 -1.7160620350350293E+00 -1.7141649112983695E+00 -1.7122673052003394E+00 -1.7103692172683429E+00 -1.7084706480289797E+00
 -1.7065715980080487E+00 -1.7046720677305487E+00 -1.7027720577206831E+00 -1.7008715685018576E+00 -1.6989706005966838E+00
 -1.6970691545269805E+00 -1.6951672308137742E+00 -1.6932648299773034E+00 -1.6913619525370178E+00 -1.6894585990115807E+00
 -1.6875547699188695E+00 -1.6856504657759803E+00 -1.6837456870992262E+00 -1.6818404344041389E+00 -1.6799347082054754E+00
 -1.6780285090172105E+00 -1.6761218373525479E+00 -1.6742146937239137E+00 -1.6723070786429663E+00 -1.6703989926205882E+00
 -1.6684904361668951E+00 -1.6665814097912375E+00 -1.6646719140021944E+00 -1.6627619493075840E+00 -1.6608515162144590E+00
 -1.6589406152291133E+00 -1.6570292468570778E+00 -1.6551174116031275E+00 -1.6532051099712779E+00 -1.6512923424647912E+00
 -1.6493791095861725E+00 -1.6474654118371781E+00 -1.6455512497188107E+00 -1.6436366237313234E+00 -1.6417215343742235E+00
 -1.6398059821462716E+00 -1.6378899675454783E+00 -1.6359734910691177E+00 -1.6340565532137166E+00 -1.6321391544750643E+00
 -1.6302212953482078E+00 -1.6283029763274608E+00 -1.6263841979063947E+00 -1.6244649605778518E+00 -1.6225452648339387E+00
 -1.6206251111660321E+00 -1.6187045000647726E+00 -1.6167834320200785E+00 -1.6148619075211375E+00 -1.6129399270564102E+00
 -1.6110174911136337E+00 -1.6090946001798239E+00 -1.6071712547412724E+00 -1.6052474552835485E+00 -1.6033232022915069E+00
 -1.6013984962492831E+00 -1.5994733376402970E+00 -1.5975477269472507E+00 -1.5956216646521362E+00 -1.5936951512362336E+00
 -1.5917681871801093E+00 -1.5898407729636252E+00 -1.5879129090659321E+00 -1.5859845959654735E+00 -1.5840558341399911E+00
 -1.5821266240665226E+00 -1.5801969662214006E+00 -1.5782668610802626E+00 -1.5763363091180382E+00 -1.5744053108089646E+00
 -1.5724738666265841E+00 -1.5705419770437388E+00 -1.5686096425325788E+00 -1.5666768635645609E+00 -1.5647436406104536E+00
 -1.5628099741403285E+00 -1.5608758646235781E+00 -1.5589413125288993E+00 -1.5570063183243077E+00 -1.5550708824771327E+00
 -1.5531350054540201E+00 -1.5511986877209369E+00 -1.5492619297431638E+00 -1.5473247319853070E+00 -1.5453870949112916E+00
 -1.5434490189843701E+00 -1.5415105046671158E+00 -1.5395715524214277E+00 -1.5376321627085354E+00 -1.5356923359889951E+00
 -1.5337520727226914E+00 -1.5318113733688441E+00 -1.5298702383860012E+00 -1.5279286682320465E+00 -1.5259866633642001E+00
 -1.5240442242390140E+00 -1.5221013513123829E+00 -1.5201580450395376E+00 -1.5182143058750501E+00 -1.5162701342728322E+00
 -1.5143255306861392E+00 -1.5123804955675724E+00 -1.5104350293690751E+00 -1.5084891325419403E+00 -1.5065428055368058E+00
 -1.5045960488036572E+00 -1.5026488627918364E+00 -1.5007012479500319E+00 -1.4987532047262846E+00 -1.4968047335679922E+00
 -1.4948558349219043E+00 -1.4929065092341312E+00 -1.4909567569501390E+00 -1.4890065785147495E+00 -1.4870559743721483E+00
 -1.4851049449658804E+00 -1.4831534907388562E+00 -1.4812016121333473E+00 -1.4792493095909904E+00 -1.4772965835527898E+00
 -1.4753434344591156E+00 -1.4733898627497075E+00 -1.4714358688636739E+00 -1.4694814532394971E+00 -1.4675266163150265E+00
 -1.4655713585274919E+00 -1.4636156803134919E+00 -1.4616595821090015E+00 -1.4597030643493762E+00 -1.4577461274693471E+00
 -1.4557887719030225E+00 -1.4538309980838970E+00 -1.4518728064448403E+00 -1.4499141974181124E+00 -1.4479551714353494E+00
 -1.4459957289275780E+00 -1.4440358703252094E+00 -1.4420755960580420E+00 -1.4401149065552641E+00 -1.4381538022454532E+00
 -1.4361922835565764E+00 -1.4342303509159955E+00 -1.4322680047504632E+00 -1.4303052454861305E+00 -1.4283420735485370E+00
 -1.4263784893626255E+00 -1.4244144933527354E+00 -1.4224500859426015E+00 -1.4204852675553621E+00 -1.4185200386135570E+00
 -1.4165543995391254E+00 -1.4145883507534129E+00 -1.4126218926771674E+00 -1.4106550257305446E+00 -1.4086877503331059E+00
  1.3276691360092875E+02  1.3276691360092875E+02  1.3276691360092875E+02  1.3276691360092875E+02  1.3276691360092875E+02
  1.3276691360092875E+02  1.3276691360092875E+02  1.3276691360092875E+02  1.3276691360092875E+02  1.3276691360092875E+02
  1.3276691360092875E+02  1.3276691360092875E+02  1.3276691360092875E+02  1.3276691360092875E+02  1.3276691360092875E+02
  1.3276691360092875E+02  1.3276691360092875E+02  1.3276691360092875E+02  1.3276691360092875E+02  1.3276691360092875E+02
  1.3276691360092875E+02  1.3276691360092875E+02  1.3276691360092875E+02  1.3276691360092875E+02  1.3276691360092875E+02
  1.3276691360092875E+02  1.3276691360092875E+02  1.3276691360092875E+02  1.3276691360092875E+02  1.3276691360092875E+02
  1.3276691360092875E+02  1.3276691360092875E+02  1.3276691360092875E+02  1.3276691360092875E+02  1.3276691360092875E+02
  1.3276691360092875E+02  1.3276691360092875E+02  1.3276691360092875E+02  1.3276691360092875E+02  1.3276691360092875E+02
  1.3276691360092875E+02  1.3276691360092875E+02  1.3276691360092875E+02  1.3276691360092875E+02  1.3276691360092875E+02
  1.3276691360092875E+02  1.3276691360092875E+02  1.3276691360092875E+02  1.3276691360092875E+02  1.3276691360092875E+02
  1.3276691360092875E+02  1.3276691360092875E+02  1.3276691360092875E+02  1.3276691360092875E+02  1.3276691360092875E+02
  1.3276691360092875E+02  1.3276691360092875E+02  1.3276691360092875E+02  1.3276691360092875E+02  1.3276691360092875E+02
  1.3276691360092875E+02  1.3276691360092875E+02  1.3276691360092875E+02  1.3276691360092875E+02  1.3276691360092875E+02
  1.3276691360092875E+02  1.3276691360092875E+02  1.3276691360092875E+02  1.3276691360092875E+02  1.3276691360092875E+02
  1.3276691360092875E+02  1.3276691360092875E+02  1.3276691360092875E+02  1.3276691360092875E+02  1.3276691360092875E+02
  1.3276691360092875E+02  1.3276691360092875E+02  1.3276691360092875E+02  1.3276691360092875E+02  1.3276691360092875E+02
  1.3276691360092875E+02  1.3276691360092875E+02  1.3276691360092875E+02  1.3276691360092875E+02  1.3276691360092875E+02
  1.3276691360092875E+02  1.3276691360092875E+02  1.3276691360092875E+02  1.3276691360092875E+02  1.3276691360092875E+02
  1.3276691360092875E+02  1.3276691360092875E+02  1.3276691360092875E+02  1.3276691360092875E+02  1.3276691360092875E+02
  1.3276691360092875E+02  1.3276691360092875E+02  1.3276691360092875E+02  1.3276691360092875E+02  1.3276691360092875E+02
  1.3276691360092875E+02  1.3276691360092875E+02  1.3276691360092875E+02  1.3276691360092875E+02  1.3276691360092875E+02
  1.3276691360092875E+02  1.3276691360092875E+02  1.3276691360092875E+02  1.3276691360092875E+02  1.3276691360092875E+02
  1.3276691360092875E+02  1.3276691360092875E+02  1.3276691360092875E+02  1.3276691360092875E+02  1.3276691360092875E+02
  1.3276691360092875E+02  1.3276691360092875E+02  1.3276691360092875E+02  1.3276691360092875E+02  1.3276691360092875E+02
  1.3276691360092875E+02  1.3276691360092875E+02  1.3276691360092875E+02  1.3276691360092875E+02  1.3276691360092875E+02
  1.3276691360092875E+02  1.3276691360092875E+02  1.3276691360092875E+02  1.3276691360092875E+02  1.3276691360092875E+02
  1.3276691360092875E+02  1.3276691360092875E+02  1.3276691360092875E+02  1.3276691360092875E+02  1.3276691360092875E+02
  1.3276691360092875E+02  1.3276691360092875E+02  1.3276691360092875E+02  1.3276691360092875E+02  1.3276691360092875E+02
  1.3276691360092875E+02  1.3276691360092875E+02  1.3276691360092875E+02  1.3276691360092875E+02  1.3276691360092875E+02
  1.3276691360092875E+02  1.3276691360092875E+02  1.3276691360092875E+02  1.3276691360092875E+02  1.3276691360092875E+02
  1.3276691360092875E+02  1.3276691360092875E+02  1.3276691360092875E+02  1.3276691360092875E+02  1.3276691360092875E+02
  1.3276691360092875E+02  1.3276691360092875E+02  1.3276691360092875E+02  1.3276691360092875E+02  1.3276691360092875E+02
  1.3276691360092875E+02  1.3276691360092875E+02  1.3276691360092875E+02  1.3276691360092875E+02  1.3276691360092875E+02
  1.3276691360092875E+02  1.3276691360092875E+02  1.3276691360092875E+02  1.3276691360092875E+02  1.3276691360092875E+02
  1.3276691360092875E+02  1.3276691360092875E+02  1.3276691360092875E+02  1.3276691360092875E+02  1.3276691360092875E+02
  1.3276691360092875E+02  1.3276691360092875E+02  1.3276691360092875E+02  1.3276691360092875E+02  1.3276691360092875E+02
  1.3276691360092875E+02  1.3276691360092875E+02  1.3276691360092875E+02  1.3276691360092875E+02  1.3276691360092875E+02
  1.3276691360092875E+02  1.3276691360092875E+02  1.3276691360092875E+02  1.3276691360092875E+02  1.3276691360092875E+02
  1.3276691360092875E+02  1.3276691360092875E+02  1.3276691360092875E+02  1.3276691360092875E+02  1.3276691360092875E+02
  1.3276691360092875E+02  1.3276691360092875E+02  1.3276691360092875E+02  1.3276691360092875E+02  1.3276691360092875E+02
  1.3276691360092875E+02  1.3276691360092875E+02  1.3276691360092875E+02  1.3276691360092875E+02  1.3276691360092875E+02
  1.3276691360092875E+02  1.3276691360092875E+02  1.3276691360092875E+02  1.3276691360092875E+02  1.3254245978480725E+02
  1.3194284520806306E+02  1.3134594325368312E+02  1.3075174164991765E+02  1.3016022818053349E+02  1.2957139068456308E+02
  1.2898521705605430E+02  1.2840169524382179E+02  1.2782081325119894E+02  1.2724255913579148E+02  1.2666692100923171E+02
  1.2609388703693456E+02  1.2552344543785352E+02  1.2495558448423921E+02  1.2439029250139760E+02  1.2382755786745074E+02
  1.2326736901309711E+02  1.2270971442137390E+02  1.2215458262742089E+02  1.2160196221824374E+02  1.2105184183248012E+02
  1.2050421016016570E+02  1.1995905594250200E+02  1.1941636797162455E+02  1.1887613509037256E+02  1.1833834619205982E+02
  1.1780299022024597E+02  1.1727005616850937E+02  1.1673953308022099E+02  1.1621141004831858E+02  1.1568567621508332E+02
  1.1516232077191565E+02  1.1464133295911374E+02  1.1412270206565202E+02  1.1360641742896097E+02  1.1309246843470787E+02
  1.1258084451657878E+02  1.1207153515606102E+02  1.1156452988222709E+02  1.1105981827151952E+02  1.1055738994753624E+02
  1.1005723458081751E+02  1.0955934188863344E+02  1.0906370163477274E+02  1.0857030362933205E+02  1.0807913772850655E+02
  1.0759019383438154E+02  1.0710346189472459E+02  1.0661893190277894E+02  1.0613659389705815E+02  1.0565643796114055E+02
  1.0517845422346619E+02  1.0470263285713308E+02  1.0422896407969610E+02  1.0375743815296491E+02  1.0328804538280436E+02
  1.0282077611893494E+02  1.0235562075473474E+02  1.0189256972704128E+02  1.0143161351595553E+02  1.0097274264464588E+02
  1.0051594767915331E+02  1.0006121922819759E+02  9.9608547942984117E+01  9.9157924517011480E+01  9.8709339685880678E+01
  9.8262784227104135E+01  9.7818248959916303E+01  9.7375724745084966E+01  9.6935202484723249E+01  9.6496673122102465E+01
  9.6060127641466295E+01  9.5625557067845108E+01  9.5192952466871347E+01  9.4762304944596195E+01  9.4333605647306598E+01
  9.3906845761343106E+01  9.3482016512918747E+01  9.3059109167938757E+01  9.2638115031820874E+01  9.2219025449316604E+01
  9.1801831804333290E+01  9.1386525519757129E+01  9.0973098057276530E+01  9.0561540917206784E+01  9.0151845638315393E+01
  8.9744003797647792E+01  8.9338007010354573E+01  8.8933846929518822E+01  8.8531515245984551E+01  8.8131003688186098E+01
  8.7732304021977697E+01  8.7335408050464423E+01  8.6940307613833795E+01  8.6546994589187761E+01  8.6155460890375707E+01
  8.5765698467828486E+01  8.5377699308392607E+01  8.4991455435165733E+01  8.4606958907332441E+01  8.4224201820001255E+01
  8.3843176304041890E+01  8.3463874525923629E+01  8.3086288687554145E+01  8.2710411026119246E+01  8.2336233813923315E+01
  8.1963749358230288E+01  8.1592950001105791E+01  8.1223828119259323E+01  8.0856376123887756E+01  8.0490586460519410E+01
  8.0126451608858432E+01  7.9763964082630494E+01  7.9403116429428607E+01  7.9043901230560223E+01  7.8686311100894429E+01
  7.8330338688710185E+01  7.7975976675545368E+01  7.7623217776046033E+01  7.7272054737816774E+01  7.6922480341271736E+01
  7.6574487399485918E+01  7.6228068758047627E+01  7.5883217294911290E+01  7.5539925920251008E+01  7.5198187576315107E+01
  7.4857995237280434E+01  7.4519341909108519E+01  7.4182220629401385E+01  7.3846624467258664E+01  7.3512546523134844E+01
  7.3179979928697747E+01  7.2848917846686945E+01  7.2519353470773567E+01  7.2191280025420042E+01  7.1864690765740988E+01
  7.1539578977364599E+01  7.1215937976294384E+01  7.0893761108771926E+01  7.0573041751140039E+01  7.0253773309706602E+01
  6.9935949220608876E+01  6.9619562949678851E+01  6.9304607992308561E+01  6.8991077873316598E+01  6.8678966146814830E+01
  6.8368266396076081E+01  6.8058972233401988E+01  6.7751077299991806E+01  6.7444575265811636E+01  6.7139459829464329E+01
  6.6835724718059822E+01  6.6533363687086293E+01  6.6232370520281819E+01  6.5932739029506351E+01  6.5634463054614699E+01
  6.5337536463329869E+01  6.5041953151116857E+01  6.4747707041057339E+01  6.4454792083724371E+01  6.4163202257058686E+01
  6.3872931566244091E+01  6.3583974043584803E+01  6.3296323748382470E+01  6.3009974766814203E+01  6.2724921211810873E+01
  6.2441157222936098E+01  6.2158676966265723E+01  6.1877474634268147E+01  6.1597544445684463E+01  6.1318880645409969E+01
  6.1041477504375770E+01  6.0765329319430890E+01  6.0490430413225063E+01  6.0216775134092117E+01  5.9944357855933646E+01
  5.9673172978103366E+01  5.9403214925292069E+01  5.9134478147412878E+01  5.8866957119487225E+01  5.8600646341531188E+01
  5.8335540338442541E+01  5.8071633659888029E+01  5.7808920880191430E+01  5.7547396598221930E+01  5.7287055437283222E+01
  5.7027892045002815E+01  5.6769901093221982E+01  5.6513077277886424E+01  5.6257415318936950E+01  5.6002909960201123E+01
  5.5749555969285140E+01  5.5497348137466226E+01  5.5246281279585617E+01  5.4996350233941733E+01  5.4747549862184584E+01
  5.4499875049209450E+01  5.4253320703052239E+01  5.4007881754784506E+01  5.3763553158409465E+01  5.3520329890758106E+01
  5.3278206951385869E+01  5.3037179362469928E+01  5.2797242168707037E+01  5.2558390437211195E+01  5.2320619257412680E+01
  5.2083923740956791E+01  5.1848299021603609E+01  5.1613740255127659E+01  5.1380242619218535E+01  5.1147801313381734E+01
  5.0916411558839840E+01  5.0686068598434368E+01  5.0456767696528019E+01  5.0228504138907162E+01  5.0001273232685051E+01
  4.9775070306205251E+01  4.9549890708945703E+01  4.9325729811423017E+01  4.9102583005097237E+01  4.8880445702277349E+01
  4.8659313336026663E+01  4.8439181360069071E+01  4.8220045248695612E+01  4.8001900496671318E+01  4.7784742619142712E+01
  4.7568567151545459E+01  4.7353369649512750E+01  4.7139145688783763E+01  4.6925890865112756E+01  4.6713600794178724E+01
  4.6502271111494899E+01  4.6291897472319242E+01  4.6082475551565139E+01  4.5874001043712319E+01  4.5666469662718612E+01
  4.5459877141931472E+01  4.5254219234000509E+01  4.5049491710790235E+01  4.4845690363292817E+01  4.4642811001541872E+01
  4.4440849454526067E+01  4.4239801570103602E+01  4.4039663214916644E+01  4.3840430274306527E+01  4.3642098652228995E+01
  4.3444664271170062E+01  4.3248123072062221E+01  4.3052471014200954E+01  4.2857704075161649E+01  4.2663818250716908E+01
  4.2470809554754226E+01  4.2278674019194085E+01  4.2087407693908304E+01  4.1897006646638843E+01  4.1707466962916982E+01
  4.1518784745982884E+01  4.1330956116705366E+01  4.1143977213502261E+01  4.0957844192260957E+01  4.0772553226259419E+01
  4.0588100506087372E+01  4.0404482239568303E+01  4.0221694651681119E+01  4.0039733984482787E+01  3.9858596497030945E+01
  3.9678278465307066E+01  3.9498776182139878E+01  3.9320085957129223E+01  3.9142204116569879E+01  3.8965127003376509E+01
  3.8788850977008074E+01  3.8613372413393144E+01  3.8438687704855532E+01  3.8264793260039745E+01  3.8091685503837496E+01
  3.7919360877314105E+01  3.7747815837635329E+01  3.7577046857994404E+01  3.7407050427539716E+01  3.7237823051302499E+01
  3.7069361250125127E+01  3.6901661560589361E+01  3.6734720534945318E+01  3.6568534741040587E+01  3.6403100762249544E+01
  3.6238415197403249E+01  3.6074474660719382E+01  3.5911275781732812E+01  3.5748815205226123E+01  3.5587089591160733E+01
  3.5426095614608229E+01  3.5265829965681938E+01  3.5106289349468973E+01  3.4947470485962405E+01  3.4789370109993918E+01
  3.4631984971166602E+01  3.4475311833788176E+01  3.4319347476804374E+01  3.4164088693732921E+01  3.4009532292597399E+01
  3.3855675095861770E+01  3.3702513940364909E+01  3.3550045677255703E+01  3.3398267171928246E+01  3.3247175303957462E+01
  3.3096766967034874E+01  3.2947039068904687E+01  3.2797988531300405E+01  3.2649612289881411E+01  3.2501907294169953E+01
  3.2354870507488499E+01  3.2208498906897226E+01  3.2062789483132036E+01  3.1917739240542456E+01  3.1773345197030171E+01
  3.1629604383987790E+01  3.1486513846237663E+01  3.1344070641971236E+01  3.1202271842688489E+01  3.1061114533137815E+01
  3.0920595811256025E+01  3.0780712788108662E+01  3.0641462587830720E+01  3.0502842347567377E+01  3.0364849217415227E+01
  3.0227480360363661E+01  3.0090732952236568E+01  2.9954604181634213E+01  2.9819091249875509E+01  2.9684191370940415E+01
  2.9549901771412717E+01  2.9416219690422931E+01  2.9283142379591659E+01  2.9150667102972957E+01  2.9018791136998161E+01
  2.8887511770419884E+01  2.8756826304256251E+01  2.8626732051735456E+01  2.8497226338240516E+01  2.8368306501254168E+01
  2.8239969890304348E+01  2.8112213866909489E+01  2.7985035804524383E+01  2.7858433088486212E+01  2.7732403115960690E+01
  2.7606943295888616E+01  2.7482051048932622E+01  2.7357723807424041E+01  2.7233959015310322E+01  2.7110754128102222E+01
  2.6988106612821731E+01  2.6866013947949792E+01  2.6744473623374613E+01  2.6623483140339971E+01  2.6503040011393949E+01
  2.6383141760337633E+01  2.6263785922174343E+01  2.6144970043058862E+01  2.6026691680247087E+01  2.5908948402045716E+01
  2.5791737787762283E+01  2.5675057427655432E+01  2.5558904922885311E+01  2.5443277885464266E+01  2.5328173938207808E+01
  2.5213590714685687E+01  2.5099525859173241E+01  2.4985977026602939E+01  2.4872941882516248E+01  2.4760418103015585E+01
  2.4648403374716544E+01  2.4536895394700345E+01  2.4425891870466465E+01  2.4315390519885529E+01  2.4205389071152396E+01
  2.4095885262739419E+01  2.3986876843350018E+01  2.3878361571872308E+01  2.3770337217333083E+01  2.3662801558851950E+01
  2.3555752385595625E+01  2.3449187496732513E+01  2.3343104701387475E+01  2.3237501818596776E+01  2.3132376677263181E+01
  2.3027727116111404E+01  2.2923550983643700E+01  2.2819846138095517E+01  2.2716610447391520E+01  2.2613841789101784E+01
  2.2511538050398155E+01  2.2409697128010755E+01  2.2308316928184791E+01  2.2207395366637538E+01  2.2106930368515389E+01
  2.2006919868351286E+01  2.1907361810022209E+01  2.1808254146706972E+01  2.1709594840844037E+01  2.1611381864089683E+01
  2.1513613197276353E+01  2.1416286830371018E+01  2.1319400762433968E+01  2.1222953001577650E+01  2.1126941564925644E+01
  2.1031364478571984E+01  2.0936219777540533E+01  2.0841505505744575E+01  2.0747219715946695E+01  2.0653360469718574E+01
  2.0559925837401284E+01  2.0466913898065563E+01  2.0374322739472305E+01  2.0282150458033286E+01  2.0190395158772002E+01
  2.0099054955284700E+01  2.0008127969701647E+01  1.9917612332648410E+01  1.9827506183207607E+01  1.9737807668880464E+01
  1.9648514945548833E+01  1.9559626177437227E+01  1.9471139537075143E+01  1.9383053205259422E+01  1.9295365371016899E+01
  1.9208074231567121E+01  1.9121177992285340E+01  1.9034674866665558E+01  1.8948563076283857E+01  1.8862840850761806E+01
  1.8777506427730042E+01  1.8692558052792073E+01  1.8607993979488224E+01  1.8523812469259664E+01  1.8440011791412719E+01
  1.8356590223083270E+01  1.8273546049201371E+01  1.8190877562455917E+01  1.8108583063259577E+01  1.8026660859713878E+01
  1.7945109267574416E+01  1.7863926610216176E+01  1.7783111218599117E+01  1.7702661431233835E+01  1.7622575594147428E+01
  1.7542852060849437E+01  1.7463489192298077E+01  1.7384485356866470E+01  1.7305838930309118E+01  1.7227548295728539E+01
  1.7149611843541980E+01  1.7072027971448382E+01  1.6994795084395371E+01  1.6917911594546531E+01  1.6841375921248680E+01
  1.6765186490999461E+01  1.6689341737414974E+01  1.6613840101197500E+01  1.6538680030103507E+01  1.6463859978911746E+01
  1.6389378409391444E+01  1.6315233790270693E+01  1.6241424597205000E+01  1.6167949312745883E+01  1.6094806426309741E+01
  1.6021994434146745E+01  1.5949511839309965E+01  1.5877357151624558E+01  1.5805528887657154E+01  1.5734025570685347E+01
  1.5662845730667364E+01  1.5591987904211766E+01  1.5521450634547474E+01  1.5451232471493714E+01  1.5381331971430276E+01
  1.5311747697267780E+01  1.5242478218418180E+01  1.5173522110765308E+01  1.5104877956635647E+01  1.5036544344769124E+01
  1.4968519870290141E+01  1.4900803134678677E+01  1.4833392745741536E+01  1.4766287317583719E+01  1.4699485470579953E+01
  1.4632985831346280E+01  1.4566787032711908E+01  1.4500887713690974E+01  1.4435286519454701E+01  1.4369982101303458E+01
  1.4304973116639063E+01  1.4240258228937131E+01  1.4175836107719698E+01  1.4111705428527760E+01  1.4047864872894126E+01
  1.3984313128316259E+01  1.3921048888229297E+01  1.3858070851979221E+01  1.3795377724796085E+01  1.3732968217767429E+01
  1.3670841047811727E+01  1.3608994937652080E+01  1.3547428615789880E+01  1.3486140816478731E+01  1.3425130279698401E+01
  1.3364395751128898E+01  1.3303935982124724E+01  1.3243749729689181E+01  1.3183835756448797E+01  1.3124192830627917E+01
  1.3064819726023392E+01  1.3005715221979328E+01  1.2946878103361993E+01  1.2888307160534874E+01  1.2830001189333776E+01
  1.2771958991042073E+01  1.2714179372366074E+01  1.2656661145410474E+01  1.2599403127653934E+01  1.2542404141924786E+01
  1.2485663016376808E+01  1.2429178584465152E+01  1.2372949684922348E+01  1.2316975161734446E+01  1.2261253864117206E+01
  1.2205784646492500E+01  1.2150566368464725E+01  1.2095597894797365E+01  1.2040878095389631E+01  1.1986405845253268E+01
  1.1932180024489384E+01  1.1878199518265451E+01  1.1824463216792408E+01  1.1770970015301769E+01  1.1717718814022994E+01
  1.1664708518160818E+01  1.1611938037872786E+01  1.1559406288246819E+01  1.1507112189278919E+01  1.1455054665850966E+01
  1.1403232647708611E+01  1.1351645069439263E+01  1.1300290870450223E+01  1.1249168994946833E+01  1.1198278391910801E+01
  1.1147618015078566E+01  1.1097186822919802E+01  1.1046983778616028E+01  1.0997007850039262E+01  1.0947258009730794E+01
  1.0897733234880098E+01  1.0848432507303768E+01  1.0799354813424614E+01  1.0750499144250792E+01  1.0701864495355112E+01
  1.0653449866854313E+01  1.0605254263388586E+01  1.0557276694101029E+01  1.0509516172617362E+01  1.0461971717025586E+01
  1.0414642349855814E+01  1.0367527098060179E+01  1.0320624992992810E+01  1.0273935070389950E+01  1.0227456370350124E+01
  1.0181187937314377E+01  1.0135128820046635E+01  1.0089278071614194E+01  1.0043634749368190E+01  9.9981979149242548E+00
  9.9529666341432215E+00  9.9079399771118997E+00  9.8631170181239867E+00  9.8184968356610067E+00  9.7740785123733840E+00
  9.7298611350615722E+00  9.6858437946572931E+00  9.6420255862048325E+00  9.5984056088424303E+00  9.5549829657837879E+00
  9.5117567642996157E+00  9.4687261156992601E+00  9.4258901353124518E+00  9.3832479424711153E+00  9.3407986604912807E+00
  9.2985414166550182E+00  9.2564753421925250E+00  9.2145995722642695E+00  9.1729132459431888E+00  9.1314155061969995E+00
  9.0901054998705799E+00  9.0489823776684251E+00  9.0080452941371991E+00  8.9672934076483184E+00  8.9267258803807046E+00
  8.8863418783034849E+00  8.8461405711589318E+00  8.8061211324453126E+00  8.7662827393999603E+00  8.7266245729823062E+00
  8.6871458178570844E+00  8.6478456623775273E+00  8.6087232985687425E+00  8.5697779221110082E+00  8.5310087323233237E+00
  8.4924149321469056E+00  8.4539957281287954E+00  8.4157503304055723E+00  8.3776779526870904E+00  8.3397778122403299E+00
  8.3020491298732964E+00  8.2644911299189836E+00  8.2271030402194771E+00  8.1898840921100220E+00  8.1528335204032487E+00
  8.1159505633734241E+00  8.0792344627408266E+00  8.0426844636561032E+00  8.0062998146848070E+00  7.9700797677918871E+00
  7.9340235783263662E+00  7.8981305050059927E+00  7.8623998099020103E+00  7.8268307584239949E+00  7.7914226193047353E+00
  7.7561746645852265E+00  7.7210861695996496E+00  7.6861564129605426E+00  7.6513846765439109E+00  7.6167702454744894E+00
  7.5823124081110418E+00  7.5480104560317134E+00  7.5138636840195030E+00  7.4798713900477107E+00  7.4460328752655451E+00
  7.4123474439837542E+00  7.3788144036602761E+00  7.3454330648860680E+00  7.3122027413708626E+00  7.2791227499291118E+00
  7.2461924104659232E+00  7.2134110459630518E+00  7.1807779824650009E+00  7.1482925490651841E+00  7.1159540778920967E+00
  7.0837619040955966E+00  7.0517153658332390E+00  7.0198138042566542E+00  6.9880565634980245E+00  6.9564429906565701E+00
  6.9249724357851417E+00  6.8936442518768644E+00  6.8624577948518013E+00  6.8314124235437532E+00  6.8005074996870318E+00
  6.7697423879033707E+00  6.7391164556888468E+00  6.7086290734008553E+00  6.6782796142452163E+00  6.6480674542632103E+00
  6.6179919723188148E+00  6.5880525500858997E+00  6.5582485720355210E+00  6.5285794254232474E+00  6.4990445002765966E+00
  6.4696431893824506E+00  6.4403748882745973E+00  6.4112389952212911E+00  6.3822349112128700E+00  6.3533620399494630E+00
  6.3246197878286932E+00  6.2960075639334914E+00  6.2675247800199578E+00  6.2391708505052268E+00  6.2109451924554593E+00
  6.1828472255738349E+00  6.1548763721886202E+00  6.1270320572413031E+00  6.0993137082747477E+00  6.0717207554214223E+00
  6.0442526313917053E+00  6.0169087714621687E+00  5.9896886134640210E+00  5.9625915977715067E+00  5.9356171672903928E+00
  5.9087647674465504E+00  5.8820338461744912E+00  5.8554238539060712E+00  5.8289342435591456E+00  5.8025644705263213E+00
  5.7763139926637859E+00  5.7501822702801011E+00  5.7241687661251586E+00  5.6982729453790952E+00  5.6724942756412897E+00
  5.6468322269194404E+00  5.6212862716186205E+00  5.5958558845304509E+00  5.5705405428223047E+00  5.5453397260265254E+00
  5.5202529160297242E+00  5.4952795970621482E+00  5.4704192556870250E+00  5.4456713807900421E+00  5.4210354635687992E+00
  5.3965109975223475E+00  5.3720974784407893E+00  5.3477944043948655E+00  5.3236012757256610E+00  5.2995175950342990E+00
  5.2755428671717235E+00  5.2516765992285031E+00  5.2279183005246788E+00  5.2042674825996711E+00  5.1807236592022408E+00
  5.1572863462804683E+00  5.1339550619717746E+00  5.1107293265930487E+00  5.0876086626307213E+00  5.0645925947309776E+00
  5.0416806496899502E+00  5.0188723564439757E+00  4.9961672460599189E+00  4.9735648517254898E+00  4.9510647087396640E+00
  4.9286663545030809E+00  4.9063693285085455E+00  4.8841731723315398E+00  4.8620774296207783E+00  4.8400816460888034E+00
  4.8181853695026549E+00  4.7963881496745255E+00  4.7746895384525212E+00  4.7530890897113984E+00  4.7315863593433889E+00
  4.7101809052490662E+00  4.6888722873282207E+00  4.6676600674707780E+00  4.6465438095478238E+00  4.6255230794025559E+00
  4.6045974448413922E+00  4.5837664756250192E+00  4.5630297434595581E+00  4.5423868219877308E+00  4.5218372867800589E+00
  4.5013807153261247E+00  4.4810166870258721E+00  4.4607447831809122E+00  4.4405645869859178E+00  4.4204756835200056E+00
  4.4004776597381827E+00  4.3805701044628620E+00  4.3607526083753303E+00  4.3410247640073534E+00  4.3213861657327346E+00
  4.3018364097589608E+00  4.2823750941188949E+00  4.2630018186624312E+00  4.2437161850482843E+00  4.2245177967357517E+00
  4.2054062589765167E+00  4.1863811788065277E+00  4.1674421650378521E+00  4.1485888282506300E+00  4.1298207807850185E+00
  4.1111376367331838E+00  4.0925390119313327E+00  4.0740245239517874E+00  4.0555937920950669E+00  4.0372464373820431E+00
  4.0189820825460831E+00  4.0008003520252675E+00  3.9827008719546337E+00  3.9646832701584351E+00  3.9467471761424373E+00
  3.9288922210862873E+00  3.9111180378358497E+00  3.8934242608956384E+00  3.8758105264212341E+00  3.8582764722117724E+00
  3.8408217377024392E+00  3.8234459639570066E+00  3.8061487936603937E+00  3.7889298711112884E+00  3.7717888422147605E+00
  3.7547253544749397E+00  3.7377390569876989E+00  3.7208296004333827E+00  3.7039966370695865E+00  3.6872398207239256E+00
  3.6705588067868602E+00  3.6539532522045559E+00  3.6374228154717514E+00  3.6209671566246961E+00  3.6045859372340625E+00
  3.5882788203979428E+00  3.5720454707348521E+00  3.5558855543767378E+00  3.5397987389620793E+00  3.5237846936289428E+00
  3.5078430890081287E+00  3.4919735972163206E+00  3.4761758918492451E+00  3.4604496479748996E+00  3.4447945421267896E+00
  3.4292102522971755E+00  3.4136964579303903E+00  3.3982528399161458E+00  3.3828790805828768E+00  3.3675748636911451E+00
  3.3523398744270150E+00  3.3371737993954986E+00  3.3220763266140261E+00  3.3070471455059023E+00  3.2920859468938604E+00
  3.2771924229935654E+00  3.2623662674072009E+00  3.2476071751170679E+00  3.2329148424791794E+00  3.2182889672169375E+00
  3.2037292484147737E+00  3.1892353865118750E+00  3.1748070832958843E+00  3.1604440418966626E+00  3.1461459667800522E+00
  3.1319125637416882E+00  3.1177435399008062E+00  3.1036386036941024E+00  3.0895974648696023E+00  3.0756198344805532E+00
  3.0617054248793574E+00  3.0478539497114991E+00  3.0340651239095306E+00  3.0203386636870619E+00  3.0066742865327631E+00
  2.9930717112044252E+00  2.9795306577230041E+00  2.9660508473667164E+00  2.9526320026651502E+00  2.9392738473933924E+00
  2.9259761065661705E+00  2.9127385064320608E+00  2.8995607744676497E+00  2.8864426393717828E+00  2.8733838310597908E+00
  2.8603840806577532E+00  2.8474431204967994E+00  2.8345606841073923E+00  2.8217365062136768E+00  2.8089703227278204E+00
  2.7962618707443698E+00  2.7836108885346675E+00  2.7710171155412380E+00  2.7584802923722300E+00  2.7460001607958695E+00
  2.7335764637349191E+00  2.7212089452611856E+00  2.7088973505900085E+00  2.6966414260748048E+00  2.6844409192016179E+00
  2.6722955785836775E+00  2.6602051539559834E+00  2.6481693961699269E+00  2.6361880571878924E+00  2.6242608900779203E+00
  2.6123876490083506E+00  2.6005680892425067E+00  2.5888019671333966E+00  2.5770890401184143E+00  2.5654290667140804E+00
  2.5538218065107863E+00  2.5422670201675577E+00  2.5307644694068423E+00  2.5193139170092955E+00  2.5079151268086051E+00
  2.4965678636863307E+00  2.4852718935667242E+00  2.4740269834116191E+00  2.4628329012152985E+00  2.4516894159993856E+00
  2.4405962978077693E+00  2.4295533177015032E+00  2.4185602477537693E+00  2.4076168610448203E+00  2.3967229316569516E+00
  2.3858782346694913E+00  2.3750825461537812E+00  2.3643356431682063E+00  2.3536373037532110E+00  2.3429873069263412E+00
  2.3323854326772961E+00  2.3218314619629932E+00  2.3113251767026513E+00  2.3008663597728742E+00  2.2904547950027641E+00
  2.2800902671690322E+00  2.2697725619911298E+00  2.2595014661263919E+00  2.2492767671651759E+00  2.2390982536260555E+00
  2.2289657149509647E+00  2.2188789415004035E+00  2.2088377245486321E+00  2.1988418562788712E+00  2.1888911297785394E+00
  2.1789853390344689E+00  2.1691242789281406E+00  2.1593077452309588E+00  2.1495355345994764E+00  2.1398074445707014E+00
  2.1301232735573383E+00  2.1204828208431028E+00  2.1108858865780151E+00  2.1013322717736842E+00  2.0918217782986539E+00
  2.0823542088736930E+00  2.0729293670671445E+00  2.0635470572902670E+00  2.0542070847925595E+00  2.0449092556571311E+00
  2.0356533767960570E+00  2.0264392559457427E+00  2.0172667016622996E+00  2.0081355233169229E+00  1.9990455310912796E+00
  1.9899965359728990E+00  1.9809883497505729E+00  1.9720207850097562E+00  1.9630936551279772E+00  1.9542067742702502E+00
  1.9453599573844977E+00  1.9365530201969687E+00  1.9277857792076700E+00  1.9190580516857956E+00  1.9103696556651679E+00
  1.9017204099396616E+00  1.8931101340586725E+00  1.8845386483225406E+00  1.8760057737780087E+00  1.8675113322136738E+00
  1.8590551461554345E+00  1.8506370388619671E+00  1.8422568343201553E+00  1.8339143572405705E+00  1.8256094330529367E+00
  1.8173418879015710E+00  1.8091115486408751E+00  1.8009182428307760E+00  1.7927617987322062E+00  1.7846420453025715E+00
  1.7765588121911953E+00  1.7685119297348171E+00  1.7605012289530222E+00  1.7525265415437330E+00  1.7445876998786582E+00
  1.7366845369987607E+00  1.7288168866097131E+00  1.7209845830773622E+00  1.7131874614231810E+00  1.7054253573197240E+00
  1.6976981070860837E+00  1.6900055476833338E+00  1.6823475167099797E+00  1.6747238523973988E+00  1.6671343936052834E+00
  1.6595789798170733E+00  1.6520574511353898E+00  1.6445696482774621E+00  1.6371154125705520E+00  1.6296945859473690E+00
  1.6223070109414883E+00  1.6149525306827566E+00  1.6076309888926879E+00  1.6003422298798791E+00  1.5930860985353752E+00
  1.5858624403280801E+00  1.5786711013001149E+00  1.5715119280621936E+00  1.5643847677890010E+00  1.5572894682145253E+00
  1.5502258776274349E+00  1.5431938448664013E+00  1.5361932193154342E+00  1.5292238508992235E+00  1.5222855900784353E+00
  1.5153782878450364E+00  1.5085017957175884E+00  1.5016559657365367E+00  1.4948406504595018E+00  1.4880557029565324E+00
  1.4813009768053893E+00  1.4745763260867837E+00  1.4678816053796242E+00  1.4612166697562490E+00  1.4545813747776435E+00
  1.4479755764886566E+00  1.4413991314131944E+00  1.4348518965494113E+00  1.4283337293648877E+00  1.4218444877917933E+00
  1.4153840302220413E+00  1.4089522155024334E+00  1.4025489029297828E+00  1.3961739522460395E+00  1.3898272236333906E+00
  1.3835085777093561E+00  1.3772178755218618E+00  1.3709549785443216E+00  1.3647197486706766E+00  1.3585120482104449E+00
  1.3523317398837493E+00  1.3461786868163272E+00  1.3400527525345443E+00  1.3339538009603731E+00  1.3278816964063662E+00
  1.3218363035706351E+00  1.3158174875317736E+00  1.3098251137438195E+00  1.3038590480311520E+00  1.2979191565834145E+00
  1.2920053059504097E+00  1.2861173630369651E+00  1.2802551950978189E+00  1.2744186697324635E+00  1.2686076548799854E+00
  1.2628220188139039E+00  1.2570616301369650E+00  1.2513263577759628E+00  1.2456160709765169E+00  1.2399306392978495E+00
  1.2342699326075497E+00  1.2286338210763226E+00  1.2230221751727279E+00  1.2174348656579068E+00  1.2118717635802960E+00
  1.2063327402703321E+00  1.2008176673351414E+00  1.1953264166532258E+00  1.1898588603691251E+00  1.1844148708880922E+00
  1.1789943208707312E+00  1.1735970832276466E+00  1.1682230311140762E+00  1.1628720379245132E+00  1.1575439772873322E+00
  1.1522387230593918E+00  1.1469561493206439E+00  1.1416961303687327E+00  1.1364585407135823E+00  1.1312432550719991E+00
  1.1260501483622434E+00  1.1208790956986197E+00  1.1157299723860630E+00  1.1106026539147040E+00  1.1054970159544677E+00
  1.1004129343496372E+00  1.0953502851134469E+00  1.0903089444226706E+00  1.0852887886121998E+00  1.0802896941696503E+00
  1.0753115377299585E+00  1.0703541960699943E+00  1.0654175461031778E+00  1.0605014648741107E+00  1.0556058295532174E+00
  1.0507305174313999E+00  1.0458754059147124E+00  1.0410403725190442E+00  1.0362252948648316E+00  1.0314300506717800E+00
  1.0266545177536184E+00  1.0218985740128714E+00  1.0171620974356606E+00  1.0124449660865342E+00  1.0077470581033277E+00
  1.0030682516920564E+00  9.9840842512184635E-01  9.9376745671990041E-01  9.8914522486650791E-01  9.8454160799009527E-01
  9.7995648456231910E-01  9.7538973309322530E-01  9.7084123212643025E-01  9.6631086023439194E-01  9.6179849601371004E-01
  9.5730401808050014E-01  9.5282730506584401E-01  9.4836823561127936E-01  9.4392668836439320E-01  9.3950254197447480E-01
  9.3509567508824176E-01  9.3070596634567593E-01  9.2633329437591250E-01  9.2197753779325631E-01  9.1763857519326952E-01
  9.1331628514897367E-01  9.0901054620715360E-01  9.0472123688477391E-01  9.0044823566551158E-01  8.9619142099640969E-01
  8.9195067128465610E-01  8.8772586489450078E-01  8.8351688014430074E-01  8.7932359530371906E-01  8.7514588859106668E-01
  8.7098363817080404E-01  8.6683672215120389E-01  8.6270501858218085E-01  8.5858840545330062E-01  8.5448676069196894E-01
  8.5039996216181057E-01  8.4632788766124589E-01  8.4227041492227039E-01  8.3822742160944996E-01  8.3419878531912672E-01
  8.3018438357886881E-01  8.2618409384714031E-01  8.2219779351321975E-01  8.1822535989738610E-01  8.1426667025134070E-01
  8.1032160175892909E-01  8.0639003153712185E-01  8.0247183663729049E-01  7.9856689404679826E-01  7.9467508069087456E-01
  7.9079627343483205E-01  7.8693034908660364E-01  7.8307718439961971E-01  7.7923665607604375E-01  7.7540864077035820E-01
  7.7159301509333966E-01  7.6778965561640833E-01  7.6399843887637753E-01  7.6021924138061270E-01  7.5645193961260959E-01
  7.5269641003800636E-01  7.4895252911104138E-01  7.4522017328146628E-01  7.4149921900193427E-01  7.3778954273586750E-01
  7.3409102096582368E-01  7.3040353020237347E-01  7.2672694699349749E-01  7.2306114793452680E-01  7.1940600967862711E-01
  7.1576140894785545E-01  7.1212722254478500E-01  7.0850332736473831E-01  7.0488960040861126E-01  7.0128591879632862E-01
  6.9769215978093324E-01  6.9410820076332058E-01  6.9053391930765107E-01  6.8696919315742266E-01  6.8341390025225046E-01
  6.7986791874535624E-01  6.7633112702176479E-01  6.7280340371725955E-01  6.6928462773806563E-01  6.6577467828131864E-01
  6.6227343485630474E-01  6.5878077730648610E-01  6.5529658583234995E-01  6.5182074101506582E-01  6.4835312384098187E-01
  6.4489361572696935E-01  6.4144209854661915E-01  6.3799845465732263E-01  6.3456256692822710E-01  6.3113431876908965E-01
  6.2771359416004269E-01  6.2430027768226493E-01  6.2089425454959513E-01  6.1749541064107338E-01  6.1410363253442868E-01
  6.1071880754052588E-01  6.0734082373876885E-01  6.0396957001347662E-01  6.0060493609123045E-01  5.9724681257920276E-01
  5.9389509100446802E-01  5.9054966385430097E-01  5.8721042461746498E-01  5.8387726782648308E-01  5.8055008910091288E-01
  5.7722878519159226E-01  5.7391325402588178E-01  5.7060339475388699E-01  5.6729910779564785E-01  5.6400029488931469E-01
  5.6070685914026119E-01  5.5741870507116720E-01  5.5413573867303390E-01  5.5085786745711263E-01  5.4758500050776615E-01
  5.4431704853619522E-01  5.4105392393506113E-01  5.3779554083394887E-01  5.3454181515565369E-01  5.3129266467328828E-01
  5.2804800906814242E-01  5.2480776998830803E-01  5.2157187110800818E-01  5.1834023818759822E-01  5.1511279913422281E-01
  5.1188948406306201E-01  5.0867022535914097E-01  5.0545495773965488E-01  5.0224361831675635E-01  4.9903614666076390E-01
  4.9583248486372850E-01  4.9263257760331053E-01  4.8943637220690467E-01  4.8624381871594813E-01  4.8305486995035574E-01
  4.7986948157300463E-01  4.7668761215420730E-01  4.7350922323609229E-01  4.7033427939682015E-01  4.6716274831455662E-01
  4.6399460083111216E-01  4.6082981101518372E-01  4.5766835622507512E-01  4.5451021717085105E-01  4.5135537797578690E-01
  4.4820382623704674E-01  4.4505555308548961E-01  4.4191055324447676E-01  4.3876882508761139E-01  4.3563037069528393E-01
  4.3249519590990482E-01  4.2936331038975134E-01  4.2623472766126552E-01  4.2310946516973408E-01  4.1998754432820795E-01
  4.1686899056454152E-01  4.1375383336645932E-01  4.1064210632448933E-01  4.0753384717268132E-01  4.0442909782695929E-01
  4.0132790442099808E-01  3.9823031733949998E-01  3.9513639124874450E-01  3.9204618512429157E-01  3.8895976227571510E-01
  3.8587719036824225E-01  3.8279854144118264E-01  3.7972389192302336E-01  3.7665332264307544E-01  3.7358691883955408E-01
  3.7052477016397939E-01  3.6746697068178891E-01  3.6441361886905105E-01  3.6136481760517825E-01  3.5832067416153229E-01
  3.5528130018584209E-01  3.5224681168231536E-01  3.4921732898737734E-01  3.4619297674095639E-01  3.4317388385321179E-01
  3.4016018346667470E-01  3.3715201291369568E-01  3.3414951366916812E-01  3.3115283129847350E-01  3.2816211540058071E-01
  3.2517751954630292E-01  3.2219920121164136E-01  3.1922732170622248E-01  3.1626204609681574E-01  3.1330354312590369E-01
  3.1035198512534595E-01  3.0740754792511993E-01  3.0447041075718145E-01  3.0154075615447523E-01  2.9861876984512553E-01
  2.9570464064188634E-01  2.9279856032688839E-01  2.8990072353177171E-01  2.8701132761328252E-01  2.8413057252442991E-01
  2.8125866068130506E-01  2.7839579682567800E-01  2.7554218788349832E-01  2.7269804281943050E-01  2.6986357248757226E-01
  2.6703898947851001E-01  2.6422450796286873E-01  2.6142034353154670E-01  2.5862671303279200E-01  2.5584383440633646E-01
  2.5307192651477400E-01  2.5031120897238990E-01  2.4756190197167235E-01  2.4482422610770518E-01  2.4209840220069070E-01
  2.3938465111684151E-01  2.3668319358785755E-01  2.3399425002927740E-01  2.3131804035791495E-01  2.2865478380866627E-01
  2.2600469875094489E-01  2.2336800250498715E-01  2.2074491115833184E-01  2.1813563938269964E-01  2.1554040025158080E-01
  2.1295940505877575E-01  2.1039286313816163E-01  2.0784098168496956E-01  2.0530396557881886E-01  2.0278201720878700E-01
  2.0027533630077643E-01  1.9778411974742496E-01  1.9530856144083586E-01  1.9284885210835603E-01  1.9040517915165839E-01
  1.8797772648936353E-01  1.8556667440343155E-01  1.8317219938954693E-01  1.8079447401171650E-01  1.7843366676128253E-01
  1.7608994192055480E-01  1.7376345943124710E-01  1.7145437476790082E-01  1.6916283881645991E-01  1.6688899775816676E-01
  1.6463299295890804E-01  1.6239496086416635E-01  1.6017503289969032E-01  1.5797333537799602E-01  1.5578998941081221E-01
  1.5362511082754110E-01  1.5147881009981942E-01  1.4935119227225283E-01  1.4724235689935164E-01  1.4515239798873794E-01
  1.4308140395061619E-01  1.4102945755355295E-01  1.3899663588655192E-01  1.3698301032740823E-01  1.3498864651734255E-01
  1.3301360434185419E-01  1.3105793791777426E-01  1.2912169558644201E-01  1.2720491991294758E-01  1.2530764769136549E-01
  1.2342990995588866E-01  1.2157173199775731E-01  1.1973313338789601E-01  1.1791412800512067E-01  1.1611472406981101E-01
  1.1433492418290009E-01  1.1257472537005719E-01  1.1083411913090155E-01  1.0911309149310901E-01  1.0741162307123815E-01
  1.0572968913012561E-01  1.0406725965266567E-01  1.0242429941181495E-01  1.0080076804662959E-01  9.9196620142167763E-02
  9.7611805313056896E-02  9.6046268290555445E-02  9.4499949012902623E-02  9.2972782718783939E-02  9.1464700043700747E-02
  8.9975627119070326E-02  8.8505485673854190E-02  8.7054193138519517E-02  8.5621662751155514E-02  8.4207803665541300E-02
  8.2812521060982427E-02  8.1435716253735760E-02  8.0077286809824122E-02  7.8737126659074452E-02  7.7415126210194057E-02
  7.6111172466704374E-02  7.4825149143575492E-02  7.3556936784375859E-02  7.2306412878790485E-02  7.1073451980332644E-02
  6.9857925824109504E-02  6.8659703444475376E-02  6.7478651292443209E-02  6.6314633352699423E-02  6.5167511260099759E-02
  6.4037144415502886E-02  6.2923390100830895E-02  6.1826103593223380E-02  6.0745138278183515E-02  5.9680345761596046E-02
  5.8631575980525916E-02  5.7598677312686961E-02  5.6581496684501714E-02  5.5579879677653009E-02  5.4593670634057810E-02
  5.3622712759175614E-02  5.2666848223592938E-02  5.1725918262806043E-02  5.0799763275153946E-02  4.9888222917834325E-02
  4.8991136200964298E-02  4.8108341579629108E-02  4.7239677043886874E-02  4.6384980206690796E-02  4.5544088389692643E-02
  4.4716838706909977E-02  4.3903068146224931E-02  4.3102613648699981E-02  4.2315312185699436E-02  4.1541000833796436E-02
  4.0779516847468306E-02  4.0030697729570637E-02  3.9294381299589350E-02  3.8570405759678975E-02  3.7858609758484922E-02
  3.7158832452768395E-02  3.6470913566835725E-02  3.5794693449795113E-02  3.5130013130650145E-02  3.4476714371256476E-02
  3.3834639717155224E-02  3.3203632546314976E-02  3.2583537115798977E-02  3.1974198606393292E-02  3.1375463165216298E-02
  3.0787177946348141E-02  3.0209191149503985E-02  2.9641352056791300E-02  2.9083511067578807E-02  2.8535519731518605E-02
  2.7997230779751629E-02  2.7468498154338359E-02  2.6949177035950546E-02  2.6439123869861504E-02  2.5938196390274632E-02
  2.5446253643031751E-02  2.4963156006736206E-02  2.4488765212336679E-02  2.4022944361205865E-02  2.3565557941759484E-02
  2.3116471844654055E-02  2.2675553376601716E-02  2.2242671272847438E-02  2.1817695708342945E-02  2.1400498307663208E-02
  2.0990952153700393E-02  2.0588931795177099E-02  2.0194313253018504E-02  1.9806974025621291E-02  1.9426793093056338E-02
  1.9053650920246971E-02  1.8687429459154803E-02  1.8328012150015793E-02  1.7975283921657370E-02  1.7629131190937040E-02
  1.7289441861333577E-02  1.6956105320728991E-02  1.6629012438411521E-02  1.6308055561336375E-02  1.5993128509673261E-02
  1.5684126571676046E-02  1.5380946497902099E-02  1.5083486494815532E-02  1.4791646217799943E-02  1.4505326763613886E-02
  1.4224430662313664E-02  1.3948861868673376E-02  1.3678525753128695E-02  1.3413329092269190E-02  1.3153180058905763E-02
  1.2897988211738440E-02  1.2647664484646333E-02  1.2402121175625334E-02  1.2161271935395061E-02  1.1925031755696447E-02
  1.1693316957301692E-02  1.1466045177757496E-02  1.1243135358880774E-02  1.1024507734025758E-02  1.0810083815141397E-02
  1.0599786379637125E-02  1.0393539457074075E-02  1.0191268315697248E-02  9.9928994488268155E-03  9.7983605611217071E-03
  9.6075805547313677E-03  9.4204895153501989E-03  9.2370186981877156E-03  9.0571005138675147E-03  8.8806685142678692E-03
  8.7076573783160752E-03  8.5380028977482085E-03  8.3716419628443797E-03  8.2085125481511766E-03  8.0485536982014879E-03
  7.8917055132391289E-03  7.7379091349607477E-03  7.5871067322813117E-03  7.4392414871318870E-03  7.2942575802988734E-03
  7.1521001773101264E-03  7.0127154143773155E-03  6.8760503843992250E-03  6.7420531230338032E-03  6.6106725948445891E-03
  6.4818586795266598E-03  6.3555621582180475E-03  6.2317346999016775E-03  6.1103288479023750E-03  5.9912980064829920E-03
  5.8745964275448417E-03  5.7601791974351956E-03  5.6480022238659831E-03  5.5380222229473352E-03  5.4301967063385449E-03
  5.3244839685195888E-03  5.2208430741856630E-03  5.1192338457675523E-03  5.0196168510798882E-03  4.9219533910987556E-03
  4.8262054878716772E-03  4.7323358725603571E-03  4.6403079736183489E-03  4.5500859051049837E-03  4.4616344551364345E-03
  4.3749190744748834E-03  4.2899058652567258E-03  4.2065615698605946E-03  4.1248535599157790E-03  4.0447498254509578E-03
  3.9662189641843067E-03  3.8892301709547513E-03  3.8137532272943639E-03  3.7397584911420083E-03  3.6672168866983940E-03
  3.5960998944215539E-03  3.5263795411634726E-03  3.4580283904463364E-03  3.3910195328790112E-03  3.3253265767122331E-03
  3.2609236385326484E-03  3.1977853340946082E-03  3.1358867692889642E-03  3.0752035312481443E-03  3.0157116795866742E-03
  2.9573877377762473E-03  2.9002086846540024E-03  2.8441519460635995E-03  2.7891953866274965E-03  2.7353173016495141E-03
  2.6824964091467099E-03  2.6307118420091677E-03  2.5799431402865379E-03  2.5301702436001132E-03  2.4813734836792584E-03
  2.4335335770208927E-03  2.3866316176704536E-03  2.3406490701235083E-03  2.2955677623461993E-03  2.2513698789133848E-03
  2.2080379542631554E-03  2.1655548660662427E-03  2.1239038287088896E-03  2.0830683868878251E-03  2.0430324093160123E-03
  2.0037800825376925E-03  1.9652959048511469E-03  1.9275646803380258E-03  1.8905715129977157E-03  1.8543018009851643E-03
  1.8187412309509097E-03  1.7838757724818995E-03  1.7496916726415874E-03  1.7161754506078970E-03  1.6833138924076283E-03
  1.6510940457460700E-03  1.6195032149300846E-03  1.5885289558836065E-03  1.5581590712539779E-03  1.5283816056077440E-03
  1.4991848407145630E-03  1.4705572909179359E-03  1.4424876985913192E-03  1.4149650296782829E-03  1.3879784693153416E-03
  1.3615174175363564E-03  1.3355714850568294E-03  1.3101304891371562E-03  1.2851844495233443E-03  1.2607235844639398E-03
  1.2367383068019439E-03  1.2132192201404991E-03  1.1901571150810814E-03  1.1675429655328830E-03  1.1453679250924063E-03
  1.1236233234917894E-03  1.1023006631149912E-03  1.0813916155803594E-03  1.0608880183887275E-03  1.0407818716356859E-03
  1.0210653347869762E-03  1.0017307235159673E-03  9.8277050660206173E-04  9.6417730288889006E-04  9.4594387830138039E-04
  9.2806314292055562E-04  9.1052814811502097E-04  8.9333208372815564E-04  8.7646827532000099E-04  8.5993018146288613E-04
  8.4371139108972541E-04  8.2780562089408303E-04  8.1220671278113196E-04  7.9690863136839955E-04  7.8190546153556004E-04
  7.6719140602228011E-04  7.5276078307321358E-04  7.3860802412931072E-04  7.2472767156458139E-04  7.1111437646745692E-04
  6.9776289646588275E-04  6.8466809359534592E-04  6.7182493220908316E-04  6.5922847692955529E-04  6.4687389064052277E-04
  6.3475643251890361E-04  6.2287145610564543E-04  6.1121440741487658E-04  5.9978082308064493E-04  5.8856632854049657E-04
  5.7756663625514206E-04  5.6677754396363637E-04  5.5619493297324411E-04  5.4581476648346778E-04  5.3563308794344797E-04
  5.2564601944218620E-04  5.1584976013093972E-04  5.0624058467706949E-04  4.9681484174888559E-04  4.8756895253078333E-04
  4.7849940926807035E-04  4.6960277384098517E-04  4.6087567636727520E-04  4.5231481383277747E-04  4.4391694874947675E-04
  4.3567890784049353E-04  4.2759758075147728E-04  4.1966991878786898E-04  4.1189293367752214E-04  4.0426369635823467E-04
  3.9677933578960629E-04  3.8943703778883453E-04  3.8223404388992253E-04  3.7516765022583746E-04  3.6823520643317748E-04
  3.6143411457890246E-04  3.5476182810868941E-04  3.4821585081646402E-04  3.4179373583469972E-04  3.3549308464508350E-04
  3.2931154610913062E-04  3.2324681551832628E-04  3.1729663366345987E-04  3.1145878592271284E-04  3.0573110136814663E-04
  3.0011145189023838E-04  2.9459775134008554E-04  2.8918795468890475E-04  2.8388005720453882E-04  2.7867209364454941E-04
  2.7356213746564459E-04  2.6854830004904363E-04  2.6362872994149773E-04  2.5880161211166340E-04  2.5406516722144967E-04
  2.4941765091213218E-04  2.4485735310487148E-04  2.4038259731535479E-04  2.3599173998230025E-04  2.3168316980952533E-04
  2.2745530712130050E-04  2.2330660323073299E-04  2.1923553982091277E-04  2.1524062833856665E-04  2.1132040939995415E-04
  2.0747345220876553E-04  2.0369835398579441E-04  1.9999373941011127E-04  1.9635826007154006E-04  1.9279059393419396E-04
  1.8928944481083721E-04  1.8585354184786639E-04  1.8248163902069681E-04  1.7917251463933677E-04  1.7592497086394110E-04
  1.7273783323014288E-04  1.6960995018397375E-04  1.6654019262617165E-04  1.6352745346567488E-04  1.6057064718213177E-04
  1.5766870939725025E-04  1.5482059645476444E-04  1.5202528500889970E-04  1.4928177162113173E-04  1.4658907236506213E-04
  1.4394622243928275E-04  1.4135227578801777E-04  1.3880630472943621E-04  1.3630739959143306E-04  1.3385466835475821E-04
  1.3144723630333929E-04  1.2908424568162607E-04  1.2676485535885351E-04  1.2448824050005766E-04  1.2225359224370347E-04
  1.2006011738581498E-04  1.1790703807044166E-04  1.1579359148636785E-04  1.1371902956990474E-04  1.1168261871366799E-04
  1.0968363948120524E-04  1.0772138632735519E-04  1.0579516732422509E-04  1.0390430389267199E-04  1.0204813053917888E-04
  1.0022599459800362E-04  9.8437255978511289E-05  9.6681286917570653E-05  9.4957471736915771E-05  9.3265206605376534E-05
  9.1603899305874408E-05  8.9972969007085684E-05  8.8371846039678824E-05  8.6799971677036135E-05  8.5256797920366741E-05
  8.3741787288115285E-05  8.2254412609588493E-05  8.0794156822715932E-05  7.9360512775839719E-05  7.7952983033483284E-05
  7.6571079685994520E-05  7.5214324162989666E-05  7.3882247050531991E-05  7.2574387911950242E-05  7.1290295112244460E-05
  7.0029525645986553E-05  6.8791644968658802E-05  6.7576226831358917E-05  6.6382853118788980E-05  6.5211113690485055E-05
  6.4060606225204428E-05  6.2930936068409873E-05  6.1821716082795656E-05  6.0732566501781988E-05  5.9663114785930064E-05
  5.8612995482207572E-05  5.7581850086055093E-05  5.6569326906193623E-05  5.5575080932116534E-05  5.4598773704212793E-05
  5.3640073186470123E-05  5.2698653641704452E-05  5.1774195509261357E-05  5.0866385285147696E-05  4.9974915404535017E-05
  4.9099484126592905E-05  4.8239795421604325E-05  4.7395558860315951E-05  4.6566489505477955E-05  4.5752307805529415E-05
  4.4952739490387876E-05  4.4167515469299561E-05  4.3396371730705980E-05  4.2639049244090593E-05  4.1895293863766482E-05
  4.1164856234555955E-05  4.0447491699339103E-05  3.9742960208422770E-05  3.9051026230695061E-05  3.8371458666535236E-05
  3.7704030762434135E-05  3.7048520027301733E-05  3.6404708150417448E-05  3.5772380920998156E-05  3.5151328149348138E-05
  3.4541343589558362E-05  3.3942224863724735E-05  3.3353773387658315E-05  3.2775794298050256E-05  3.2208096381070978E-05
  1.1294899691100970E+02  1.1294899691100970E+02  1.1294899691100970E+02  1.1294899691100970E+02  1.1294899691100970E+02
  1.1294899691100970E+02  1.1294899691100970E+02  1.1294899691100970E+02  1.1294899691100970E+02  1.1294899691100970E+02
  1.1294899691100970E+02  1.1294899691100970E+02  1.1294899691100970E+02  1.1294899691100970E+02  1.1294899691100970E+02
  1.1294899691100970E+02  1.1294899691100970E+02  1.1294899691100970E+02  1.1294899691100970E+02  1.1294899691100970E+02
  1.1294899691100970E+02  1.1294899691100970E+02  1.1294899691100970E+02  1.1294899691100970E+02  1.1294899691100970E+02
  1.1294899691100970E+02  1.1294899691100970E+02  1.1294899691100970E+02  1.1294899691100970E+02  1.1294899691100970E+02
  1.1294899691100970E+02  1.1294899691100970E+02  1.1294899691100970E+02  1.1294899691100970E+02  1.1294899691100970E+02
  1.1294899691100970E+02  1.1294899691100970E+02  1.1294899691100970E+02  1.1294899691100970E+02  1.1294899691100970E+02
  1.1294899691100970E+02  1.1294899691100970E+02  1.1294899691100970E+02  1.1294899691100970E+02  1.1294899691100970E+02
  1.1294899691100970E+02  1.1294899691100970E+02  1.1294899691100970E+02  1.1294899691100970E+02  1.1294899691100970E+02
  1.1294899691100970E+02  1.1294899691100970E+02  1.1294899691100970E+02  1.1294899691100970E+02  1.1294899691100970E+02
  1.1294899691100970E+02  1.1294899691100970E+02  1.1294899691100970E+02  1.1294899691100970E+02  1.1294899691100970E+02
  1.1294899691100970E+02  1.1294899691100970E+02  1.1294899691100970E+02  1.1294899691100970E+02  1.1294899691100970E+02
  1.1294899691100970E+02  1.1294899691100970E+02  1.1294899691100970E+02  1.1294899691100970E+02  1.1294899691100970E+02
  1.1294899691100970E+02  1.1294899691100970E+02  1.1294899691100970E+02  1.1294899691100970E+02  1.1294899691100970E+02
  1.1294899691100970E+02  1.1294899691100970E+02  1.1294899691100970E+02  1.1294899691100970E+02  1.1294899691100970E+02
  1.1294899691100970E+02  1.1294899691100970E+02  1.1294899691100970E+02  1.1294899691100970E+02  1.1294899691100970E+02
  1.1294899691100970E+02  1.1294899691100970E+02  1.1294899691100970E+02  1.1294899691100970E+02  1.1294899691100970E+02
  1.1294899691100970E+02  1.1294899691100970E+02  1.1294899691100970E+02  1.1294899691100970E+02  1.1294899691100970E+02
  1.1294899691100970E+02  1.1294899691100970E+02  1.1294899691100970E+02  1.1294899691100970E+02  1.1294899691100970E+02
  1.1294899691100970E+02  1.1294899691100970E+02  1.1294899691100970E+02  1.1294899691100970E+02  1.1294899691100970E+02
  1.1294899691100970E+02  1.1294899691100970E+02  1.1294899691100970E+02  1.1294899691100970E+02  1.1294899691100970E+02
  1.1294899691100970E+02  1.1294899691100970E+02  1.1294899691100970E+02  1.1294899691100970E+02  1.1294899691100970E+02
