DATE: 2025-04-17 UNITS: metal CONTRIBUTOR: Xiaowang Zhou xzhou@sandia.gov, Lucas Hale lucas.hale@nist.gov, and Germain Clavier g.m.g.c.clavier@tue.nl/germain.clavier@gmail.com
 CITATION: X. W. Zhou, R. A. Johnson, H. N. G. Wadley, Phys. Rev. B, 69, 144113(2004)
Generated by create_eam.py
1     V                       
2000  6.6416665133030892e-02   2000  2.9023714910633119e-03   5.8018406106355602e+00  
   23        50.94000         3.66941      fcc
   0.0000000000000000E+00   3.4504665377033605E-01   3.1700200529747669E-01   2.8910167439141876E-01   2.6134528086215836E-01
   2.3373244451968889E-01   2.0626278517400864E-01   1.7893592263511104E-01   1.5175147671299527E-01   1.2470906721765385E-01
   9.7808313959083293E-02   7.1048836747280575E-02   4.4430255392240880E-02   1.7952189703958954E-02  -8.3857405075677960E-03
  -3.4583915432345957E-02  -6.0642715260376789E-02  -8.6562520181666436E-02  -1.1234371038621882E-01  -1.3798666606403831E-01
  -1.6349176740512839E-01  -1.8885939459949475E-01  -2.1408992783713954E-01  -2.3918374730806802E-01  -2.6414123320228589E-01
  -2.8896276570979529E-01  -3.1364872502060237E-01  -3.3819949132470839E-01  -3.6261544481211994E-01  -3.8689696567284226E-01
  -4.1104443409687619E-01  -4.3505823027422963E-01  -4.5893873439490340E-01  -4.8268632664890365E-01  -5.0630138722623474E-01
  -5.2978429631690105E-01  -5.5313543411090604E-01  -5.7635518079825410E-01  -5.9944391656894913E-01  -6.2240202161299596E-01
  -6.4522987612039984E-01  -6.6792786028116224E-01  -6.9049635428529066E-01  -7.1293573832278634E-01  -7.3524639258365498E-01
  -7.5742869725790118E-01  -7.7948303253552886E-01  -8.0140977860654194E-01  -8.2320931566094524E-01  -8.4488202388874201E-01
  -8.6642828347993706E-01  -8.8784847462453542E-01  -9.0914297751253970E-01  -9.3031217233395602E-01  -9.5135643927878633E-01
  -9.7227615853703631E-01  -9.9307171029870966E-01  -1.0137434747538130E+00  -1.0342918320923469E+00  -1.0547171625043179E+00
  -1.0750198461797296E+00  -1.0952002633085856E+00  -1.1152587940808920E+00  -1.1351958186866504E+00  -1.1550117173158680E+00
  -1.1747068701585466E+00  -1.1942816574046911E+00  -1.2137364592443067E+00  -1.2330716558673960E+00  -1.2522876274639645E+00
  -1.2713847542240171E+00  -1.2903634163375559E+00  -1.3092239939945862E+00  -1.3279668673851133E+00  -1.3465924166991399E+00
  -1.3651010221266711E+00  -1.3834930638577101E+00  -1.4017689220822622E+00  -1.4199289769903309E+00  -1.4379736087719219E+00
  -1.4559031976170385E+00  -1.4737181237156840E+00  -1.4914187672578636E+00  -1.5090055084335812E+00  -1.5264787274328424E+00
  -1.5438388044456490E+00  -1.5610861196620076E+00  -1.5782210532719205E+00  -1.5952439854653926E+00  -1.6121552964324297E+00
  -1.6289553663630336E+00  -1.6456445754472104E+00  -1.6622233038749628E+00  -1.6786919318362956E+00  -1.6950508395212138E+00
  -1.7113004071197215E+00  -1.7274410148218222E+00  -1.7434730428175207E+00  -1.7593968712968204E+00  -1.7752128804497265E+00
  -1.7909214504662425E+00  -1.8065229615363743E+00  -1.8220177938501234E+00  -1.8374063275974959E+00  -1.8526889429684963E+00
  -1.8678660201531276E+00  -1.8829379393413950E+00  -1.8979050807233020E+00  -1.9127678244888533E+00  -1.9275265508280528E+00
  -1.9421816399309053E+00  -1.9567334719874150E+00  -1.9711824271875855E+00  -1.9855288857214219E+00  -1.9997732277789275E+00
  -2.0139158335501071E+00  -2.0279570832249645E+00  -2.0418973569935046E+00  -2.0557370350457318E+00  -2.0694764975716491E+00
  -2.0831161247612613E+00  -2.0966562968045737E+00  -2.1100973938915883E+00  -2.1234397962123128E+00  -2.1366838839567479E+00
  -2.1498300373148993E+00  -2.1628786364767714E+00  -2.1758300616323685E+00  -2.1886846929716945E+00  -2.2014429106847544E+00
  -2.2141050949615506E+00  -2.2266716259920889E+00  -2.2391428839663732E+00  -2.2515192490744083E+00  -2.2638011015061972E+00
  -2.2759888214517452E+00  -2.2880827891010558E+00  -2.3000833846441333E+00  -2.3119909882709826E+00  -2.3238059801716080E+00
  -2.3355287405360130E+00  -2.3471596495542011E+00  -2.3586990874161784E+00  -2.3701474343119484E+00  -2.3815050704315155E+00
  -2.3927723759648831E+00  -2.4039497311020566E+00  -2.4150375160330393E+00  -2.4260361109478352E+00  -2.4369458960364505E+00
  -2.4477672514888873E+00  -2.4585005574951504E+00  -2.4691461942452446E+00  -2.4797045419291734E+00  -2.4901759807369412E+00
  -2.5005608908585542E+00  -2.5108596524840130E+00  -2.5210726458033252E+00  -2.5312002510064922E+00  -2.5412428482835208E+00
  -2.5512008178244137E+00  -2.5610745398191757E+00  -2.5708643944578102E+00  -2.5805707619303226E+00  -2.5901940224267164E+00
  -2.5997345561369967E+00  -2.6091927432511666E+00  -2.6185689639592313E+00  -2.6278635984511935E+00  -2.6370770269170594E+00
  -2.6462096295468318E+00  -2.6552617865305170E+00  -2.6642338780581158E+00  -2.6731262843196357E+00  -2.6819393855050793E+00
  -2.6906735618044508E+00  -2.6993291934077552E+00  -2.7079066605049964E+00  -2.7164063432861787E+00  -2.7248286219413060E+00
  -2.7331738766603824E+00  -2.7414424876334134E+00  -2.7496348350504021E+00  -2.7577512991013524E+00  -2.7657922599762701E+00
  -2.7737580978651577E+00  -2.7816491929580205E+00  -2.7894659254448619E+00  -2.7972086755156873E+00  -2.8048778233605010E+00
  -2.8124737491693055E+00  -2.8199968331321061E+00  -2.8274474554389073E+00  -2.8348259962797129E+00  -2.8421328358445281E+00
  -2.8493683543233557E+00  -2.8565329319062003E+00  -2.8636269487830672E+00  -2.8706507851439600E+00  -2.8776048211788821E+00
  -2.8844894370778387E+00  -2.8913050130308342E+00  -2.8980519292278721E+00  -2.9047305658589573E+00  -2.9113413031140931E+00
  -2.9178845211832849E+00  -2.9243606002565361E+00  -2.9307699205238515E+00  -2.9371128621752352E+00  -2.9433898054006908E+00
  -2.9496011303902239E+00  -2.9557472173338373E+00  -2.9618284464215359E+00  -2.9678451978433236E+00  -2.9737978517892056E+00
  -2.9796867884491851E+00  -2.9855123880132663E+00  -2.9912750306714546E+00  -2.9969750966137534E+00  -3.0026129660301666E+00
  -3.0081890191106990E+00  -3.0137036360453551E+00  -3.0191571970241387E+00  -3.0245500822370532E+00  -3.0298826718741045E+00
  -3.0351553461252960E+00  -3.0403684851806316E+00  -3.0455224692301166E+00  -3.0506176784637544E+00  -3.0556544930715490E+00
  -3.0606332932435056E+00  -3.0655544591696273E+00  -3.0704183710399193E+00  -3.0752254090443856E+00  -3.0799759533730304E+00
  -3.0846703842158574E+00  -3.0893090817628717E+00  -3.0938924262040768E+00  -3.0984207977294780E+00  -3.1028945765290779E+00
  -3.1073141427928821E+00  -3.1116798767108942E+00  -3.1159921584731194E+00  -3.1202513682695603E+00  -3.1244578862902221E+00
  -3.1286120927251093E+00  -3.1327143677642257E+00  -3.1367650915975753E+00  -3.1407646444151638E+00  -3.1447134064069933E+00
  -3.1486117577630690E+00  -3.1524600786733954E+00  -3.1562587493279768E+00  -3.1600081499168167E+00  -3.1637086606299203E+00
  -3.1673606616572911E+00  -3.1709645331889340E+00  -3.1745206554148520E+00  -3.1780294085250511E+00  -3.1814911727095341E+00
  -3.1849063281583057E+00  -3.1882752550613702E+00  -3.1915983336087321E+00  -3.1948759439903953E+00  -3.1981084663963641E+00
  -3.2012962810166425E+00  -3.2044397680412353E+00  -3.2075393076601464E+00  -3.2105952800633801E+00  -3.2136080654409400E+00
  -3.2165780439828318E+00  -3.2195055958790584E+00  -3.2223911013196247E+00  -3.2252349404945346E+00  -3.2280374935937930E+00
  -3.2307991408074033E+00  -3.2335202623253703E+00  -3.2362012383376979E+00  -3.2388424490343906E+00  -3.2414442746054526E+00
  -3.2440070952408875E+00  -3.2465312911307005E+00  -3.2490172424648951E+00  -3.2514653294334765E+00  -3.2538759322264479E+00
  -3.2562494310338135E+00  -3.2585862060455790E+00  -3.2608866374517471E+00  -3.2631511054423226E+00  -3.2653799902073097E+00
  -3.2675736719367126E+00  -3.2697325308205358E+00  -3.2718569470487826E+00  -3.2739473008114586E+00  -3.2760039722985681E+00
  -3.2780273417001138E+00  -3.2800177892061004E+00  -3.2819756950065333E+00  -3.2839014392914154E+00  -3.2857954022507521E+00
  -3.2876579640745462E+00  -3.2894895049528037E+00  -3.2912904050755274E+00  -3.2930610446327222E+00  -3.2948018038143925E+00
  -3.2965130628105417E+00  -3.2981952018111746E+00  -3.2998486010062957E+00  -3.3014736405859093E+00  -3.3030707007400189E+00
  -3.3046401616586292E+00  -3.3061824035317446E+00  -3.3076978065493687E+00  -3.3091867509015063E+00  -3.3106496167781616E+00
  -3.3120867843693387E+00  -3.3134986338650423E+00  -3.3148855454552755E+00  -3.3162478993300435E+00  -3.3175860756793503E+00
  -3.3189004546932002E+00  -3.3201914165615976E+00  -3.3214593414745464E+00  -3.3227046096220509E+00  -3.3239276011941152E+00
  -3.3251286963807440E+00  -3.3263082753719408E+00  -3.3274667183577114E+00  -3.3286044055280581E+00  -3.3297217170729860E+00
  -3.3308190331824998E+00  -3.3318967340466026E+00  -3.3329551998553000E+00  -3.3339948107985955E+00  -3.3350159470664931E+00
  -3.3360189888489975E+00  -3.3370043163361127E+00  -3.3379723097178431E+00  -3.3389233491841925E+00  -3.3398578149251659E+00
  -3.3407760871307670E+00  -3.3416785459910003E+00  -3.3425655716958702E+00  -3.3434375444353801E+00  -3.3442948443995348E+00
  -3.3451378517783388E+00  -3.3459669467617958E+00  -3.3467825095399104E+00  -3.3475849203026868E+00  -3.3483745592401295E+00
  -3.3491518065422423E+00  -3.3499170423990292E+00  -3.3506706470004954E+00  -3.3514130005366440E+00  -3.3521444831974803E+00
  -3.3528928705195020E+00  -3.3537550630185224E+00  -3.3546036707788023E+00  -3.3554386827376517E+00  -3.3562600878323825E+00
  -3.3570678750003045E+00  -3.3578620331787290E+00  -3.3586425513049676E+00  -3.3594094183163303E+00  -3.3601626231501278E+00
  -3.3609021547436719E+00  -3.3616280020342733E+00  -3.3623401539592424E+00  -3.3630385994558902E+00  -3.3637233274615279E+00
  -3.3643943269134664E+00  -3.3650515867490163E+00  -3.3656950959054885E+00  -3.3663248433201938E+00  -3.3669408179304434E+00
  -3.3675430086735481E+00  -3.3681314044868191E+00  -3.3687059943075663E+00  -3.3692667670731016E+00  -3.3698137117207354E+00
  -3.3703468171877784E+00  -3.3708660724115420E+00  -3.3713714663293373E+00  -3.3718629878784747E+00  -3.3723406259962645E+00
  -3.3728043696200189E+00  -3.3732542076870473E+00  -3.3736901291346624E+00  -3.3741121229001734E+00  -3.3745201779208922E+00
  -3.3749142831341294E+00  -3.3752944274771957E+00  -3.3756605998874023E+00  -3.3760127893020599E+00  -3.3763509846584796E+00
  -3.3766751748939718E+00  -3.3769853489458477E+00  -3.3772814957514186E+00  -3.3775636042479942E+00  -3.3778316633728869E+00
  -3.3780856620634068E+00  -3.3783255892568644E+00  -3.3785514338905713E+00  -3.3787631849018385E+00  -3.3789608312279760E+00
  -3.3791443618062953E+00  -3.3793137655741075E+00  -3.3794690314687226E+00  -3.3796101484274526E+00  -3.3797371053876080E+00
  -3.3798498912864989E+00  -3.3799484950614369E+00  -3.3800329056497334E+00  -3.3801031119886984E+00  -3.3801591030156426E+00
  -3.3802008676678783E+00  -3.3802283948827148E+00  -3.3802416735974639E+00  -3.3802406927494362E+00  -3.3802254412759427E+00
  -3.3801959081142940E+00  -3.3801520822018012E+00  -3.3800939524757756E+00  -3.3800215078735274E+00  -3.3799347373323676E+00
  -3.3798336297896077E+00  -3.3797181741825577E+00  -3.3795883594485292E+00  -3.3794441745248331E+00  -3.3792856083487801E+00
  -3.3791126498576802E+00  -3.3789252879888454E+00  -3.3787235116795866E+00  -3.3785073098672145E+00  -3.3782766714890391E+00
  -3.3780315854823728E+00  -3.3777720407845249E+00  -3.3774980263328080E+00  -3.3772095310645316E+00  -3.3769065439170074E+00
  -3.3765890538275460E+00  -3.3762570497334576E+00  -3.3759105205720545E+00  -3.3755494552806469E+00  -3.3751738427965452E+00
  -3.3747836720570605E+00  -3.3743789319995048E+00  -3.3739596115611876E+00  -3.3735256996794201E+00  -3.3730771852915140E+00
  -3.3726140573347791E+00  -3.3721363047465265E+00  -3.3716439164640675E+00  -3.3711368814247136E+00  -3.3706151885657736E+00
  -3.3700788268245607E+00  -3.3695277851383847E+00  -3.3689620524445560E+00  -3.3683816176803867E+00  -3.3677864697831867E+00
  -3.3671765976902672E+00  -3.3665519903389396E+00  -3.3659126366665140E+00  -3.3652585256103018E+00  -3.3645896461076132E+00
  -3.3639059870957602E+00  -3.3632075375120527E+00  -3.3624942862938023E+00  -3.3617662223783191E+00  -3.3610233347029150E+00
  -3.3602656122048997E+00  -3.3594930438215855E+00  -3.3587056184902817E+00  -3.3579033251483006E+00  -3.3570861527329523E+00
  -3.3562540901815474E+00  -3.3554071264313978E+00  -3.3545452504198137E+00  -3.3536684510841064E+00  -3.3527767173615861E+00
  -3.3518700381895643E+00  -3.3514139747603084E+00  -3.3509732176359384E+00  -3.3505263947147235E+00  -3.3500735279603151E+00
  -3.3496146392154844E+00  -3.3491497502030354E+00  -3.3486788825266904E+00  -3.3482020576719860E+00  -3.3477192970071483E+00
  -3.3472306217839631E+00  -3.3467360531386428E+00  -3.3462356120926731E+00  -3.3457293195536693E+00  -3.3452171963162076E+00
  -3.3446992630626582E+00  -3.3441755403640081E+00  -3.3436460486806783E+00  -3.3431108083633272E+00  -3.3425698396536574E+00
  -3.3420231626852033E+00  -3.3414707974841176E+00  -3.3409127639699516E+00  -3.3403490819564250E+00  -3.3397797711521924E+00
  -3.3392048511615942E+00  -3.3386243414854166E+00  -3.3380382615216257E+00  -3.3374466305661104E+00  -3.3368494678134102E+00
  -3.3362467923574357E+00  -3.3356386231921928E+00  -3.3350249792124846E+00  -3.3344058792146209E+00  -3.3337813418971152E+00
  -3.3331513858613726E+00  -3.3325160296123806E+00  -3.3318752915593817E+00  -3.3312291900165527E+00  -3.3305777432036656E+00
  -3.3299209692467553E+00  -3.3292588861787689E+00  -3.3285915119402181E+00  -3.3279188643798214E+00  -3.3272409612551446E+00
  -3.3265578202332300E+00  -3.3258694588912250E+00  -3.3251758947170038E+00  -3.3244771451097823E+00  -3.3237732273807277E+00
  -3.3230641587535659E+00  -3.3223499563651795E+00  -3.3216306372662063E+00  -3.3209062184216198E+00  -3.3201767167113259E+00
  -3.3194421489307318E+00  -3.3187025317913252E+00  -3.3179578819212447E+00  -3.3172082158658402E+00  -3.3164535500882382E+00
  -3.3156939009698903E+00  -3.3149292848111283E+00  -3.3141597178317075E+00  -3.3133852161713473E+00  -3.3126057958902697E+00
  -3.3118214729697266E+00  -3.3110322633125322E+00  -3.3102381827435821E+00  -3.3094392470103715E+00  -3.3086354717835125E+00
  -3.3078268726572384E+00  -3.3070134651499150E+00  -3.3061952647045363E+00  -3.3053722866892250E+00  -3.3045445463977234E+00
  -3.3037120590498832E+00  -3.3028748397921492E+00  -3.3020329036980400E+00  -3.3011862657686257E+00  -3.3003349409329958E+00
  -3.2994789440487375E+00  -3.2986182899023895E+00  -3.2977529932099112E+00  -3.2968830686171349E+00  -3.2960085307002220E+00
  -3.2951293939661128E+00  -3.2942456728529712E+00  -3.2933573817306270E+00  -3.2924645349010166E+00  -3.2915671465986160E+00
  -3.2906652309908737E+00  -3.2897588021786417E+00  -3.2888478741965925E+00  -3.2879324610136504E+00  -3.2870125765334013E+00
  -3.2860882345945104E+00  -3.2851594489711347E+00  -3.2842262333733312E+00  -3.2832886014474560E+00  -3.2823465667765732E+00
  -3.2814001428808486E+00  -3.2804493432179456E+00  -3.2794941811834182E+00  -3.2785346701110996E+00  -3.2775708232734853E+00
  -3.2766026538821196E+00  -3.2756301750879739E+00  -3.2746533999818217E+00  -3.2736723415946143E+00  -3.2726870128978507E+00
  -3.2716974268039460E+00  -3.2707035961665958E+00  -3.2697055337811380E+00  -3.2687032523849129E+00  -3.2676967646576194E+00
  -3.2666860832216704E+00  -3.2656712206425382E+00  -3.2646521894291101E+00  -3.2636290020340293E+00  -3.2626016708540377E+00
  -3.2615702082303182E+00  -3.2605346264488326E+00  -3.2594949377406541E+00  -3.2584511542823016E+00  -3.2574032881960675E+00
  -3.2563513515503497E+00  -3.2552953563599711E+00  -3.2542353145865039E+00  -3.2531712381385920E+00  -3.2521031388722639E+00
  -3.2510310285912514E+00  -3.2499549190473020E+00  -3.2488748219404875E+00  -3.2477907489195124E+00  -3.2467027115820204E+00
  -3.2456107214748968E+00  -3.2445147900945721E+00  -3.2434149288873160E+00  -3.2423111492495384E+00  -3.2412034625280826E+00
  -3.2400918800205156E+00  -3.2389764129754202E+00  -3.2378570725926816E+00  -3.2367338700237740E+00  -3.2356068163720439E+00
  -3.2344759226929911E+00  -3.2333411999945483E+00  -3.2322026592373572E+00  -3.2310603113350469E+00  -3.2299141671545044E+00
  -3.2287642375161454E+00  -3.2276105331941873E+00  -3.2264530649169112E+00  -3.2252918433669313E+00  -3.2241268791814570E+00
  -3.2229581829525529E+00  -3.2217857652273993E+00  -3.2206096365085530E+00  -3.2194298072541980E+00  -3.2182462878783995E+00
  -3.2170590887513635E+00  -3.2158682201996767E+00  -3.2146736925065613E+00  -3.2134755159121209E+00  -3.2122737006135837E+00
  -3.2110682567655480E+00  -3.2098591944802206E+00  -3.2086465238276580E+00  -3.2074302548360065E+00  -3.2062103974917324E+00
  -3.2049869617398654E+00  -3.2037599574842210E+00  -3.2025293945876414E+00  -3.2012952828722190E+00  -3.2000576321195258E+00
  -3.1988164520708424E+00  -3.1975717524273768E+00  -3.1963235428504952E+00  -3.1950718329619359E+00  -3.1938166323440362E+00
  -3.1925579505399457E+00  -3.1912957970538458E+00  -3.1900301813511640E+00  -3.1887611128587894E+00  -3.1874886009652839E+00
  -3.1862126550210910E+00  -3.1849332843387512E+00  -3.1836504981931038E+00  -3.1823643058214963E+00  -3.1810747164239905E+00
  -3.1797817391635643E+00  -3.1784853831663131E+00  -3.1771856575216559E+00  -3.1758825712825280E+00  -3.1745761334655835E+00
  -3.1732663530513907E+00  -3.1719532389846283E+00  -3.1706368001742793E+00  -3.1693170454938211E+00  -3.1679939837814231E+00
  -3.1666676238401297E+00  -3.1653379744380543E+00  -3.1640050443085648E+00  -3.1626688421504694E+00  -3.1613293766282036E+00
  -3.1599866563720131E+00  -3.1586406899781339E+00  -3.1572914860089769E+00  -3.1559390529933080E+00  -3.1545833994264232E+00
  -3.1532245337703317E+00  -3.1518624644539286E+00  -3.1504971998731692E+00  -3.1491287483912469E+00  -3.1477571183387636E+00
  -3.1463823180139023E+00  -3.1450043556825991E+00  -3.1436232395787078E+00  -3.1422389779041739E+00  -3.1408515788292006E+00
  -3.1394610504924119E+00  -3.1380674010010208E+00  -3.1366706384309926E+00  -3.1352707708272063E+00  -3.1338678062036194E+00
  -3.1324617525434246E+00  -3.1310526177992131E+00  -3.1296404098931312E+00  -3.1282251367170382E+00  -3.1268068061326648E+00
  -3.1253854259717651E+00  -3.1239610040362757E+00  -3.1225335480984646E+00  -3.1211030659010852E+00  -3.1196695651575306E+00
  -3.1182330535519807E+00  -3.1167935387395529E+00  -3.1153510283464518E+00  -3.1139055299701148E+00  -3.1124570511793612E+00
  -3.1110055995145354E+00  -3.1095511824876518E+00  -3.1080938075825437E+00  -3.1066334822549986E+00  -3.1051702139329054E+00
  -3.1037040100163935E+00  -3.1022348778779740E+00  -3.1007628248626795E+00  -3.0992878582881995E+00  -3.0978099854450223E+00
  -3.0963292135965697E+00  -3.0948455499793286E+00  -3.0933590018029951E+00  -3.0918695762506001E+00  -3.0903772804786476E+00
  -3.0888821216172424E+00  -3.0873841067702288E+00  -3.0858832430153158E+00  -3.0843795374042053E+00  -3.0828729969627298E+00
  -3.0813636286909696E+00  -3.0798514395633894E+00  -3.0783364365289603E+00  -3.0768186265112871E+00  -3.0752980164087318E+00
  -3.0737746130945425E+00  -3.0722484234169696E+00  -3.0707194541993950E+00  -3.0691877122404527E+00  -3.0676532043141465E+00
  -3.0661159371699744E+00  -3.0645759175330491E+00  -3.0630331521042122E+00  -3.0614876475601558E+00  -3.0599394105535418E+00
  -3.0583884477131145E+00  -3.0568347656438184E+00  -3.0552783709269162E+00  -3.0537192701200997E+00  -3.0521574697576055E+00
  -3.0505929763503286E+00  -3.0490257963859349E+00  -3.0474559363289710E+00  -3.0458834026209809E+00  -3.0443082016806078E+00
  -3.0427303399037151E+00  -3.0411498236634849E+00  -3.0395666593105330E+00  -3.0379808531730155E+00  -3.0363924115567356E+00
  -3.0348013407452505E+00  -3.0332076469999758E+00  -3.0316113365602924E+00  -3.0300124156436525E+00  -3.0284108904456821E+00
  -3.0268067671402825E+00  -3.0252000518797360E+00  -3.0235907507948094E+00  -3.0219788699948502E+00  -3.0203644155678910E+00
  -3.0187473935807536E+00  -3.0171278100791392E+00  -3.0155056710877375E+00  -3.0138809826103210E+00  -3.0122537506298399E+00
  -3.0106239811085258E+00  -3.0089916799879832E+00  -3.0073568531892891E+00  -3.0057195066130897E+00  -3.0040796461396915E+00
  -3.0024372776291552E+00  -3.0007924069214007E+00  -2.9991450398362827E+00  -2.9974951821737013E+00  -2.9958428397136800E+00
  -2.9941880182164700E+00  -2.9925307234226319E+00  -2.9908709610531301E+00  -2.9892087368094247E+00  -2.9875440563735598E+00
  -2.9858769254082493E+00  -2.9842073495569732E+00  -2.9825353344440590E+00  -2.9808608856747711E+00  -2.9791840088354018E+00
  -2.9775047094933509E+00  -2.9758229931972191E+00  -2.9741388654768870E+00  -2.9724523318436082E+00  -2.9707633977900847E+00
  -2.9690720687905587E+00  -2.9673783503008924E+00  -2.9656822477586515E+00  -2.9639837665831905E+00  -2.9622829121757324E+00
  -2.9605796899194510E+00  -2.9588741051795506E+00  -2.9571661633033530E+00  -2.9554558696203714E+00  -2.9537432294423906E+00
  -2.9520282480635536E+00  -2.9503109307604309E+00  -2.9485912827921070E+00  -2.9468693094002543E+00  -2.9451450158092105E+00
  -2.9434184072260603E+00  -2.9416894888407077E+00  -2.9399582658259535E+00  -2.9382247433375732E+00  -2.9364889265143903E+00
  -2.9347508204783526E+00  -2.9330104303346052E+00  -2.9312677611715707E+00  -2.9295228180610127E+00  -2.9277756060581197E+00
  -2.9260261302015729E+00  -2.9242743955136175E+00  -2.9225204070001385E+00  -2.9207641696507314E+00  -2.9190056884387743E+00
  -2.9172449683214952E+00  -2.9154820142400499E+00  -2.9137168311195825E+00  -2.9119494238693053E+00  -2.9101797973825603E+00
  -2.9084079565368950E+00  -2.9066339061941266E+00  -2.9048576512004103E+00  -2.9030791963863090E+00  -2.9012985465668621E+00
  -2.8995157065416506E+00  -2.8977306810948633E+00  -2.8959434749953648E+00  -2.8941540929967631E+00  -2.8923625398374724E+00
  -2.8905688202407802E+00  -2.8887729389149102E+00  -2.8869749005530916E+00  -2.8851747098336205E+00  -2.8833723714199206E+00
  -2.8815678899606145E+00  -2.8797612700895807E+00  -2.8779525164260189E+00  -2.8761416335745120E+00  -2.8743286261250924E+00
  -2.8725134986532948E+00  -2.8706962557202287E+00  -2.8688769018726314E+00  -2.8670554416429326E+00  -2.8652318795493161E+00
  -2.8634062200957775E+00  -2.8615784677721847E+00  -2.8597486270543380E+00  -2.8579167024040326E+00  -2.8560826982691121E+00
  -2.8542466190835287E+00  -2.8524084692674054E+00  -2.8505682532270904E+00  -2.8487259753552170E+00  -2.8468816400307571E+00
  -2.8450352516190835E+00  -2.8431868144720260E+00  -2.8413363329279235E+00  -2.8394838113116863E+00  -2.8376292539348476E+00
  -2.8357726650956203E+00  -2.8339140490789534E+00  -2.8320534101565897E+00  -2.8301907525871122E+00  -2.8283260806160078E+00
  -2.8264593984757171E+00  -2.8245907103856878E+00  -2.8227200205524312E+00  -2.8208473331695720E+00  -2.8189726524179060E+00
  -2.8170959824654491E+00  -2.8152173274674905E+00  -2.8133366915666480E+00  -2.8114540788929152E+00  -2.8095694935637163E+00
  -2.8076829396839580E+00  -2.8057944213460799E+00  -2.8039039426301047E+00  -2.8020115076036900E+00  -2.8001171203221782E+00
  -2.7982207848286462E+00  -2.7963225051539569E+00  -2.7944222853168079E+00  -2.7925201293237798E+00  -2.7906160411693879E+00
  -2.7887100248361292E+00  -2.7868020842945302E+00  -2.7848922235031992E+00  -2.7829804464088705E+00  -2.7810667569464518E+00
  -2.7791511590390772E+00  -2.7772336565981490E+00  -2.7753142535233897E+00  -2.7733929537028823E+00  -2.7714697610131243E+00
  -2.7695446793190701E+00  -2.7676177124741765E+00  -2.7656888643204538E+00  -2.7637581386885040E+00  -2.7618255393975728E+00
  -2.7598910702555930E+00  -2.7579547350592262E+00  -2.7560165375939132E+00  -2.7540764816339163E+00  -2.7521345709423608E+00
  -2.7501908092712832E+00  -2.7482452003616737E+00  -2.7462977479435207E+00  -2.7443484557358517E+00  -2.7423973274467812E+00
  -2.7404443667735472E+00  -2.7384895774025622E+00  -2.7365329630094490E+00  -2.7345745272590860E+00  -2.7326142738056500E+00
  -2.7306522062926568E+00  -2.7286883283530039E+00  -2.7267226436090128E+00  -2.7247551556724678E+00  -2.7227858681446593E+00
  -2.7208147846164250E+00  -2.7188419086681894E+00  -2.7168672438700070E+00  -2.7148907937815969E+00  -2.7129125619523906E+00
  -2.7109325519215677E+00  -2.7089507672180941E+00  -2.7069672113607655E+00  -2.7049818878582443E+00  -2.7029948002091015E+00
  -2.7010059519018523E+00  -2.6990153464149955E+00  -2.6970229872170539E+00  -2.6950288777666147E+00  -2.6930330215123619E+00
  -2.6910354218931185E+00  -2.6890360823378829E+00  -2.6870350062658690E+00  -2.6850321970865396E+00  -2.6830276581996491E+00
  -2.6810213929952744E+00  -2.6790134048538574E+00  -2.6770036971462385E+00  -2.6749922732336957E+00  -2.6729791364679785E+00
  -2.6709642901913462E+00  -2.6689477377366018E+00  -2.6669294824271303E+00  -2.6649095275769348E+00  -2.6628878764906685E+00
  -2.6608645324636742E+00  -2.6588394987820170E+00  -2.6568127787225202E+00  -2.6547843755528007E+00  -2.6527542925313026E+00
  -2.6507225329073338E+00  -2.6486890999210981E+00  -2.6466539968037290E+00  -2.6446172267773287E+00  -2.6425787930549958E+00
  -2.6405386988408637E+00  -2.6384969473301298E+00  -2.6364535417090962E+00  -2.6344084851551921E+00  -2.6323617808370186E+00
  -2.6303134319143733E+00  -2.6282634415382877E+00  -2.6262118128510572E+00  -2.6241585489862769E+00  -2.6221036530688671E+00
  -2.6200471282151141E+00  -2.6179889775326992E+00  -2.6159292041207256E+00  -2.6138678110697584E+00  -2.6118048014618496E+00
  -2.6097401783705734E+00  -2.6076739448610562E+00  -2.6056061039900076E+00  -2.6035366588057509E+00  -2.6014656123482571E+00
  -2.5993929676491705E+00  -2.5973187277318441E+00  -2.5952428956113676E+00  -2.5931654742945969E+00  -2.5910864667801876E+00
  -2.5890058760586228E+00  -2.5869237051122402E+00  -2.5848399569152702E+00  -2.5827546344338552E+00  -2.5806677406260872E+00
  -2.5785792784420325E+00  -2.5764892508237640E+00  -2.5743976607053867E+00  -2.5723045110130700E+00  -2.5702098046650752E+00
  -2.5681135445717840E+00  -2.5660157336357279E+00  -2.5639163747516163E+00  -2.5618154708063603E+00  -2.5597130246791124E+00
  -2.5576090392412811E+00  -2.5555035173565672E+00  -2.5533964618809901E+00  -2.5512878756629127E+00  -2.5491777615430724E+00
  -2.5470661223546065E+00  -2.5449529609230805E+00  -2.5428382800665132E+00  -2.5407220825954084E+00  -2.5386043713127742E+00
  -2.5364851490141564E+00  -2.5343644184876659E+00  -2.5322421825139982E+00  -2.5301184438664648E+00  -2.5279932053110219E+00
  -2.5258664696062900E+00  -2.5237382395035848E+00  -2.5216085177469409E+00  -2.5194773070731395E+00  -2.5173446102117341E+00
  -2.5152104298850726E+00  -2.5130747688083273E+00  -2.5109376296895163E+00  -2.5087990152295343E+00  -2.5066589281221709E+00
  -2.5045173710541415E+00  -2.5023743467051083E+00  -2.5002298577477067E+00  -2.4980839068475693E+00  -2.4959364966633535E+00
  -2.4937876298467616E+00  -2.4916373090425683E+00  -2.4894855368886408E+00  -2.4873323160159715E+00  -2.4851776490486914E+00
  -2.4830215386041026E+00  -2.4808639872926976E+00  -2.4787049977181850E+00  -2.4765445724775108E+00  -2.4743827141608850E+00
  -2.4722194253518031E+00  -2.4700547086270697E+00  -2.4678885665568240E+00  -2.4657210017045577E+00  -2.4635520166271432E+00
  -2.4613816138748539E+00  -2.4592097959913879E+00  -2.4570365655138913E+00  -2.4548619249729788E+00  -2.4526858768927577E+00
  -2.4505084237908510E+00  -2.4483295681784183E+00  -2.4461493125601774E+00  -2.4439676594344300E+00  -2.4417846112930803E+00
  -2.4396001706216572E+00  -2.4374143398993375E+00  -2.4352271215989680E+00  -2.4330385181870859E+00  -2.4308485321239406E+00
  -2.4286571658635152E+00  -2.4264644218535487E+00  -2.4242703025355552E+00  -2.4220748103448471E+00  -2.4198779477105581E+00
  -2.4176797170556594E+00  -2.4154801207969845E+00  -2.4132791613452458E+00  -2.4110768411050598E+00  -2.4088731624749675E+00
  -2.4066681278474533E+00  -2.4044617396089634E+00  -2.4022540001399313E+00  -2.4000449118147924E+00  -2.3978344770020104E+00
  -2.3956226980640927E+00  -2.3934095773576129E+00  -2.3911951172332269E+00  -2.3889793200357023E+00  -2.3867621881039236E+00
  -2.3845437237709257E+00  -2.3823239293639071E+00  -2.3801028072042469E+00  -2.3778803596075320E+00  -2.3756565888835692E+00
  -2.3734314973364081E+00  -2.3712050872643595E+00  -2.3689773609600149E+00  -2.3667483207102666E+00  -2.3645179687963234E+00
  -2.3622863074937315E+00  -2.3600533390723939E+00  -2.3578190657965887E+00  -2.3555834899249888E+00  -2.3533466137106767E+00
  -2.3511084394011683E+00  -2.3488689692384273E+00  -2.3466282054588841E+00  -2.3443861502934564E+00  -2.3421428059675669E+00
  -2.3398981747011560E+00  -2.3376522587087107E+00  -2.3354050601992711E+00  -2.3331565813764552E+00  -2.3309068244384754E+00
  -2.3286557915781541E+00  -2.3264034849829458E+00  -2.3241499068349496E+00  -2.3218950593109295E+00  -2.3196389445823331E+00
  -2.3173815648153049E+00  -2.3151229221707084E+00  -2.3128630188041392E+00  -2.3106018568659454E+00  -2.3083394385012430E+00
  -2.3060757658499309E+00  -2.3038108410467157E+00  -2.3015446662211185E+00  -2.2992772434974977E+00  -2.2970085749950639E+00
  -2.2947386628278981E+00  -2.2924675091049673E+00  -2.2901951159301399E+00  -2.2879214854022050E+00  -2.2856466196148868E+00
  -2.2833705206568604E+00  -2.2810931906117689E+00  -2.2788146315582418E+00  -2.2765348455699081E+00  -2.2742538347154113E+00
  -2.2719716010584325E+00  -2.2696881466576952E+00  -2.2674034735669935E+00  -2.2651175838351971E+00  -2.2628304795062735E+00
  -2.2605421626193039E+00  -2.2582526352084926E+00  -2.2559618993031925E+00  -2.2536699569279111E+00  -2.2513768101023297E+00
  -2.2490824608413202E+00  -2.2467869111549623E+00  -2.2444901630485488E+00  -2.2421922185226135E+00  -2.2398930795729393E+00
  -2.2375927481905720E+00  -2.2352912263618396E+00  -2.2329885160683673E+00  -2.2306846192870866E+00  -2.2283795379902580E+00
  -2.2260732741454792E+00  -2.2237658297157052E+00  -2.2214572066592582E+00  -2.2191474069298440E+00  -2.2168364324765681E+00
  -2.2145242852439502E+00  -2.2122109671719343E+00  -2.2098964801959089E+00  -2.2075808262467178E+00  -2.2052640072506744E+00
  -2.2029460251295792E+00  -2.2006268818007246E+00  -2.1983065791769270E+00  -2.1959851191665205E+00  -2.1936625036733832E+00
  -2.1913387345969477E+00  -2.1890138138322168E+00  -2.1866877432697738E+00  -2.1843605247957987E+00  -2.1820321602920818E+00
  -2.1797026516360396E+00  -2.1773720007007196E+00  -2.1750402093548256E+00  -2.1727072794627245E+00  -2.1703732128844599E+00
  -2.1680380114757671E+00  -2.1657016770880855E+00  -2.1633642115685725E+00  -2.1610256167601185E+00  -2.1586858945013550E+00
  -2.1563450466266714E+00  -2.1540030749662291E+00  -2.1516599813459734E+00  -2.1493157675876433E+00  -2.1469704355087877E+00
  -2.1446239869227810E+00  -2.1422764236388296E+00  -2.1399277474619889E+00  -2.1375779601931750E+00  -2.1352270636291761E+00
  -2.1328750595626684E+00  -2.1305219497822225E+00  -2.1281677360723275E+00  -2.1258124202133892E+00  -2.1234560039817505E+00
  -2.1210984891497060E+00  -2.1187398774855075E+00  -2.1163801707533829E+00  -2.1140193707135428E+00  -2.1116574791221976E+00
  -2.1092944977315637E+00  -2.1069304282898851E+00  -2.1045652725414321E+00  -2.1021990322265287E+00  -2.0998317090815504E+00
  -2.0974633048389468E+00  -2.0950938212272456E+00  -2.0927232599710712E+00  -2.0903516227911521E+00  -2.0879789114043321E+00
  -2.0856051275235874E+00  -2.0832302728580303E+00  -2.0808543491129270E+00  -2.0784773579897093E+00  -2.0760993011859807E+00
  -2.0737201803955343E+00  -2.0713399973083595E+00  -2.0689587536106528E+00  -2.0665764509848370E+00  -2.0641930911095629E+00
  -2.0618086756597256E+00  -2.0594232063064757E+00  -2.0570366847172288E+00  -2.0546491125556767E+00  -2.0522604914817997E+00
  -2.0498708231518776E+00  -2.0474801092185015E+00  -2.0450883513305795E+00  -2.0426955511333573E+00  -2.0403017102684178E+00
  -2.0379068303737022E+00  -2.0355109130835141E+00  -2.0331139600285311E+00  -2.0307159728358193E+00  -2.0283169531288423E+00
  -2.0259169025274688E+00  -2.0235158226479846E+00  -2.0211137151031062E+00  -2.0187105815019897E+00  -2.0163064234502390E+00
  -2.0139012425499203E+00  -2.0114950403995659E+00  -2.0090878185941956E+00  -2.0066795787253136E+00  -2.0042703223809304E+00
  -2.0018600511455662E+00  -1.9994487666002636E+00  -1.9970364703225982E+00  -1.9946231638866851E+00  -1.9922088488631950E+00
  -1.9897935268193607E+00  -1.9873771993189857E+00  -1.9849598679224585E+00  -1.9825415341867576E+00  -1.9801221996654641E+00
  -1.9777018659087757E+00  -1.9752805344635074E+00  -1.9728582068731078E+00  -1.9704348846776669E+00  -1.9680105694139276E+00
  -1.9655852626152934E+00  -1.9631589658118382E+00  -1.9607316805303185E+00  -1.9583034082941770E+00  -1.9558741506235608E+00
  -1.9534439090353226E+00  -1.9510126850430354E+00  -1.9485804801570010E+00  -1.9461472958842596E+00  -1.9437131337285962E+00
  -1.9412779951905517E+00  -1.9388418817674360E+00  -1.9364047949533343E+00  -1.9339667362391120E+00  -1.9315277071124333E+00
  -1.9290877090577585E+00  -1.9266467435563666E+00  -1.9242048120863537E+00  -1.9217619161226487E+00  -1.9193180571370159E+00
  -1.9168732365980741E+00  -1.9144274559712924E+00  -1.9119807167190108E+00  -1.9095330203004413E+00  -1.9070843681716843E+00
  -1.9046347617857289E+00  -1.9021842025924689E+00  -1.8997326920387065E+00  -1.8972802315681652E+00  -1.8948268226214962E+00
  -1.8923724666362838E+00  -1.8899171650470656E+00  -1.8874609192853260E+00  -1.8850037307795169E+00  -1.8825456009550594E+00
  -1.8800865312343535E+00  -1.8776265230367906E+00  -1.8751655777787584E+00  -1.8727036968736475E+00  -1.8702408817318650E+00
  -1.8677771337608400E+00  -1.8653124543650315E+00  -1.8628468449459370E+00  -1.8603803069021032E+00  -1.8579128416291306E+00
  -1.8554444505196854E+00  -1.8529751349635051E+00  -1.8505048963474060E+00  -1.8480337360552963E+00  -1.8455616554681771E+00
  -1.8430886559641584E+00  -1.8406147389184566E+00  -1.8381399057034176E+00  -1.8356641576885089E+00  -1.8331874962403389E+00
  -1.8307099227226620E+00  -1.8282314384963803E+00  -1.8257520449195603E+00  -1.8232717433474377E+00  -1.8207905351324236E+00
  -1.8183084216241137E+00  -1.8158254041692954E+00  -1.8133414841119575E+00  -1.8108566627932949E+00  -1.8083709415517195E+00
  -1.8058843217228639E+00  -1.8033968046395954E+00  -1.8009083916320161E+00  -1.7984190840274765E+00  -1.7959288831505795E+00
  -1.7934377903231897E+00  -1.7909458068644419E+00  -1.7884529340907467E+00  -1.7859591733157940E+00  -1.7834645258505730E+00
  -1.7809689930033654E+00  -1.7784725760797615E+00  -1.7759752763826657E+00  -1.7734770952123018E+00  -1.7709780338662213E+00
  -1.7684780936393136E+00  -1.7659772758238095E+00  -1.7634755817092904E+00  -1.7609730125826928E+00  -1.7584695697283237E+00
  -1.7559652544278532E+00  -1.7534600679603392E+00  -1.7509540116022171E+00  -1.7484470866273223E+00  -1.7459392943068870E+00
  -1.7434306359095537E+00  -1.7409211127013733E+00  -1.7384107259458235E+00  -1.7358994769038090E+00  -1.7333873668336692E+00
  -1.7308743969911844E+00  -1.7283605686295889E+00  -1.7258458829995678E+00  -1.7233303413492693E+00  -1.7208139449243163E+00
  -1.7182966949678047E+00  -1.7157785927203140E+00  -1.7132596394199140E+00  -1.7107398363021724E+00  -1.7082191846001595E+00
  -1.7056976855444570E+00  -1.7031753403631620E+00  -1.7006521502818990E+00  -1.6981281165238191E+00  -1.6956032403096120E+00
  -1.6930775228575095E+00  -1.6905509653832971E+00  -1.6880235691003138E+00  -1.6854953352194646E+00  -1.6829662649492214E+00
  -1.6804363594956340E+00  -1.6779056200623357E+00  -1.6753740478505474E+00  -1.6728416440590874E+00  -1.6703084098843739E+00
  -1.6677743465204347E+00  -1.6652394551589129E+00  -1.6627037369890716E+00  -1.6601671931978030E+00  -1.6576298249696322E+00
  -1.6550916334867225E+00  -1.6525526199288860E+00  -1.6500127854735878E+00  -1.6474721312959482E+00  -1.6449306585687555E+00
  -1.6423883684624692E+00  -1.6398452621452240E+00  -1.6373013407828396E+00  -1.6347566055388234E+00  -1.6322110575743816E+00
  -1.6296646980484180E+00  -1.6271175281175474E+00  -1.6245695489360963E+00  -1.6220207616561133E+00  -1.6194711674273694E+00
  -1.6169207673973698E+00  -1.6143695627113568E+00  -1.6118175545123148E+00  -1.6092647439409806E+00  -1.6067111321358447E+00
  -1.6041567202331573E+00  -1.6016015093669387E+00  -1.5990455006689819E+00  -1.5964886952688537E+00  -1.5939310942939144E+00
  -1.5913726988693051E+00  -1.5888135101179710E+00  -1.5862535291606532E+00  -1.5836927571159047E+00  -1.5811311951000870E+00
  -1.5785688442273877E+00  -1.5760057056098105E+00  -1.5734417803571945E+00  -1.5708770695772156E+00  -1.5683115743753890E+00
  -1.5657452958550753E+00  -1.5631782351174914E+00  -1.5606103932617108E+00  -1.5580417713846697E+00  -1.5554723705811750E+00
  -1.5529021919439092E+00  -1.5503312365634319E+00  -1.5477595055281910E+00  -1.5451869999245247E+00  -1.5426137208366699E+00
  -1.5400396693467613E+00  -1.5374648465348455E+00  -1.5348892534788776E+00  -1.5323128912547339E+00  -1.5297357609362123E+00
  -1.5271578635950425E+00  -1.5245792003008845E+00  -1.5219997721213407E+00  -1.5194195801219559E+00  -1.5168386253662265E+00
  -1.5142569089156028E+00  -1.5116744318294972E+00  -1.5090911951652868E+00  -1.5065071999783175E+00  -1.5039224473219157E+00
  -1.5013369382473840E+00  -1.4987506738040157E+00  -1.4961636550390918E+00  -1.4935758829978936E+00  -1.4909873587236997E+00
  -1.4883980832577983E+00  -1.4858080576394885E+00  -1.4832172829060843E+00  -1.4806257600929280E+00  -1.4780334902333816E+00
  -1.4754404743588398E+00  -1.4728467134987371E+00  -1.4702522086805505E+00  -1.4676569609297985E+00  -1.4650609712700562E+00
  -1.4624642407229529E+00  -1.4598667703081785E+00  -1.4572685610434930E+00  -1.4546696139447244E+00  -1.4520699300257764E+00
  -1.4494695102986359E+00  -1.4468683557733739E+00  -1.4442664674581513E+00  -1.4416638463592280E+00  -1.4390604934809597E+00
  -1.4364564098258095E+00  -1.4338515963943486E+00  -1.4312460541852632E+00  -1.4286397841953595E+00  -1.4260327874195651E+00
  -1.4234250648509386E+00  -1.4208166174806705E+00  -1.4182074462980894E+00  -1.4155975522906665E+00  -1.4129869364440177E+00
  -1.4103755997419163E+00  -1.4077635431662849E+00  -1.4051507676972121E+00  -1.4025372743129492E+00  -1.3999230639899181E+00
  -1.3973081377027166E+00  -1.3946924964241194E+00  -1.3920761411250875E+00  -1.3894590727747680E+00  -1.3868412923405007E+00
  -1.3842228007878201E+00  -1.3816035990804700E+00  -1.3789836881803903E+00  -1.3763630690477386E+00  -1.3737417426408849E+00
  -1.3711197099164174E+00  -1.3684969718291475E+00  -1.3658735293321180E+00  -1.3632493833766002E+00  -1.3606245349121053E+00
  -1.3579989848863832E+00  -1.3553727342454294E+00  -1.3527457839334882E+00  -1.3501181348930629E+00  -1.3474897880649084E+00
  -1.3448607443880458E+00  -1.3422310047997650E+00  -1.3396005702356206E+00  -1.3369694416294469E+00  -1.3343376199133576E+00
  -1.3317051060177485E+00  -1.3290719008713052E+00  -1.3264380054010034E+00  -1.3238034205321156E+00  -1.3211681471882140E+00
  -1.3185321862911790E+00  -1.3158955387611944E+00  -1.3132582055167614E+00  -1.3106201874746928E+00  -1.3079814855501277E+00
  -1.3053421006565264E+00  -1.3027020337056807E+00  -1.3000612856077149E+00  -1.2974198572710904E+00  -1.2947777496026087E+00
  -1.2921349635074173E+00  -1.2894914998890141E+00  -1.2868473596492480E+00  -1.2842025436883264E+00  -1.2815570529048204E+00
  -1.2789108881956601E+00  -1.2762640504561502E+00  -1.2736165405799660E+00  -1.2709683594591594E+00  -1.2683195079841658E+00
  -1.2656699870438031E+00  -1.2630197975252750E+00  -1.2603689403141836E+00  -1.2577174162945242E+00  -1.2550652263486934E+00
  -1.2524123713574902E+00  -1.2497588522001224E+00  -1.2471046697542090E+00  -1.2444498248957854E+00  -1.2417943184993054E+00
  -1.2391381514376478E+00  -1.2364813245821142E+00  -1.2338238388024421E+00  -1.2311656949667995E+00  -1.2285068939417914E+00
  -1.2258474365924692E+00  -1.2231873237823268E+00  -1.2205265563733088E+00  -1.2178651352258090E+00  -1.2152030611986830E+00
  -1.2125403351492430E+00  -1.2098769579332660E+00  -1.2072129304049966E+00  -1.2045482534171525E+00  -1.2018829278209224E+00
  -1.1992169544659772E+00  -1.1965503342004677E+00  -1.1938830678710297E+00  -1.1912151563227908E+00  -1.1885466003993712E+00
  -1.1858774009428823E+00  -1.1832075587939401E+00  -1.1805370747916657E+00  -1.1778659497736834E+00  -1.1751941845761289E+00
  -1.1725217800336509E+00  -1.1698487369794197E+00  -1.1671750562451224E+00  -1.1645007386609711E+00  -1.1618257850557090E+00
  -1.1591501962566062E+00  -1.1564739730894711E+00  -1.1537971163786482E+00  -1.1511196269470241E+00  -1.1484415056160335E+00
  -1.1457627532056536E+00  -1.1430833705344201E+00  -1.1404033584194193E+00  -1.1377227176762981E+00  -1.1350414491192642E+00
  -1.1323595535610933E+00  -1.1296770318131282E+00  -1.1269938846852825E+00  -1.1243101129860467E+00  -1.1216257175224904E+00
  -1.1189406991002642E+00  -1.1162550585236062E+00  -1.1135687965953400E+00  -1.1108819141168820E+00  -1.1081944118882463E+00
  -1.1055062907080411E+00  -1.1028175513734813E+00  -1.1001281946803816E+00  -1.0974382214231693E+00  -1.0947476323948806E+00
  -1.0920564283871665E+00  -1.0893646101902978E+00  -1.0866721785931612E+00  -1.0839791343832754E+00  -1.0812854783467802E+00
  -1.0785912112684479E+00  -1.0758963339316829E+00  -1.0732008471185306E+00  -1.0705047516096724E+00  -1.0678080481844368E+00
  -1.0651107376207924E+00  -1.0624128206953611E+00  -1.0597142981834182E+00  -1.0570151708588933E+00  -1.0543154394943743E+00
  -1.0516151048611115E+00  -1.0489141677290175E+00  -1.0462126288666758E+00  -1.0435104890413405E+00  -1.0408077490189371E+00
  -1.0381044095640724E+00  -1.0354004714400280E+00  -1.0326959354087724E+00  -1.0299908022309581E+00  -1.0272850726659264E+00
  -1.0245787474717130E+00  -1.0218718274050473E+00  -1.0191643132213550E+00  -1.0164562056747650E+00  -1.0137475055181087E+00
  -1.0110382135029246E+00  -1.0083283303794601E+00  -1.0056178568966798E+00  -1.0029067938022567E+00  -1.0001951418425870E+00
  -9.9748290176278653E-01  -9.9477007430669906E-01  -9.9205666021688943E-01  -9.8934266023465756E-01  -9.8662807510003447E-01
  -9.8391290555178701E-01  -9.8119715232742111E-01  -9.7848081616318328E-01  -9.7576389779406547E-01  -9.7304639795380710E-01
  -9.7032831737489611E-01  -9.6760965678857447E-01  -9.6489041692483879E-01  -9.6217059851244502E-01  -9.5945020227891231E-01
  -9.5672922895051860E-01  -9.5400767925231322E-01  -9.5128555390811387E-01  -9.4856285364050819E-01  -9.4583957917086403E-01
  -9.4311573121932224E-01  -9.4039131050480773E-01  -9.3766631774502340E-01  -9.3494075365646589E-01  -9.3221461895441327E-01
  -9.2948791435293965E-01  -9.2676064056491358E-01  -9.2403279830199569E-01  -9.2130438827464989E-01  -9.1857541119214314E-01
  -9.1584586776254540E-01  -9.1311575869273376E-01  -9.1038508468839707E-01  -9.0765384645403502E-01  -9.0492204469296478E-01
  -9.0218968010732037E-01  -8.9945675339805597E-01  -8.9672326526495227E-01  -8.9398921640661266E-01  -8.9125460752047092E-01
  -8.8851943930278843E-01  -8.8578371244866760E-01  -8.8304742765203836E-01  -8.8031058560567566E-01  -8.7757318700119480E-01
  -8.7483523252905404E-01  -8.7209672287855655E-01  -8.6935765873786019E-01  -8.6661804079396954E-01  -8.6387786973274461E-01
  -8.6113714623890381E-01  -8.5839587099601855E-01  -8.5565404468653261E-01  -8.5291166799174467E-01  -8.5016874159182598E-01
  -8.4742526616581293E-01  -8.4468124239161546E-01  -8.4193667094601887E-01  -8.3919155250468425E-01  -8.3644588774215112E-01
  -8.3369967733183881E-01  -8.3095292194605785E-01  -8.2820562225599614E-01  -8.2545777893173577E-01  -8.2270939264224874E-01
  -8.1996046405540424E-01  -8.1721099383796025E-01  -8.1446098265558164E-01  -8.1171043117282582E-01  -8.0895934005316372E-01
  -8.0620770995896074E-01  -8.0345554155150101E-01  -8.0070283549097110E-01  -7.9794959243647623E-01  -7.9519581304603426E-01
  -7.9244149797657948E-01  -7.8968664788396814E-01  -7.8693126342297892E-01  -7.8417534524731458E-01  -7.8141889400960385E-01
  -7.7866191036140797E-01  -7.7590439495321484E-01  -7.7314634843445029E-01  -7.7038777145347670E-01  -7.6762866465759183E-01
  -7.6486902869303819E-01  -7.6210886420499691E-01  -7.5934817183759851E-01  -7.5658695223391914E-01  -7.5382520603598613E-01
  -7.5106293388477807E-01  -7.4830013642022886E-01  -7.4553681428122853E-01  -7.4277296810562699E-01  -7.4000859853023271E-01
  -7.3724370619082191E-01  -7.3447829172213319E-01  -7.3171235575787363E-01  -7.2894589893072292E-01  -7.2617892187232880E-01
  -7.2341142521331603E-01  -7.2064340958328865E-01  -7.1787487561082486E-01  -7.1510582392348498E-01  -7.1233625514781618E-01
  -7.0956616990934673E-01  -7.0679556883259587E-01  -7.0402445254106960E-01  -7.0125282165726943E-01  -6.9848067680268833E-01
  -6.9570801859781572E-01  -6.9293484766214053E-01  -6.9016116461415156E-01  -6.8738697007134064E-01  -6.8461226465020319E-01
  -6.8183704896624342E-01  -6.7906132363397242E-01  -6.7628508926691466E-01  -6.7350834647760538E-01  -6.7073109587759761E-01
  -6.6795333807746182E-01  -6.6517507368678408E-01  -6.6239630331417343E-01  -6.5961702756726770E-01  -6.5683724705272573E-01
  -6.5405696237623323E-01  -6.5127617414250694E-01  -6.4849488295529900E-01  -6.4571308941738814E-01  -6.4293079413059484E-01
  -6.4014799769577790E-01  -6.3736470071283247E-01  -6.3458090378069754E-01  -6.3179660749735422E-01  -6.2901181245983417E-01
  -6.2622651926421258E-01  -6.2344072850561705E-01  -6.2065444077822696E-01  -6.1786765667527455E-01  -6.1508037678905059E-01
  -6.1229260171090083E-01  -6.0950433203123355E-01  -6.0671556833951656E-01  -6.0392631122428531E-01  -6.0113656127313486E-01
  -5.9834631907273550E-01  -5.9555558520882346E-01  -5.9276436026620427E-01  -5.8997264482876377E-01  -5.8718043947945586E-01
  -5.8438774480031774E-01  -5.8159456137246335E-01  -5.7880088977609090E-01  -5.7600673059047514E-01  -5.7321208439398541E-01
  -5.7041695176407015E-01  -5.6762133327727105E-01  -5.6482522950922109E-01  -5.6202864103464134E-01  -5.5923156842735255E-01
  -5.5643401226027356E-01  -5.5363597310541091E-01  -5.5083745153388497E-01  -5.4803844811590929E-01  -5.4523896342080624E-01
  -5.4243899801699946E-01  -5.3963855247202741E-01  -5.3683762735252993E-01  -5.3403622322426247E-01  -5.3123434065209596E-01
  -5.2843198020001014E-01  -5.2562914243110748E-01  -5.2282582790760823E-01  -5.2002203719085027E-01  -5.1721777084129572E-01
  -5.1441302941853062E-01  -5.1160781348126760E-01  -5.0880212358734855E-01  -5.0599596029373839E-01  -5.0318932415654172E-01
  -5.0038221573099151E-01  -4.9757463557145581E-01  -4.9476658423144187E-01  -4.9195806226359201E-01  -4.8914907021969173E-01
  -4.8633960865066711E-01  -4.8352967810658726E-01  -4.8071927913666951E-01  -4.7790841228927516E-01  -4.7509707811191743E-01
  -4.7228527715125751E-01  -4.6947300995311264E-01  -4.6666027706244934E-01  -4.6384707902339350E-01  -4.6103341637923106E-01
  -4.5821928967240039E-01  -4.5540469944450629E-01  -4.5258964623631348E-01  -4.4977413058775506E-01  -4.4695815303792730E-01
  -4.4414171412509329E-01  -4.4132481438668730E-01  -4.3850745435931821E-01  -4.3568963457876037E-01  -4.3287135557996986E-01
  -4.3005261789707383E-01  -4.2723342206338144E-01  -4.2441376861137869E-01  -4.2159365807273497E-01  -4.1877309097830007E-01
  -4.1595206785811140E-01  -4.1313058924139023E-01  -4.1030865565654884E-01  -4.0748626763118284E-01  -4.0466342569208591E-01
  -4.0184013036524202E-01  -3.9901638217582663E-01  -3.9619218164821673E-01  -3.9336752930598384E-01  -3.9054242567189690E-01
  -3.8771687126792947E-01  -3.8489086661525651E-01  -3.8206441223425769E-01  -3.7923750864451372E-01  -3.7641015636481989E-01
  -3.7358235591317662E-01  -3.7075410780679163E-01  -3.6792541256209305E-01  -3.6509627069471356E-01  -3.6226668271950857E-01
  -3.5943664915054574E-01  -3.5660617050111160E-01  -3.5377524728371545E-01  -3.5094388001008259E-01  -3.4811206919116955E-01
  -3.4527981533714919E-01  -3.4244711895742508E-01  -3.3961398056062719E-01  -3.3678040065461795E-01  -3.3394637974648234E-01
  -3.3111191834254877E-01  -3.2827701694837158E-01  -3.2544167606874086E-01  -3.2260589620768665E-01  -3.1976967786847593E-01
  -3.1693302155361647E-01  -3.1409592776485507E-01  -3.1125839700318647E-01  -3.0842042976884326E-01  -3.0558202656130901E-01
  -3.0274318787931281E-01  -2.9990391422083074E-01  -2.9706420608309420E-01  -2.9422406396258322E-01  -2.9138348835503014E-01
  -2.8854247975542541E-01  -2.8570103865801244E-01  -2.8285916555629459E-01  -2.8001686094303652E-01  -2.7717412531025754E-01
  -2.7433095914924305E-01  -2.7148736295054315E-01  -2.6864333720397149E-01  -2.6579888239860711E-01  -2.6295399902279898E-01
  -2.6010868756416466E-01  -2.5726294850959308E-01  -2.5441678234524495E-01  -2.5157018955655353E-01  -2.4872317062822932E-01
  -2.4587572604425934E-01  -2.4302785628790707E-01  -2.4017956184171568E-01  -2.3733084318751074E-01  -2.3448170080639777E-01
  -2.3163213517876846E-01  -2.2878214678429765E-01  -2.2593173610194520E-01  -2.2308090360996397E-01  -2.2022964978589074E-01
  -2.1737797510655635E-01  -2.1452588004807921E-01  -2.1167336508587842E-01  -2.0882043069465972E-01  -2.0596707734843003E-01
  -2.0311330552049470E-01  -2.0025911568345275E-01  -1.9740450830920855E-01  -1.9454948386896467E-01  -1.9169404283322822E-01
  -1.8883818567181132E-01  -1.8598191285382934E-01  -1.8312522484770677E-01  -1.8026812212117480E-01  -1.7741060514127838E-01
  -1.7455267437436736E-01  -1.7169433028610764E-01  -1.6883557334147853E-01  -1.6597640400477445E-01  -1.6311682273960654E-01
  -1.6025683000889943E-01  -1.5739642627490336E-01  -1.5453561199918639E-01  -1.5167438764263438E-01  -1.4881275366545993E-01
  -1.4595071052720160E-01  -1.4308825868671768E-01  -1.4022539860219937E-01  -1.3736213073116374E-01  -1.3449845553045456E-01
  -1.3163437345625140E-01  -1.2876988496405950E-01  -1.2590499050872558E-01  -1.2303969054442399E-01  -1.2017398552466542E-01
  -1.1730787590230372E-01  -1.1444136212952391E-01  -1.1157444465785499E-01  -1.0870712393816567E-01  -1.0583940042066932E-01
  -1.0297127455491566E-01  -1.0010274678980760E-01  -9.7233817573587983E-02  -9.4364487353852416E-02  -9.1494756577538888E-02
  -8.8624625690941608E-02  -8.5754095139697659E-02  -8.2883165368801734E-02  -8.0011836822603752E-02  -7.7140109944803650E-02
  -7.4267985178458895E-02  -7.1395462965987283E-02  -6.8522543749158407E-02  -6.5649227969107410E-02  -6.2775516066327475E-02
  -5.9901408480674545E-02  -5.7026905651368726E-02  -5.4152008016990993E-02  -5.1276716015491677E-02  -4.8401030084186975E-02
   1.3276691360092875E+02   1.3276691360092875E+02   1.3276691360092875E+02   1.3276691360092875E+02   1.3276691360092875E+02
   1.3276691360092875E+02   1.3276691360092875E+02   1.3276691360092875E+02   1.3276691360092875E+02   1.3276691360092875E+02
   1.3276691360092875E+02   1.3276691360092875E+02   1.3276691360092875E+02   1.3276691360092875E+02   1.3276691360092875E+02
   1.3276691360092875E+02   1.3276691360092875E+02   1.3276691360092875E+02   1.3276691360092875E+02   1.3276691360092875E+02
   1.3276691360092875E+02   1.3276691360092875E+02   1.3276691360092875E+02   1.3276691360092875E+02   1.3276691360092875E+02
   1.3276691360092875E+02   1.3276691360092875E+02   1.3276691360092875E+02   1.3276691360092875E+02   1.3276691360092875E+02
   1.3276691360092875E+02   1.3276691360092875E+02   1.3276691360092875E+02   1.3276691360092875E+02   1.3276691360092875E+02
   1.3276691360092875E+02   1.3276691360092875E+02   1.3276691360092875E+02   1.3276691360092875E+02   1.3276691360092875E+02
   1.3276691360092875E+02   1.3276691360092875E+02   1.3276691360092875E+02   1.3276691360092875E+02   1.3276691360092875E+02
   1.3276691360092875E+02   1.3276691360092875E+02   1.3276691360092875E+02   1.3276691360092875E+02   1.3276691360092875E+02
   1.3276691360092875E+02   1.3276691360092875E+02   1.3276691360092875E+02   1.3276691360092875E+02   1.3276691360092875E+02
   1.3276691360092875E+02   1.3276691360092875E+02   1.3276691360092875E+02   1.3276691360092875E+02   1.3276691360092875E+02
   1.3276691360092875E+02   1.3276691360092875E+02   1.3276691360092875E+02   1.3276691360092875E+02   1.3276691360092875E+02
   1.3276691360092875E+02   1.3276691360092875E+02   1.3276691360092875E+02   1.3276691360092875E+02   1.3276691360092875E+02
   1.3276691360092875E+02   1.3276691360092875E+02   1.3276691360092875E+02   1.3276691360092875E+02   1.3276691360092875E+02
   1.3276691360092875E+02   1.3276691360092875E+02   1.3276691360092875E+02   1.3276691360092875E+02   1.3276691360092875E+02
   1.3276691360092875E+02   1.3276691360092875E+02   1.3276691360092875E+02   1.3276691360092875E+02   1.3276691360092875E+02
   1.3276691360092875E+02   1.3276691360092875E+02   1.3276691360092875E+02   1.3276691360092875E+02   1.3276691360092875E+02
   1.3276691360092875E+02   1.3276691360092875E+02   1.3276691360092875E+02   1.3276691360092875E+02   1.3276691360092875E+02
   1.3276691360092875E+02   1.3276691360092875E+02   1.3276691360092875E+02   1.3276691360092875E+02   1.3276691360092875E+02
   1.3276691360092875E+02   1.3276691360092875E+02   1.3276691360092875E+02   1.3276691360092875E+02   1.3276691360092875E+02
   1.3276691360092875E+02   1.3276691360092875E+02   1.3276691360092875E+02   1.3276691360092875E+02   1.3276691360092875E+02
   1.3276691360092875E+02   1.3276691360092875E+02   1.3276691360092875E+02   1.3276691360092875E+02   1.3276691360092875E+02
   1.3276691360092875E+02   1.3276691360092875E+02   1.3276691360092875E+02   1.3276691360092875E+02   1.3276691360092875E+02
   1.3276691360092875E+02   1.3276691360092875E+02   1.3276691360092875E+02   1.3276691360092875E+02   1.3276691360092875E+02
   1.3276691360092875E+02   1.3276691360092875E+02   1.3276691360092875E+02   1.3276691360092875E+02   1.3276691360092875E+02
   1.3276691360092875E+02   1.3276691360092875E+02   1.3276691360092875E+02   1.3276691360092875E+02   1.3276691360092875E+02
   1.3276691360092875E+02   1.3276691360092875E+02   1.3276691360092875E+02   1.3276691360092875E+02   1.3276691360092875E+02
   1.3276691360092875E+02   1.3276691360092875E+02   1.3276691360092875E+02   1.3276691360092875E+02   1.3276691360092875E+02
   1.3276691360092875E+02   1.3276691360092875E+02   1.3276691360092875E+02   1.3276691360092875E+02   1.3276691360092875E+02
   1.3276691360092875E+02   1.3276691360092875E+02   1.3276691360092875E+02   1.3276691360092875E+02   1.3276691360092875E+02
   1.3276691360092875E+02   1.3276691360092875E+02   1.3276691360092875E+02   1.3276691360092875E+02   1.3276691360092875E+02
   1.3276691360092875E+02   1.3276691360092875E+02   1.3276691360092875E+02   1.3276691360092875E+02   1.3276691360092875E+02
   1.3276691360092875E+02   1.3276691360092875E+02   1.3276691360092875E+02   1.3276691360092875E+02   1.3276691360092875E+02
   1.3276691360092875E+02   1.3276691360092875E+02   1.3276691360092875E+02   1.3223790548037459E+02   1.3151377191477377E+02
   1.3079360369798044E+02   1.3007737911578081E+02   1.2936507657286765E+02   1.2865667459218974E+02   1.2795215181430376E+02
   1.2725148699673041E+02   1.2655465901331442E+02   1.2586164685358671E+02   1.2517242962213176E+02   1.2448698653795672E+02
   1.2380529693386561E+02   1.2312734025583561E+02   1.2245309606239761E+02   1.2178254402401994E+02   1.2111566392249499E+02
   1.2045243565033007E+02   1.1979283921014084E+02   1.1913685471404861E+02   1.1848446238308037E+02   1.1783564254657254E+02
   1.1719037564157807E+02   1.1654864221227633E+02   1.1591042290938675E+02   1.1527569848958494E+02   1.1464444981492302E+02
   1.1401665785225238E+02   1.1339230367264942E+02   1.1277136845084564E+02   1.1215383346465909E+02   1.1153968009443061E+02
   1.1092888982246197E+02   1.1032144423245781E+02   1.0971732500897011E+02   1.0911651393684612E+02   1.0851899290067917E+02
   1.0792474388426226E+02   1.0733374897004516E+02   1.0674599033859374E+02   1.0616145026805317E+02   1.0558011113361319E+02
   1.0500195540697683E+02   1.0442696565583202E+02   1.0385512454332584E+02   1.0328641482754171E+02   1.0272081936097976E+02
   1.0215832109003952E+02   1.0159890305450621E+02   1.0104254838703855E+02   1.0048924031266111E+02   9.9938962148257801E+01
   9.9391697302069232E+01   9.8847429273192347E+01   9.8306141651082768E+01   9.7767818115060180E+01   9.7232442433816317E+01
   9.6699998464925187E+01   9.6170470154356664E+01   9.5643841535992237E+01   9.5120096731143988E+01   9.4599219948075230E+01
   9.4081195481524972E+01   9.3566007712233812E+01   9.3053641106473407E+01   9.2544080215578106E+01   9.2037309675478795E+01
   9.1533314206239922E+01   9.1032078611598649E+01   9.0533587778507012E+01   9.0037826676675621E+01   8.9544780358121031E+01
   8.9054433956714789E+01   8.8566772687735096E+01   8.8081781847421254E+01   8.7599446812530331E+01   8.7119753039895983E+01
   8.6642686065990077E+01   8.6168231506486777E+01   8.5696375055828597E+01   8.5227102486795175E+01   8.4760399650074305E+01
   8.4296252473835182E+01   8.3834646963304380E+01   8.3375569200343563E+01   8.2919005343030150E+01   8.2464941625239632E+01
   8.2013364356230809E+01   8.1564259920232772E+01   8.1117614776034543E+01   8.0673415456576606E+01   8.0231648568544941E+01
   7.9792300791967236E+01   7.9355358879811206E+01   7.8920809657585224E+01   7.8488640022940984E+01   7.8058836945278600E+01
   7.7631387465353598E+01   7.7206278694886208E+01   7.6783497816172797E+01   7.6363032081699316E+01   7.5944868813756898E+01
   7.5528995404059955E+01   7.5115399313365501E+01   7.4704068071095492E+01   7.4294989274960500E+01   7.3888150590586051E+01
   7.3483539751140555E+01   7.3081144556965540E+01   7.2680952875207652E+01   7.2282952639452944E+01   7.1887131849363030E+01
   7.1493478570313385E+01   7.1101980933033303E+01   7.0712627133248034E+01   7.0325405431323034E+01   6.9940304151909785E+01
   6.9557311683594051E+01   6.9176416478545391E+01   6.8797607052169283E+01   6.8420871982760644E+01   6.8046199911159718E+01
   6.7673579540409307E+01   6.7302999635414182E+01   6.6934449022602493E+01   6.6567916589588691E+01   6.6203391284838688E+01
   6.5840862117336343E+01   6.5480318156252252E+01   6.5121748530614155E+01   6.4765142428979161E+01   6.4410489099107707E+01
   6.4057777847639400E+01   6.3706998039770660E+01   6.3358139098933847E+01   6.3011190506478606E+01   6.2666141801354691E+01
   6.2322982579796324E+01   6.1981702495008712E+01   6.1642291256855970E+01   6.1304738631551032E+01   6.0969034441346857E+01
   6.0635168564229687E+01   6.0303130933613772E+01   5.9972911538037899E+01   5.9644500420863665E+01   5.9317887679974952E+01
   5.8993063467479601E+01   5.8670017989412372E+01   5.8348741505439833E+01   5.8029224328566407E+01   5.7711456824842465E+01
   5.7395429413073742E+01   5.7081132564532538E+01   5.6768556802670467E+01   5.6457692702832510E+01   5.6148530891972996E+01
   5.5841062048372983E+01   5.5535276901359197E+01   5.5231166231024453E+01   5.4928720867949792E+01   5.4627931692927760E+01
   5.4328789636687652E+01   5.4031285679622073E+01   5.3735410851514871E+01   5.3441156231270703E+01   5.3148512946646036E+01
   5.2857472173981726E+01   5.2568025137936864E+01   5.2280163111224290E+01   5.1993877414347317E+01   5.1709159415338092E+01
   5.1426000529497394E+01   5.1144392219135725E+01   5.0864325993315923E+01   5.0585793407597016E+01   5.0308786063779849E+01
   5.0033295609653557E+01   4.9759313738744162E+01   4.9486832190063645E+01   4.9215842747861146E+01   4.8946337241375140E+01
   4.8678307544587234E+01   4.8411745575976965E+01   4.8146643298278164E+01   4.7882992718236714E+01   4.7620785886369490E+01
   4.7360014896724586E+01   4.7100671886643156E+01   4.6842749036522093E+01   4.6586238569578327E+01   4.6331132751614525E+01
   4.6077423890785660E+01   4.5825104337367165E+01   4.5574166483524337E+01   4.5324602763082822E+01   4.5076405651300760E+01
   4.4829567664641509E+01   4.4584081360548282E+01   4.4339939337219661E+01   4.4097134233386399E+01   4.3855658728089566E+01
   4.3615505540459679E+01   4.3376667429497253E+01   4.3139137193854410E+01   4.2902907671617847E+01   4.2667971740092739E+01
   4.2434322315588233E+01   4.2201952353203545E+01   4.1970854846615737E+01   4.1741022827868512E+01   4.1512449367161963E+01
   4.1285127572643766E+01   4.1059050590201224E+01   4.0834211603254715E+01   4.0610603832552300E+01   4.0388220535964976E+01
   4.0167055008283647E+01   3.9947100581016848E+01   3.9728350622189808E+01   3.9510798536144264E+01   3.9294437763339836E+01
   3.9079261780156024E+01   3.8865264098695697E+01   3.8652438266589293E+01   3.8440777866800509E+01   3.8230276517432543E+01
   3.8020927871535839E+01   3.7812725616916708E+01   3.7605663475946947E+01   3.7399735205374633E+01   3.7194934596135788E+01
   3.6991255473167207E+01   3.6788691695220258E+01   3.6587237154675847E+01   3.6386885777360028E+01   3.6187631522360988E+01
   3.5989468381846933E+01   3.5792390380884903E+01   3.5596391577260547E+01   3.5401466061299139E+01   3.5207607955687173E+01
   3.5014811415295313E+01   3.4823070627002089E+01   3.4632379809518639E+01   3.4442733213214346E+01   3.4254125119943573E+01
   3.4066549842873137E+01   3.3880001726310965E+01   3.3694475145535478E+01   3.3509964506625998E+01   3.3326464246294087E+01
   3.3143968831715945E+01   3.2962472760365330E+01   3.2781970559847821E+01   3.2602456787735818E+01   3.2423926031404356E+01
   3.2246372907867993E+01   3.2069792063618422E+01   3.1894178174463171E+01   3.1719525945364907E+01   3.1545830110281976E+01
   3.1373085432009415E+01   3.1201286702021211E+01   3.1030428740313191E+01   3.0860506395246812E+01   3.0691514543393833E+01
   3.0523448089381969E+01   3.0356301965741029E+01   3.0190071132750298E+01   3.0024750578286472E+01   2.9860335317672703E+01
   2.9696820393528085E+01   2.9534200875618296E+01   2.9372471860706973E+01   2.9211628472407817E+01   2.9051665861037527E+01
   2.8892579203469726E+01   2.8734363702989317E+01   2.8577014589148071E+01   2.8420527117620615E+01   2.8264896570061509E+01
   2.8110118253962881E+01   2.7956187502513060E+01   2.7803099674455726E+01   2.7650850153950053E+01   2.7499434350431539E+01
   2.7348847698473566E+01   2.7199085657649722E+01   2.7050143712396959E+01   2.6902017371879417E+01   2.6754702169852955E+01
   2.6608193664530642E+01   2.6462487438448633E+01   2.6317579098333130E+01   2.6173464274967856E+01   2.6030138623062321E+01
   2.5887597821120771E+01   2.5745837571311998E+01   2.5604853599339606E+01   2.5464641654313237E+01   2.5325197508620377E+01
   2.5186516957798876E+01   2.5048595820410153E+01   2.4911429937913198E+01   2.4775015174539078E+01   2.4639347417166345E+01
   2.4504422575196905E+01   2.4370236580432820E+01   2.4236785386953485E+01   2.4104064970993804E+01   2.3972071330822715E+01
   2.3840800486622594E+01   2.3710248480369337E+01   2.3580411375712870E+01   2.3451285257858572E+01   2.3322866233449172E+01
   2.3195150430447438E+01   2.3068133998019313E+01   2.2941813106417953E+01   2.2816183946868104E+01   2.2691242731451329E+01
   2.2566985692991874E+01   2.2443409084942921E+01   2.2320509181273742E+01   2.2198282276357322E+01   2.2076724684858632E+01
   2.1955832741623492E+01   2.1835602801568051E+01   2.1716031239568970E+01   2.1597114450353981E+01   2.1478848848393294E+01
   2.1361230867791434E+01   2.1244256962179751E+01   2.1127923604609443E+01   2.1012227287445302E+01   2.0897164522259839E+01
   2.0782731839728214E+01   2.0668925789523556E+01   2.0555742940212934E+01   2.0443179879153924E+01   2.0331233212391741E+01
   2.0219899564556805E+01   2.0109175578763047E+01   1.9999057916506718E+01   1.9889543257565617E+01   1.9780628299899103E+01
   1.9672309759548455E+01   1.9564584370537897E+01   1.9457448884776067E+01   1.9350900071958183E+01   1.9244934719468525E+01
   1.9139549632283657E+01   1.9034741632876056E+01   1.8930507561118329E+01   1.8826844274187859E+01   1.8723748646472171E+01
   1.8621217569474556E+01   1.8519247951720427E+01   1.8417836718664070E+01   1.8316980812595997E+01   1.8216677192550648E+01
   1.8116922834214822E+01   1.8017714729836378E+01   1.7919049888133646E+01   1.7820925334205139E+01   1.7723338109439950E+01
   1.7626285271428458E+01   1.7529763893873682E+01   1.7433771066503002E+01   1.7338303894980410E+01   1.7243359500819285E+01
   1.7148935021295557E+01   1.7055027609361407E+01   1.6961634433559432E+01   1.6868752677937238E+01   1.6776379541962598E+01
   1.6684512240438959E+01   1.6593148003421447E+01   1.6502284076133442E+01   1.6411917718883405E+01   1.6322046206982357E+01
   1.6232666830661653E+01   1.6143776894991362E+01   1.6055373719798926E+01   1.5967454639588407E+01   1.5880017003460091E+01
   1.5793058175030582E+01   1.5706575532353266E+01   1.5620566467839323E+01   1.5535028388179022E+01   1.5449958714263612E+01
   1.5365354881107500E+01   1.5281214337770921E+01   1.5197534547283048E+01   1.5114312986565487E+01   1.5031547146356184E+01
   1.4949234531133776E+01   1.4867372659042388E+01   1.4785959061816715E+01   1.4704991284707695E+01   1.4624466886408413E+01
   1.4544383438980566E+01   1.4464738527781178E+01   1.4385529751389875E+01   1.4306754721536402E+01   1.4228411063028688E+01
   1.4150496413681154E+01   1.4073008424243554E+01   1.3995944758330104E+01   1.3919303092349063E+01   1.3843081115432629E+01
   1.3767276529367315E+01   1.3691887048524606E+01   1.3616910399792094E+01   1.3542344322504904E+01   1.3468186568377538E+01
   1.3394434901436080E+01   1.3321087097950816E+01   1.3248140946369114E+01   1.3175594247248823E+01   1.3103444813191889E+01
   1.3031690468778448E+01   1.2960329050501199E+01   1.2889358406700202E+01   1.2818776397497979E+01   1.2748580894734996E+01
   1.2678769781905517E+01   1.2609340954093753E+01   1.2540292317910419E+01   1.2471621791429630E+01   1.2403327304126080E+01
   1.2335406796812650E+01   1.2267858221578317E+01   1.2200679541726391E+01   1.2133868731713124E+01   1.2067423777086608E+01
   1.2001342674426077E+01   1.1935623431281462E+01   1.1870264066113343E+01   1.1805262608233173E+01   1.1740617097743900E+01
   1.1676325585480823E+01   1.1612386132952878E+01   1.1548796812284126E+01   1.1485555706155701E+01   1.1422660907747906E+01
   1.1360110520682809E+01   1.1297902658966997E+01   1.1236035446934762E+01   1.1174507019191505E+01   1.1113315520557524E+01
   1.1052459106012041E+01   1.0991935940637623E+01   1.0931744199564797E+01   1.0871882067917067E+01   1.0812347740756191E+01
   1.0753139423027731E+01   1.0694255329506969E+01   1.0635693684745037E+01   1.0577452723015432E+01   1.0519530688260716E+01
   1.0461925834039636E+01   1.0404636423474402E+01   1.0347660729198379E+01   1.0290997033303944E+01   1.0234643627290732E+01
   1.0178598812014084E+01   1.0122860897633871E+01   1.0067428203563480E+01   1.0012299058419194E+01   9.9574717999697384E+00
   9.9029447750862349E+00   9.8487163396922881E+00   9.7947848587144559E+00   9.7411487060329325E+00   9.6878062644325311E+00
   9.6347559255538968E+00   9.5819960898450471E+00   9.5295251665130998E+00   9.4773415734763589E+00   9.4254437373165594E+00
   9.3738300932314580E+00   9.3224990849876495E+00   9.2714491648736352E+00   9.2206787936531551E+00   9.1701864405187745E+00
   9.1199705830457560E+00   9.0700297071461105E+00   9.0203623070229781E+00   8.9709668851252076E+00   8.9218419521022145E+00
   8.8729860267590581E+00   8.8243976360118079E+00   8.7760753148430872E+00   8.7280176062579446E+00   8.6802230612398770E+00
   8.6326902387071875E+00   8.5854177054694798E+00   8.5384040361844988E+00   8.4916478133151010E+00   8.4451476270865609E+00
   8.3989020754440151E+00   8.3529097640102368E+00   8.3071693060435496E+00   8.2616793223960521E+00   8.2164384414719773E+00
   8.1714452991864075E+00   8.1266985389240798E+00   8.0821968114985268E+00   8.0379387751113605E+00   7.9939230953118274E+00
   7.9501484449565920E+00   7.9066135041696732E+00   7.8633169603026971E+00   7.8202575078952705E+00   7.7774338486356545E+00
   7.7348446913215909E+00   7.6924887518213785E+00   7.6503647530351611E+00   7.6084714248563996E+00   7.5668075041335889E+00
   7.5253717346321638E+00   7.4841628669966100E+00   7.4431796587128138E+00   7.4024208740705877E+00   7.3618852841263713E+00
   7.3215716666662400E+00   7.2814788061690017E+00   7.2416054937695691E+00   7.2019505272224702E+00   7.1625127108656486E+00
   7.1232908555843659E+00   7.0842837787753750E+00   7.0454903043112171E+00   7.0069092625048057E+00   6.9685394900741198E+00
   6.9303798301071433E+00   6.8924291320269573E+00   6.8546862515570606E+00   6.8171500506868732E+00   6.7798193976373726E+00
   6.7426931668270251E+00   6.7057702388377942E+00   6.6690495003814165E+00   6.6325298442657861E+00   6.5962101693616093E+00
   6.5600893805691820E+00   6.5241663887853543E+00   6.4884401108706804E+00   6.4529094696167846E+00   6.4175733937138473E+00
   6.3824308177183022E+00   6.3474806820206995E+00   6.3127219328137638E+00   6.2781535220605917E+00   6.2437744074630608E+00
   6.2095835524303844E+00   6.1755799260478410E+00   6.1417625030456948E+00   6.1081302637682766E+00   6.0746821941431914E+00
   6.0414172856507795E+00   6.0083345352936703E+00   5.9754329455665438E+00   5.9427115244260049E+00   5.9101692852607179E+00
   5.8778052468616053E+00   5.8456184333922456E+00   5.8136078743594677E+00   5.7817726045840550E+00   5.7501116641716230E+00
   5.7186240984836729E+00   5.6873089581087992E+00   5.6561652988340212E+00   5.6251921816163275E+00   5.5943886725543264E+00
   5.5637538428600681E+00   5.5332867688310321E+00   5.5029865318222591E+00   5.4728522182186055E+00   5.4428829194072206E+00
   5.4130777317500902E+00   5.3834357565567998E+00   5.3539561000573714E+00   5.3246378733753490E+00   5.2954801925009303E+00
   5.2664821782643116E+00   5.2376429563091271E+00   5.2089616570660979E+00   5.1804374157267521E+00   5.1520693722173423E+00
   5.1238566711728719E+00   5.0957984619112775E+00   5.0678938984077604E+00   5.0401421392692338E+00   5.0125423477089130E+00
   4.9850936915210777E+00   4.9577953430559250E+00   4.9306464791945732E+00   4.9036462813242325E+00   4.8767939353134597E+00
   4.8500886314875933E+00   4.8235295646042680E+00   4.7971159338291303E+00   4.7708469427116320E+00   4.7447217991609696E+00
   4.7187397154221609E+00   4.6928999080522500E+00   4.6672015978966259E+00   4.6416440100654954E+00   4.6162263739104539E+00
   4.5909479230012034E+00   4.5658078951023917E+00   4.5408055321505758E+00   4.5159400802312897E+00   4.4912107895562805E+00
   4.4666169144408236E+00   4.4421577132811887E+00   4.4178324485321889E+00   4.3936403866849139E+00   4.3695807982445212E+00
   4.3456529577081779E+00   4.3218561435431040E+00   4.2981896381647697E+00   4.2746527279151527E+00   4.2512447030411566E+00
   4.2279648576731370E+00   4.2048124898035191E+00   4.1817869012655633E+00   4.1588873977122152E+00   4.1361132885950838E+00
   4.1134638871435332E+00   4.0909385103438796E+00   4.0685364789186833E+00   4.0462571173061983E+00   4.0240997536398755E+00
   4.0020637197280156E+00   3.9801483510334910E+00   3.9583529866536273E+00   3.9366769693001431E+00   3.9151196452792236E+00
   3.8936803644716718E+00   3.8723584803132134E+00   3.8511533497748474E+00   3.8300643333433451E+00   3.8090907950018211E+00
   3.7882321022104279E+00   3.7674876258871421E+00   3.7468567403886532E+00   3.7263388234913348E+00   3.7059332563723579E+00
   3.6856394235908616E+00   3.6654567130692266E+00   3.6453845160744769E+00   3.6254222271997452E+00   3.6055692443458471E+00
   3.5858249687029420E+00   3.5661888047323105E+00   3.5466601601482064E+00   3.5272384458997990E+00   3.5079230761532205E+00
   3.4887134682737102E+00   3.4696090428078232E+00   3.4506092234657668E+00   3.4317134371037907E+00   3.4129211137066897E+00
   3.3942316863703970E+00   3.3756445912846509E+00   3.3571592677157436E+00   3.3387751579893963E+00   3.3204917074736704E+00
   3.3023083645620024E+00   3.2842245806562893E+00   3.2662398101500978E+00   3.2483535104119294E+00   3.2305651417685768E+00
   3.2128741674885477E+00   3.1952800537656127E+00   3.1777822697023783E+00   3.1603802872939877E+00   3.1430735814118700E+00
   3.1258616297875808E+00   3.1087439129967316E+00   3.0917199144429706E+00   3.0747891203420665E+00   3.0579510197060569E+00
   3.0412051043274748E+00   3.0245508687636393E+00   3.0079878103210476E+00   2.9915154290398180E+00   2.9751332276782096E+00
   2.9588407116972144E+00   2.9426373892452404E+00   2.9265227711428357E+00   2.9104963708675089E+00   2.8945577045385913E+00
   2.8787062909022114E+00   2.8629416513162904E+00   2.8472633097356432E+00   2.8316707926971203E+00   2.8161636293048340E+00
   2.8007413512154438E+00   2.7854034926235132E+00   2.7701495902469073E+00   2.7549791833122952E+00   2.7398918135406833E+00
   2.7248870251330226E+00   2.7099643647558715E+00   2.6951233815271403E+00   2.6803636270018703E+00   2.6656846551580795E+00
   2.6510860223826898E+00   2.6365672874574821E+00   2.6221280115451306E+00   2.6077677581752727E+00   2.5934860932306711E+00
   2.5792825849333911E+00   2.5651568038310653E+00   2.5511083227831901E+00   2.5371367169474910E+00   2.5232415637663363E+00
   2.5094224429531997E+00   2.4956789364791794E+00   2.4820106285595638E+00   2.4684171056404494E+00   2.4548979563854196E+00
   2.4414527716622465E+00   2.4280811445296613E+00   2.4147826702241688E+00   2.4015569461469140E+00   2.3884035718505605E+00
   2.3753221490262764E+00   2.3623122814906981E+00   2.3493735751729936E+00   2.3365056381019169E+00   2.3237080803929588E+00
   2.3109805142354913E+00   2.2983225538799914E+00   2.2857338156252585E+00   2.2732139178057351E+00   2.2607624807788027E+00
   2.2483791269121540E+00   2.2360634805711865E+00   2.2238151681064373E+00   2.2116338178410602E+00   2.1995190600583143E+00
   2.1874705269891104E+00   2.1754878527995789E+00   2.1635706735786799E+00   2.1517186273258169E+00   2.1399313539385258E+00
   2.1282084952001479E+00   2.1165496947675710E+00   2.1049545981589568E+00   2.0934228527415457E+00   2.0819541077194379E+00
   2.0705480141214441E+00   2.0592042247889135E+00   2.0479223943636451E+00   2.0367021792757614E+00   2.0255432377316462E+00
   2.0144452297018867E+00   2.0034078169092360E+00   1.9924306628166069E+00   1.9815134326150643E+00   1.9706557932118540E+00
   1.9598574132184368E+00   1.9491179629385542E+00   1.9384371143562780E+00   1.9278145411241174E+00   1.9172499185510976E+00
   1.9067429235908888E+00   1.8962932348299006E+00   1.8859005324754479E+00   1.8755644983438637E+00   1.8652848158486752E+00
   1.8550611699887340E+00   1.8448932473364137E+00   1.8347807360257584E+00   1.8247233257406699E+00   1.8147207077030878E+00
   1.8047725746611729E+00   1.7948786208774989E+00   1.7850385421172354E+00   1.7752520356363366E+00   1.7655188001697339E+00
   1.7558385359195241E+00   1.7462109445431473E+00   1.7366357291415717E+00   1.7271125942474710E+00   1.7176412458133989E+00
   1.7082213911999480E+00   1.6988527391639110E+00   1.6895349998464304E+00   1.6802678847611479E+00   1.6710511067823117E+00
   1.6618843801329264E+00   1.6527674203728389E+00   1.6436999443868399E+00   1.6346816703727467E+00   1.6257123178294641E+00
   1.6167916075450433E+00   1.6079192615847018E+00   1.5990950032788505E+00   1.5903185572110814E+00   1.5815896492061547E+00
   1.5729080063179444E+00   1.5642733568173779E+00   1.5556854301803489E+00   1.5471439570756074E+00   1.5386486693526200E+00
   1.5301993000294123E+00   1.5217955832803809E+00   1.5134372544240797E+00   1.5051240499109830E+00   1.4968557073112072E+00
   1.4886319653022151E+00   1.4804525636564851E+00   1.4723172432291556E+00   1.4642257459456145E+00   1.4561778147890965E+00
   1.4481731937882010E+00   1.4402116280044173E+00   1.4322928635195729E+00   1.4244166474232933E+00   1.4165827278003809E+00
   1.4087908537181850E+00   1.4010407752139231E+00   1.3933322432819706E+00   1.3856650098610981E+00   1.3780388278216855E+00
   1.3704534509528867E+00   1.3629086339497531E+00   1.3554041324003274E+00   1.3479397027726772E+00   1.3405151024019035E+00
   1.3331300894771001E+00   1.3257844230282771E+00   1.3184778629132230E+00   1.3112101698043566E+00   1.3039811051755024E+00
   1.2967904312886516E+00   1.2896379111806524E+00   1.2825233086498893E+00   1.2754463882428901E+00   1.2684069152409170E+00
   1.2614046556464853E+00   1.2544393761698769E+00   1.2475108442155816E+00   1.2406188278687127E+00   1.2337630958813817E+00
   1.2269434176590293E+00   1.2201595632467257E+00   1.2134113033154201E+00   1.2066984091481676E+00   1.2000206526263115E+00
   1.1933778062156419E+00   1.1867696429524988E+00   1.1801959364298797E+00   1.1736564607834794E+00   1.1671509906777335E+00
   1.1606793012918080E+00   1.1542411683055944E+00   1.1478363678856549E+00   1.1414646766711720E+00   1.1351258717598569E+00
   1.1288197306938732E+00   1.1225460314457205E+00   1.1163045524041302E+00   1.1100950723599456E+00   1.1039173704920069E+00
   1.0977712263530366E+00   1.0916564198555283E+00   1.0855727312576500E+00   1.0795199411491612E+00   1.0734978304373528E+00
   1.0675061803330030E+00   1.0615447723363729E+00   1.0556133882232301E+00   1.0497118100309244E+00   1.0438398200444878E+00
   1.0379972007828224E+00   1.0321837349849130E+00   1.0263992055961391E+00   1.0206433957546279E+00   1.0149160887777300E+00
   1.0092170681485484E+00   1.0035461175025904E+00   9.9790302061452008E-01   9.9228756138502638E-01   9.8669952382782733E-01
   9.8113869205679860E-01   9.7560485027326305E-01   9.7009778275343261E-01   9.6461727383602769E-01   9.5916310791007020E-01
   9.5373506940288288E-01   9.4833294276829094E-01   9.4295651247505474E-01   9.3760556299552766E-01   9.3227987879457841E-01
   9.2697924431877354E-01   9.2170344398585125E-01   9.1645226217448439E-01   9.1122548321437413E-01   9.0602289137667258E-01
   9.0084427086476082E-01   8.9568940580540968E-01   8.9055808024031557E-01   8.8545007811807985E-01   8.8036518328660107E-01
   8.7530317948593805E-01   8.7026385034165643E-01   8.6524697935868244E-01   8.6025234991568089E-01   8.5527974526000117E-01
   8.5032894850320084E-01   8.4539974261718720E-01   8.4049191043098936E-01   8.3560523462820879E-01   8.3073949774516420E-01
   8.2589448216976924E-01   8.2106997014117289E-01   8.1626574375019101E-01   8.1148158494057265E-01   8.0671727551112704E-01
   8.0197259711875635E-01   7.9724733128240943E-01   7.9254125938803677E-01   7.8785416269452946E-01   7.8318582234073730E-01
   7.7853601935355499E-01   7.7390453465717268E-01   7.6929114908347740E-01   7.6469564338369789E-01   7.6011779824129666E-01
   7.5555739428619562E-01   7.5101421211033970E-01   7.4648803228467842E-01   7.4197863537759934E-01   7.3748580197486036E-01
   7.3300931270108338E-01   7.2854894824284078E-01   7.2410448937340488E-01   7.1967571697920196E-01   7.1526241208802988E-01
   7.1086435589907626E-01   7.0648132981482281E-01   7.0211311547485356E-01   6.9775949479165200E-01   6.9342024998841445E-01
   6.8909516363896994E-01   6.8478401870981953E-01   6.8048659860439176E-01   6.7620268720953103E-01   6.7193206894431479E-01
   6.6767452881121114E-01   6.6342985244966846E-01   6.5919782619216649E-01   6.5497823712279180E-01   6.5077087313839310E-01
   6.4657552301235288E-01   6.4239197646104251E-01   6.3822002421299862E-01   6.3405945808087338E-01   6.2991007103618868E-01
   6.2577165728696793E-01   6.2164401235824707E-01   6.1752693317553820E-01   6.1342021815125014E-01   6.0932366727413190E-01
   6.0523708220173056E-01   6.0116026635592301E-01   5.9709302502151373E-01   5.9303516544794732E-01   5.8898649695411431E-01
   5.8494683103628664E-01   5.8091598147916967E-01   5.7689376447007590E-01   5.7287999871620865E-01   5.6887450556503938E-01
   5.6487710912776357E-01   5.6088763640580286E-01   5.5690591742032247E-01   5.5293178534471099E-01   5.4896507663998717E-01
   5.4500563119306122E-01   5.4105329245779410E-01   5.3710790759876259E-01   5.3316932763766178E-01   5.2923740760223359E-01
   5.2531200667762801E-01   5.2139298836005987E-01   5.1748022061265853E-01   5.1357357602334908E-01   5.0967293196462593E-01
   5.0577817075505060E-01   5.0188917982229875E-01   4.9800585186757346E-01   4.9412808503117095E-01   4.9025578305900275E-01
   4.8638885546983224E-01   4.8252721772299628E-01   4.7867079138634572E-01   4.7481950430415226E-01   4.7097329076468863E-01
   4.6713209166719682E-01   4.6329585468792528E-01   4.5946453444492613E-01   4.5563809266126881E-01   4.5181649832632931E-01
   4.4799972785478248E-01   4.4418776524294190E-01   4.4038060222204650E-01   4.3657823840810694E-01   4.3278068144790249E-01
   4.2898794716070027E-01   4.2520005967529401E-01   4.2141705156189208E-01   4.1763896395844452E-01   4.1386584669092286E-01
   4.1009775838713430E-01   4.0633476658356538E-01   4.0257694782482295E-01   3.9882438775518203E-01   3.9507718120178381E-01
   3.9133543224899842E-01   3.8759925430350028E-01   3.8386877014957960E-01   3.8014411199423215E-01   3.7642542150157898E-01
   3.7271284981615704E-01   3.6900655757466289E-01   3.6530671490571182E-01   3.6161350141721466E-01   3.5792710617096085E-01
   3.5424772764406254E-01   3.5057557367686765E-01   3.4691086140704125E-01   3.4325381718947634E-01   3.3960467650178239E-01
   3.3596368383506081E-01   3.3233109256977250E-01   3.2870716483647616E-01   3.2509217136130736E-01   3.2148639129603829E-01
   3.1789011203266171E-01   3.1430362900242964E-01   3.1072724545934738E-01   3.0716127224815554E-01   3.0360602755686822E-01
   3.0006183665399910E-01   2.9652903161063138E-01   2.9300795100755117E-01   2.8949893962768458E-01   2.8600234813417486E-01
   2.8251853273441269E-01   2.7904785483045513E-01   2.7559068065624714E-01   2.7214738090217427E-01   2.6871833032744874E-01
   2.6530390736094811E-01   2.6190449369110597E-01   2.5852047384555876E-01   2.5515223476123189E-01   2.5180016534564281E-01
   2.4846465603020376E-01   2.4514609831635234E-01   2.4184488431537862E-01   2.3856140628283035E-01   2.3529605614843069E-01
   2.3204922504244652E-01   2.2882130281948188E-01   2.2561267758067705E-01   2.2242373519532674E-01   2.1925485882292714E-01
   2.1610642843668071E-01   2.1297882034947946E-01   2.0987240674341151E-01   2.0678755520380662E-01   2.0372462825885218E-01
   2.0068398292577705E-01   1.9766597026462573E-01   1.9467093494057142E-01   1.9169921479575391E-01   1.8875114043155933E-01
   1.8582703480225296E-01   1.8292721282084007E-01   1.8005198097798414E-01   1.7720163697479441E-01   1.7437646937023293E-01
   1.7157675724386132E-01   1.6880276987459039E-01   1.6605476643606101E-01   1.6333299570922064E-01   1.6063769581261758E-01
   1.5796909395087136E-01   1.5532740618173269E-01   1.5271283720209039E-01   1.5012558015321117E-01   1.4756581644545508E-01
   1.4503371560265932E-01   1.4252943512629282E-01   1.4005312037947212E-01   1.3760490449083215E-01   1.3518490827820923E-01
   1.3279324019205169E-01   1.3042999627837756E-01   1.2809526016110376E-01   1.2578910304346430E-01   1.2351158372823788E-01
   1.2126274865641504E-01   1.1904263196392011E-01   1.1685125555595578E-01   1.1468862919848510E-01   1.1255475062634226E-01
   1.1044960566743539E-01   1.0837316838244659E-01   1.0632540121944258E-01   1.0430625518274900E-01   1.0231567001544163E-01
   1.0035357439478476E-01   9.8419886139912774E-02   9.6514512431067706E-02   9.4637350039656370E-02   9.2788285568423778E-02
   9.0967195700993514E-02   8.9173947460054234E-02   8.7408398473448903E-02   8.5670397247446656E-02   8.3959783446451428E-02
   8.2276388178446569E-02   8.0620034285441192E-02   7.8990536638237130E-02   7.7387702434808733E-02   7.5811331501629789E-02
   7.4261216597289556E-02   7.2737143717748823E-02   7.1238892402616341E-02   6.9766236041847604E-02   6.8318942182272566E-02
   6.6896772833405477E-02   6.5499484771989552E-02   6.4126829844766212E-02   6.2778555268985917E-02   6.1454403930183359E-02
   6.0154114676792055E-02   5.8877422611169454E-02   5.7624059376657807E-02   5.6393753440304388E-02   5.5186230370911589E-02
   5.4001213112096783E-02   5.2838422250081986E-02   5.1697576275937268E-02   5.0578391842051054E-02   4.9480584012598416E-02
   4.8403866507825397E-02   4.7347951941969904E-02   4.6312552054673134E-02   4.5297377935757735E-02   4.4302140243256842E-02
   4.3326549414616104E-02   4.2370315870991770E-02   4.1433150214598480E-02   4.0514763419074992E-02   3.9614867012847090E-02
   3.8733173255487890E-02   3.7869395307094392E-02   3.7023247390698663E-02   3.6194444947765490E-02   3.5382704786819451E-02
   3.4587745225276356E-02   3.3809286224546577E-02   3.3047049518499544E-02   3.2300758735386258E-02   3.1570139513316893E-02
   3.0854919609411818E-02   3.0154829002737121E-02   2.9469599991152229E-02   2.8798967282200206E-02   2.8142668078171857E-02
   2.7500442155484355E-02   2.6872031938518996E-02   2.6257182568059069E-02   2.5655641964482008E-02   2.5067160885851241E-02
   2.4491492981062537E-02   2.3928394838199141E-02   2.3377626028246955E-02   2.2838949144325368E-02   2.2312129836590408E-02
   2.1796936842959316E-02   2.1293142015815416E-02   2.0800520344839962E-02   2.0318849976126943E-02   1.9847912227726153E-02
   1.9387491601763517E-02   1.8937375793285725E-02   1.8497355695968498E-02   1.8067225404833874E-02   1.7646782216110705E-02
   1.7235826624375877E-02   1.6834162317109581E-02   1.6441596166792270E-02   1.6057938220670864E-02   1.5683001688319168E-02
   1.5316602927110434E-02   1.4958561425720227E-02   1.4608699785774242E-02   1.4266843701750622E-02   1.3932821939243598E-02
   1.3606466311692874E-02   1.3287611655680116E-02   1.2976095804887488E-02   1.2671759562814184E-02   1.2374446674339880E-02
   1.2084003796223784E-02   1.1800280466622399E-02   1.1523129073706827E-02   1.1252404823457230E-02   1.0987965706710266E-02
   1.0729672465529061E-02   1.0477388558965458E-02   1.0230980128280220E-02   9.9903159616836282E-03   9.7552674586558769E-03
   9.5257085939055818E-03   9.3015158810196702E-03   9.0825683358580767E-03   8.8687474397411217E-03   8.6599371024771096E-03
   8.4560236252752361E-03   8.2568956635853102E-03   8.0624441899043789E-03   7.8725624565879997E-03   7.6871459587027156E-03
   7.5060923969519910E-03   7.3293016407085824E-03   7.1566756911818725E-03   6.9881186447502217E-03   6.8235366564819823E-03
   6.6628379038717288E-03   6.5059325508134988E-03   6.3527327118333447E-03   6.2031524166000990E-03   6.0571075747332583E-03
   5.9145159409251663E-03   5.7752970803931726E-03   5.6393723346757864E-03   5.5066647877865639E-03   5.3770992327380265E-03
   5.2506021384459318E-03   5.1271016170245827E-03   5.0065273914813510E-03   4.8888107638198246E-03   4.7738845835569050E-03
   4.6616832166615592E-03   4.5521425149198129E-03   4.4451997857314308E-03   4.3407937623413991E-03   4.2388645745099927E-03
   4.1393537196239578E-03   4.0422040342508164E-03   3.9473596661373936E-03   3.8547660466536683E-03   3.7643698636825079E-03
   3.6761190349545165E-03   3.5899626818279790E-03   3.5058511035123956E-03   3.4237357517345629E-03   3.3435692058451775E-03
   3.2653051483637085E-03   3.1888983409590990E-03   3.1143046008638093E-03   3.0414807777175796E-03   2.9703847308378928E-03
   2.9009753069137319E-03   2.8332123181182209E-03   2.7670565206369111E-03   2.7024695936068875E-03   2.6394141184625567E-03
   2.5778535586838238E-03   2.5177522399415929E-03   2.4590753306360058E-03   2.4017888228225932E-03   2.3458595135212763E-03
   2.2912549864029853E-03   2.2379435938488755E-03   2.1858944393770316E-03   2.1350773604310296E-03   2.0854629115253450E-03
   2.0370223477419922E-03   1.9897276085731868E-03   1.9435513021045167E-03   1.8984666895331145E-03   1.8544476700154146E-03
   1.8114687658392335E-03   1.7695051079144098E-03   1.7285324215767452E-03   1.6885270126999481E-03   1.6494657541098151E-03
   1.6113260722957511E-03   1.5740859344138055E-03   1.5377238355763498E-03   1.5022187864227805E-03   1.4675503009662378E-03
   1.4336983847110163E-03   1.4006435230356361E-03   1.3683666698364476E-03   1.3368492364266627E-03   1.3060730806858784E-03
   1.2760204964552659E-03   1.2466742031733563E-03   1.2180173357477350E-03   1.1900334346579549E-03   1.1627064362847608E-03
   1.1360206634612887E-03   1.1099608162414339E-03   1.0845119628809902E-03   1.0596595310272136E-03   1.0353892991122877E-03
   1.0116873879464725E-03   9.8854025250679368E-04   9.6593467391689679E-04   9.4385775161423709E-04   9.2229689570031759E-04
   9.0123981947025410E-04   8.8067453211758027E-04   8.6058933161060923E-04   8.4097279773648836E-04   8.2181378530938860E-04
   8.0310141753902958E-04   7.8482507955618646E-04   7.6697441209147565E-04   7.4953930530420273E-04   7.3250989275774024E-04
   7.1587654553821828E-04   6.9962986651333863E-04   6.8376068472799918E-04   6.6826004993380541E-04   6.5311922724923632E-04
   6.3832969194764911E-04   6.2388312437005472E-04   6.0977140495989878E-04   5.9598660941696173E-04   5.8252100396772710E-04
   5.6936704074938042E-04   5.5651735330497704E-04   5.4396475218701263E-04   5.3170222066703857E-04   5.1972291054871674E-04
   5.0802013808195362E-04   4.9658737997576813E-04   4.8541826950750073E-04   4.7450659272614478E-04   4.6384628474760632E-04
   4.5343142613963353E-04   4.4325623939439873E-04   4.3331508548657700E-04   4.2360246051491356E-04   4.1411299242533701E-04
   4.0484143781360755E-04   3.9578267880564517E-04   3.8693172001368883E-04   3.7828368556645710E-04   3.6983381621153003E-04
   3.6157746648824779E-04   3.5351010196940381E-04   3.4562729657012245E-04   3.3792472992224084E-04   3.3039818481269632E-04
   3.2304354468429275E-04   3.1585679119742132E-04   3.0883400185120085E-04   3.0197134766262585E-04   2.9526509090233857E-04
   2.8871158288561335E-04   2.8230726181723681E-04   2.7604865068898645E-04   2.6993235522841528E-04   2.6395506189769049E-04
   2.5811353594129143E-04   2.5240461948135019E-04   2.4682522965951135E-04   2.4137235682413971E-04   2.3604306276178748E-04
   2.3083447897185200E-04   2.2574380498335708E-04   2.2076830671282469E-04   2.1590531486224187E-04   2.1115222335615471E-04
   2.0650648781690451E-04   2.0196562407709056E-04   1.9752720672836180E-04   1.9318886770560852E-04   1.8894829490573461E-04
   1.8480323084012722E-04   1.8075147132000813E-04   1.7679086417387945E-04   1.7291930799624559E-04   1.6913475092686356E-04
   1.6543518945977419E-04   1.6181866728137725E-04   1.5828327413683189E-04   1.5482714472410275E-04   1.5144845761495468E-04
   1.4814543420225583E-04   1.4491633767292237E-04   1.4175947200588201E-04   1.3867318099445089E-04   1.3565584729251354E-04
   1.3270589148392216E-04   1.2982177117454416E-04   1.2700198010641341E-04   1.2424504729342191E-04   1.2154953617804128E-04
   1.1891404380853623E-04   1.1633720003620048E-04   1.1381766673208045E-04   1.1135413702274163E-04   1.0894533454458914E-04
   1.0659001271630339E-04   1.0428695402893018E-04   1.0203496935319699E-04   9.9832897263638798E-05   9.7679603379112825E-05
   9.5573979719299585E-05   9.3514944076799104E-05   9.1501439404446073E-05   8.9532433217456777E-05   8.7606917010055551E-05
   8.5723905686216405E-05   8.3882437004181981E-05   8.2081571034415990E-05   8.0320389630658863E-05   7.8597995913766731E-05
   7.6913513768025085E-05   7.5266087349621575E-05   7.3654880606986036E-05   7.2079076812706395E-05   7.0537878106737597E-05
   6.9030505050620610E-05   6.7556196192450661E-05   6.6114207642322754E-05   6.4703812658007694E-05   6.3324301240598403E-05
   6.1974979739886943E-05   6.0655170469236296E-05   5.9364211329711817E-05   5.8101455443245405E-05   5.6866270794611507E-05
   5.5658039882005035E-05   5.4476159376001930E-05   5.3320039786706256E-05   5.2189105138874445E-05   5.1082792654836594E-05
   5.0000552445006789E-05   4.8941847205810786E-05   4.7906151924842923E-05   4.6892953593081605E-05   4.5901750923985672E-05
   4.4932054079306452E-05   4.3983384401453779E-05   4.3055274152254589E-05   4.2147266257947244E-05   4.1258914060261343E-05
   4.0389781073437234E-05   3.9539440747035936E-05   3.8707476234403062E-05   3.7893480166646269E-05   3.7097054431995031E-05
   3.6317809960411259E-05   3.5555366513321416E-05   3.4809352478347614E-05   3.4079404668918394E-05   3.3365168128636389E-05
   3.2666295940291020E-05   3.1982449039403039E-05   3.1313296032191588E-05   3.0658513017854825E-05   3.0017783415061190E-05
   2.9390797792551522E-05   2.8777253703748120E-05   2.8176855525278207E-05   2.7589314299314127E-05   2.7014347579640972E-05
   2.6451679281359905E-05   2.5901039534139676E-05   2.5362164538930470E-05   2.4834796428059156E-05   2.4318683128620769E-05
   2.3813578229089186E-05   2.3319240849070439E-05   2.2835435512119197E-05   2.2361932021550129E-05   2.1898505339167548E-05
   2.1444935466845042E-05   2.1001007330888312E-05   2.0566510669111404E-05   2.0141239920562610E-05   1.9724994117838294E-05
   1.9317576781918632E-05   1.8918795819469423E-05   1.8528463422546817E-05   1.8146395970651008E-05   1.7772413935069718E-05
   1.7406341785459102E-05   1.7048007898606712E-05   1.6697244469325920E-05   1.6353887423430541E-05   1.6017776332739108E-05
   1.5688754332060990E-05   1.5366668038118386E-05   1.5051367470355681E-05   1.4742705973592620E-05   1.4440540142478300E-05
   1.4144729747700341E-05   1.3855137663911133E-05   1.3571629799326747E-05   1.3294075026961975E-05   1.3022345117460055E-05
   1.2756314673481170E-05   1.2495861065611201E-05   1.2240864369756478E-05   1.1991207305987017E-05   1.1746775178796594E-05
   1.1507455818743407E-05   1.1273139525441196E-05   1.1043719011866902E-05   1.0819089349954592E-05   1.0599147917445927E-05
   1.0383794345966041E-05   1.0172930470296740E-05   9.9664602788195013E-06   9.7642898650987274E-06   9.5663273805807165E-06
   9.3724829883802553E-06   9.1826688181298895E-06   8.9967989218675673E-06   8.8147892309366490E-06   8.6365575138763784E-06
   8.4620233352777117E-06   8.2911080155835355E-06   8.1237345918096479E-06   7.9598277791660588E-06   7.7993139335565519E-06
   7.6421210149370228E-06   7.4881785515111399E-06   7.3374176047452358E-06   7.1897707351816661E-06   7.0451719690336037E-06
   6.9035567655416446E-06   6.7648619850750428E-06   6.6290258579605774E-06   6.4959879540211744E-06   6.3656891528082781E-06
   6.2380716145119749E-06   6.1130787515327470E-06   5.9906552006993547E-06   5.8707467961182902E-06   5.7533005426395134E-06
   5.6382645899249177E-06   5.5255882071046494E-06   5.4152217580082118E-06   5.3071166769569180E-06   5.2012254451046765E-06
   5.0975015673141368E-06   4.9958995495560177E-06   4.8963748768197908E-06   4.7988839915232241E-06   4.7033842724096254E-06
   4.6098340139218538E-06   4.5181924060411700E-06   4.4284195145812045E-06   4.3404762619258311E-06   4.2543244082008710E-06
   4.1699265328699975E-06   4.0872460167444713E-06   4.0062470243975509E-06   3.9268944869742473E-06   3.8491540853872793E-06
   3.7729922338901687E-06   3.6983760640191362E-06   3.6252734088949889E-06   3.5536527878771368E-06   3.4834833915612396E-06
   3.4147350671127578E-06   3.3473783039289187E-06   3.2813842196213017E-06   3.2167245463117580E-06   3.1533716172345087E-06
   3.0912983536376013E-06   3.0304782519765672E-06   2.9708853713937350E-06   2.9124943214768377E-06   2.8552802502903440E-06
   2.7992188326732692E-06   2.7442862587975658E-06   2.6904592229809641E-06   2.6377149127487192E-06   2.5860309981382772E-06
   2.5353856212415523E-06   2.4857573859793927E-06   2.4371253481029479E-06   2.3894690054166664E-06   2.3427682882180047E-06
   2.2970035499490261E-06   2.2521555580548294E-06   2.2082054850443534E-06   2.1651348997487842E-06   2.1229257587733022E-06
   2.0815603981376236E-06   2.0410215251011151E-06   2.0012922101682717E-06   1.9623558792706615E-06   1.9241963061210665E-06
   1.8867976047362015E-06   1.8501442221239868E-06   1.8142209311318512E-06   1.7790128234523663E-06   1.7445053027825887E-06
   1.7106840781337105E-06   1.6775351572877762E-06   1.6450448403978962E-06   1.6131997137288737E-06   1.5819866435352115E-06
   1.5513927700730910E-06   1.5214055017437073E-06   1.4920125093646890E-06   1.4632017205668672E-06   1.4349613143136930E-06
   1.4072797155403332E-06   1.3801455899098915E-06   1.3535478386841817E-06   1.3274755937064122E-06   1.3019182124932686E-06
   1.2768652734340232E-06   1.2523065710942052E-06   1.2282321116216179E-06   1.2046321082522662E-06   1.1814969769140621E-06
   1.1588173319261343E-06   1.1365839817916106E-06   1.1147879250817290E-06   1.0934203464092890E-06   1.0724726124895466E-06
   1.0519362682864349E-06   1.0318030332423691E-06   1.0120647975896331E-06   9.9271361874178793E-07   9.7374171776299978E-07
   9.5514147591382570E-07   9.3690543127160819E-07   9.1902627542395802E-07   9.0149685023357302E-07   8.8431014467289272E-07
   8.6745929172705230E-07   8.5093756536361354E-07   8.3473837756756492E-07   8.1885527544017303E-07   8.0328193836034446E-07
   7.8801217520699381E-07   7.7303992164118099E-07   7.5835923744662836E-07   7.4396430392740281E-07   7.2984942136145882E-07
   7.1600900650881466E-07   7.0243759017315971E-07   6.8912981481578097E-07   6.7608043222056985E-07   6.6328430120903225E-07
   6.5073638540422533E-07   6.3843175104253077E-07   6.2636556483218781E-07   6.1453309185761469E-07   6.0292969352846238E-07
   5.9155082557250089E-07   5.8039203607128650E-07   5.6944896353772611E-07   5.5871733503463680E-07   5.4819296433338718E-07
   5.3787175011172828E-07   5.2774967418997438E-07   5.1782279980474192E-07   5.0808726991934482E-07   4.9853930557012171E-07
   4.8917520424784392E-07   4.7999133831355527E-07   4.7098415344794901E-07   4.6215016713366494E-07   4.5348596716973492E-07
   4.4498821021752625E-07   4.3665362037744538E-07   4.2847898779576439E-07   4.2046116730092878E-07   4.1259707706869523E-07
   4.0488369731546077E-07   3.9731806901918656E-07   3.8989729266734818E-07   3.8261852703127110E-07   3.7547898796632992E-07
   3.6847594723741999E-07   3.6160673136918796E-07   3.5486872052046756E-07   3.4825934738239174E-07   3.4177609609968276E-07
   3.3541650121463919E-07   3.2917814663329031E-07   3.2305866461326859E-07   3.1705573477293370E-07   3.1116708312129004E-07
   3.0539048110823113E-07   2.9972374469470478E-07   2.9416473344234284E-07   2.8871134962217568E-07   2.8336153734197884E-07
   2.7811328169187550E-07   2.7296460790781271E-07   2.6791358055251328E-07   2.6295830271353156E-07   2.5809691521804459E-07
   2.5332759586404594E-07   2.4864855866755233E-07   2.4405805312551489E-07   2.3955436349407664E-07   2.3513580808186726E-07
   2.3080073855800874E-07   2.2654753927450744E-07   2.2237462660273443E-07   2.1828044828371096E-07   2.1426348279187339E-07
   2.1032223871204794E-07   2.0645525412937065E-07   2.0266109603183578E-07   1.9893835972525569E-07   1.9528566826031885E-07
   1.9170167187153399E-07   1.8818504742777437E-07   1.8473449789419722E-07   1.8134875180528321E-07   1.7802656274877626E-07
